<?xml version="1.0"?>
<opencv_storage>
<my_svm type_id="opencv-ml-svm">
  <svm_type>C_SVC</svm_type>
  <kernel><type>RBF</type>
    <gamma>5.0625000000000009e-001</gamma></kernel>
  <C>3.1250000000000000e+002</C>
  <term_criteria><epsilon>2.2204460492503131e-016</epsilon>
    <iterations>100</iterations></term_criteria>
  <var_all>1000</var_all>
  <var_count>1000</var_count>
  <class_count>2</class_count>
  <class_labels type_id="opencv-matrix">
    <rows>1</rows>
    <cols>2</cols>
    <dt>i</dt>
    <data>
      0 1</data></class_labels>
  <sv_total>26</sv_total>
  <support_vectors>
    <_>
      0. 0. 0. 0. 1.25000002e-002 0. 0. 0. 0. 5.55555569e-003
      1.38888892e-003 2.77777785e-003 2.77777785e-003 0. 0.
      1.38888892e-003 0. 6.94444450e-003 2.77777785e-003 1.38888892e-003
      0. 5.55555569e-003 0. 0. 2.77777785e-003 1.38888892e-003
      1.11111114e-002 0. 0. 2.77777785e-003 4.16666688e-003
      1.38888892e-003 2.77777785e-003 1.38888892e-003 1.38888892e-003
      1.38888892e-003 0. 0. 0. 0. 0. 0. 0. 1.38888892e-003 0.
      1.25000002e-002 1.38888892e-003 0. 0. 0. 0. 1.38888892e-003 0.
      2.77777785e-003 2.77777785e-003 1.38888892e-003 0. 0.
      4.16666688e-003 2.77777785e-003 0. 0. 1.38888892e-003 0.
      2.77777785e-003 1.38888892e-003 1.38888892e-003 1.38888892e-003
      1.38888892e-003 0. 1.38888892e-003 2.77777785e-003 5.55555569e-003
      6.94444450e-003 0. 0. 1.38888892e-003 0. 1.38888892e-003 0. 0. 0.
      1.38888892e-003 1.38888892e-003 0. 0. 0. 0. 0. 0. 0.
      1.38888892e-003 0. 0. 4.16666688e-003 6.94444450e-003 0.
      1.38888892e-003 0. 0. 0. 0. 0. 0. 0. 0. 0. 1.38888892e-003
      2.77777785e-003 0. 1.38888892e-003 0. 1.38888892e-003 0.
      1.38888892e-003 0. 0. 0. 2.77777785e-003 0. 0. 0. 0.
      2.77777785e-003 1.38888892e-003 1.38888892e-003 1.38888892e-003
      1.38888892e-003 0. 1.38888892e-003 0. 0. 4.16666688e-003
      1.38888892e-003 0. 0. 1.38888892e-003 0. 0. 0. 2.77777785e-003 0.
      1.11111114e-002 0. 0. 2.77777785e-003 2.77777785e-003 0. 0. 0.
      1.38888892e-003 1.38888892e-003 0. 1.38888892e-003 0. 0.
      1.38888892e-003 0. 4.16666688e-003 0. 1.38888892e-003 0. 0.
      1.38888892e-003 5.55555569e-003 0. 0. 0. 0. 0. 0. 0.
      1.38888892e-003 1.38888892e-003 0. 0. 1.38888892e-003 0.
      4.16666688e-003 0. 1.38888892e-003 0. 0. 0. 1.38888892e-003 0. 0.
      0. 0. 0. 0. 2.77777785e-003 0. 4.16666688e-003 0. 0.
      4.16666688e-003 0. 1.38888892e-003 0. 0. 0. 0. 1.38888892e-003
      1.38888892e-003 1.38888892e-003 0. 0. 1.38888892e-003 0.
      2.77777785e-003 0. 2.77777785e-003 1.38888892e-003 1.38888892e-003
      0. 0. 0. 0. 0. 0. 0. 0. 0. 4.16666688e-003 0. 1.38888892e-003 0.
      0. 0. 1.38888892e-003 2.77777785e-003 2.77777785e-003 0.
      1.38888892e-003 0. 0. 0. 0. 0. 0. 0. 1.38888892e-003
      5.55555569e-003 1.38888892e-003 0. 0. 0. 1.38888892e-003 0. 0.
      2.77777785e-003 0. 0. 0. 0. 2.77777785e-003 1.38888892e-003 0. 0.
      2.77777785e-003 1.38888892e-003 2.77777785e-003 0. 0.
      1.38888892e-003 0. 0. 0. 0. 1.38888892e-003 4.16666688e-003
      1.38888892e-003 1.38888892e-003 0. 0. 0. 0. 4.16666688e-003 0. 0.
      1.38888892e-003 0. 0. 2.77777785e-003 0. 0. 0. 0. 5.55555569e-003
      0. 2.77777785e-003 0. 1.38888892e-003 1.38888892e-003
      4.16666688e-003 0. 0. 0. 5.55555569e-003 0. 5.55555569e-003
      1.38888892e-003 0. 1.38888892e-003 0. 0. 4.16666688e-003 0. 0. 0.
      1.38888892e-003 0. 0. 0. 1.38888892e-003 0. 1.38888892e-003 0. 0.
      1.38888892e-003 0. 1.38888892e-003 1.38888892e-003 0.
      1.38888892e-003 1.38888892e-003 0. 1.38888892e-003 4.16666688e-003
      0. 0. 0. 1.38888892e-003 1.38888892e-003 0. 5.55555569e-003
      1.38888892e-003 2.77777785e-003 0. 0. 0. 0. 0. 0. 0. 0.
      2.77777785e-003 5.55555569e-003 0. 0. 0. 4.16666688e-003
      2.77777785e-003 0. 1.38888892e-003 9.72222257e-003 0. 0. 0. 0. 0.
      5.55555569e-003 0. 0. 0. 1.38888892e-003 0. 0. 0. 2.77777785e-003
      4.16666688e-003 0. 2.77777785e-003 0. 2.77777785e-003 0. 0.
      2.77777785e-003 0. 0. 1.38888892e-003 0. 1.38888892e-003
      5.55555569e-003 0. 1.38888892e-003 4.16666688e-003 1.38888892e-003
      0. 0. 0. 0. 2.08333340e-002 1.38888892e-003 0. 0. 0. 0.
      2.77777785e-003 0. 1.38888892e-003 0. 0. 0. 0. 2.77777785e-003 0.
      0. 0. 0. 4.16666688e-003 2.77777785e-003 0. 1.38888892e-003
      1.38888892e-003 0. 2.77777785e-003 0. 0. 0. 0. 2.77777785e-003
      1.38888892e-003 0. 1.38888892e-003 0. 1.38888892e-003
      1.38888892e-003 1.38888892e-003 0. 1.38888892e-003 0. 0.
      6.94444450e-003 0. 6.94444450e-003 0. 0. 0. 1.38888892e-003 0.
      1.38888892e-003 0. 1.38888892e-003 0. 0. 0. 1.38888892e-003
      1.38888892e-003 1.38888892e-003 0. 1.38888892e-003 0. 0. 0.
      1.38888892e-003 0. 0. 0. 0. 1.38888892e-003 0. 0. 0. 0.
      1.38888892e-003 1.38888892e-003 0. 2.77777785e-003 0. 0. 0.
      5.55555569e-003 5.55555569e-003 2.77777785e-003 0. 1.38888892e-003
      1.38888892e-003 0. 0. 0. 0. 2.77777785e-003 0. 2.77777785e-003
      1.38888892e-003 2.77777785e-003 2.77777785e-003 0. 0.
      1.38888892e-003 1.38888892e-003 1.38888892e-003 1.38888892e-003
      1.38888892e-003 0. 0. 4.16666688e-003 0. 0. 0. 0. 0.
      1.38888892e-003 0. 1.38888892e-003 0. 4.16666688e-003
      1.38888892e-003 1.38888892e-003 0. 1.38888892e-003 0.
      2.77777785e-003 1.38888892e-003 0. 1.38888892e-003 0.
      4.16666688e-003 0. 0. 2.77777785e-003 0. 1.38888892e-003 0. 0. 0.
      5.55555569e-003 1.38888892e-003 2.77777785e-003 0. 0.
      1.38888892e-003 5.55555569e-003 0. 0. 2.77777785e-003
      4.16666688e-003 4.16666688e-003 0. 1.38888892e-003 0. 0. 0.
      1.38888892e-003 0. 0. 0. 0. 1.38888892e-003 0. 1.38888892e-003
      1.38888892e-003 2.77777785e-003 0. 0. 0. 2.77777785e-003
      1.38888892e-003 0. 0. 0. 0. 1.38888892e-003 0. 0. 0.
      1.38888892e-003 1.38888892e-003 0. 1.38888892e-003 1.38888892e-003
      0. 0. 1.38888892e-003 0. 0. 0. 0. 0. 0. 0. 0. 0. 0. 0.
      4.16666688e-003 1.38888892e-003 5.55555569e-003 1.38888892e-003
      1.38888892e-003 1.38888892e-003 0. 0. 1.38888892e-003
      1.38888892e-003 1.38888892e-003 0. 2.77777785e-003 0.
      5.55555569e-003 0. 0. 0. 0. 0. 0. 2.77777785e-003 0. 0.
      1.38888892e-003 0. 0. 0. 1.38888892e-003 0. 0. 0. 0. 0. 0. 0.
      4.16666688e-003 0. 0. 0. 0. 0. 0. 1.38888892e-003 0. 0. 0.
      1.38888892e-003 1.38888892e-003 0. 0. 0. 2.77777785e-003 0.
      1.38888892e-003 0. 0. 0. 2.77777785e-003 6.94444450e-003
      9.72222257e-003 1.38888892e-003 2.77777785e-003 0. 0.
      2.77777785e-003 0. 1.38888892e-003 0. 0. 0. 1.38888892e-003
      2.77777785e-003 0. 0. 1.38888892e-003 5.55555569e-003 0. 0. 0. 0.
      0. 5.55555569e-003 0. 0. 0. 1.38888892e-003 2.77777785e-003 0. 0.
      0. 0. 0. 0. 0. 0. 1.38888892e-003 1.38888892e-003 0. 0.
      4.16666688e-003 1.38888892e-003 1.38888892e-003 1.38888892e-003
      1.38888892e-003 1.38888892e-003 0. 0. 1.38888892e-003 0. 0. 0.
      1.38888892e-003 0. 4.16666688e-003 0. 0. 0. 0. 1.38888892e-003 0.
      0. 0. 0. 0. 0. 0. 1.38888892e-003 0. 1.38888892e-003
      8.33333377e-003 0. 0. 0. 0. 4.16666688e-003 0. 1.38888892e-003 0.
      0. 0. 1.38888892e-003 1.38888892e-003 2.77777785e-003
      1.38888892e-003 5.55555569e-003 1.38888892e-003 0. 0.
      1.38888892e-003 0. 1.38888892e-003 1.38888892e-003 4.16666688e-003
      2.77777785e-003 0. 1.38888892e-003 1.38888892e-003 1.38888892e-003
      0. 2.77777785e-003 1.38888892e-003 0. 5.55555569e-003 0. 0. 0.
      4.16666688e-003 2.77777785e-003 0. 0. 4.16666688e-003
      1.38888892e-003 0. 0. 4.16666688e-003 0. 0. 2.77777785e-003
      1.38888892e-003 0. 0. 0. 0. 1.38888892e-003 0. 0. 0. 0. 0. 0. 0.
      0. 0. 4.16666688e-003 0. 0. 0. 0. 0. 0. 1.38888892e-003 0.
      5.55555569e-003 1.38888892e-003 1.38888892e-003 0. 2.77777785e-003
      1.38888892e-003 1.38888892e-003 0. 1.38888892e-003 0. 0. 0.
      1.38888892e-003 1.38888892e-003 2.77777785e-003 1.38888892e-003 0.
      0. 0. 0. 1.38888892e-003 0. 0. 1.38888892e-003 0. 0.
      1.38888892e-003 0. 1.38888892e-003 1.38888892e-003 0. 0. 0. 0. 0.
      0. 1.38888892e-003 0. 0. 1.38888892e-003 0. 0. 0. 1.38888892e-003
      0. 0. 0. 1.38888892e-003 0. 1.38888892e-003 0. 2.77777785e-003 0.
      0. 0. 0. 1.38888892e-003 0. 0. 0. 0. 1.38888892e-003 0.
      2.77777785e-003 0. 0. 1.38888892e-003 0. 0. 0. 0. 0. 0. 0. 0.
      1.38888892e-003 0. 0. 0. 1.38888892e-003 0. 0. 0. 2.77777785e-003
      1.38888892e-003 2.77777785e-003 0. 0. 0. 0. 0. 0. 0. 0.
      1.38888892e-003 0. 0. 0. 0. 4.16666688e-003 0. 2.77777785e-003 0.
      1.25000002e-002 0. 0. 4.16666688e-003 0. 0. 2.77777785e-003
      2.77777785e-003 0. 0. 2.77777785e-003 1.38888892e-003 0. 0. 0.
      4.16666688e-003 1.38888892e-003 1.38888892e-003 0. 0.
      1.38888892e-003 0. 0. 0. 0. 0. 5.55555569e-003 0. 1.38888892e-003
      0. 2.77777785e-003 0. 1.38888892e-003 0. 1.38888892e-003
      9.72222257e-003 0. 1.38888892e-003 0. 1.38888892e-003 0. 0. 0. 0.
      0. 0. 0. 0. 0. 5.55555569e-003 0. 1.38888892e-003 0. 0. 0.
      2.77777785e-003 0. 0. 0. 1.38888892e-003 0. 1.38888892e-003 0.
      4.16666688e-003 0. 0. 2.77777785e-003 0. 0. 0. 0. 0. 0.
      2.77777785e-003 0. 0. 0. 0. 1.38888892e-003 1.38888892e-003 0. 0.
      1.38888892e-003 0. 1.38888892e-003 0. 1.38888892e-003 0.
      4.16666688e-003 0. 0. 1.38888892e-003 1.38888892e-003 0. 0. 0. 0.
      0. 1.38888892e-003 0. 1.38888892e-003 1.38888892e-003 0. 0. 0.
      1.38888892e-003 0.</_>
    <_>
      0. 0. 1.37741049e-003 0. 9.64187365e-003 0. 0. 0. 0.
      2.75482098e-003 1.37741049e-003 4.13223170e-003 1.37741049e-003 0.
      0. 1.37741049e-003 0. 2.75482098e-003 1.37741049e-003 0. 0.
      2.75482098e-003 4.13223170e-003 0. 4.13223170e-003 1.37741049e-003
      1.10192839e-002 0. 0. 1.37741049e-003 1.37741049e-003
      1.37741049e-003 1.37741049e-003 2.75482098e-003 1.37741049e-003
      1.37741049e-003 0. 0. 1.37741049e-003 0. 0. 1.37741049e-003
      1.37741049e-003 2.75482098e-003 1.37741049e-003 6.88705221e-003
      2.75482098e-003 0. 0. 1.37741049e-003 0. 1.37741049e-003 0.
      4.13223170e-003 1.37741049e-003 1.37741049e-003 1.37741049e-003
      2.75482098e-003 0. 4.13223170e-003 0. 0. 2.75482098e-003 0.
      1.37741049e-003 0. 2.75482098e-003 0. 1.37741049e-003
      1.37741049e-003 1.37741049e-003 1.37741049e-003 5.50964195e-003
      2.75482098e-003 0. 0. 1.37741049e-003 0. 4.13223170e-003 0.
      1.37741049e-003 0. 2.75482098e-003 0. 0. 1.37741049e-003 0. 0.
      1.37741049e-003 0. 0. 0. 0. 1.37741049e-003 8.26446339e-003
      1.37741049e-003 0. 0. 0. 0. 0. 2.75482098e-003 0. 0. 0. 0. 0.
      1.37741049e-003 1.37741049e-003 0. 1.37741049e-003 0. 0. 0.
      2.75482098e-003 1.37741049e-003 1.37741049e-003 2.75482098e-003
      5.50964195e-003 0. 4.13223170e-003 0. 0. 0. 4.13223170e-003 0.
      1.37741049e-003 0. 0. 0. 0. 0. 4.13223170e-003 1.37741049e-003 0.
      0. 1.37741049e-003 0. 0. 0. 1.37741049e-003 1.37741049e-003
      2.75482098e-003 0. 0. 1.37741049e-003 2.75482098e-003
      1.37741049e-003 0. 0. 0. 0. 0. 2.75482098e-003 0. 0.
      2.75482098e-003 0. 2.75482098e-003 0. 1.37741049e-003 0. 0.
      2.75482098e-003 2.75482098e-003 1.37741049e-003 0. 1.37741049e-003
      0. 0. 0. 0. 2.75482098e-003 0. 0. 0. 1.37741049e-003 0.
      2.75482098e-003 1.37741049e-003 1.37741049e-003 0. 0.
      1.37741049e-003 0. 1.37741049e-003 0. 0. 1.37741049e-003 0. 0.
      1.37741049e-003 1.37741049e-003 4.13223170e-003 0. 0.
      2.75482098e-003 0. 1.37741049e-003 0. 0. 1.37741049e-003 0. 0.
      2.75482098e-003 2.75482098e-003 0. 0. 0. 0. 1.37741049e-003 0.
      1.37741049e-003 1.37741049e-003 0. 0. 0. 0. 1.37741049e-003 0.
      4.13223170e-003 0. 0. 0. 1.37741049e-003 0. 0. 1.37741049e-003 0.
      0. 2.75482098e-003 4.13223170e-003 1.37741049e-003 1.37741049e-003
      0. 0. 0. 0. 0. 0. 0. 0. 1.37741049e-003 1.37741049e-003 0.
      1.37741049e-003 1.37741049e-003 1.37741049e-003 4.13223170e-003
      1.37741049e-003 0. 6.88705221e-003 0. 0. 1.37741049e-003 0. 0.
      2.75482098e-003 1.37741049e-003 0. 2.75482098e-003 2.75482098e-003
      1.37741049e-003 0. 0. 1.37741049e-003 0. 1.37741049e-003 0. 0.
      1.37741049e-003 2.75482098e-003 1.37741049e-003 1.37741049e-003 0.
      0. 0. 0. 0. 0. 0. 1.37741049e-003 0. 0. 2.75482098e-003 0. 0. 0.
      0. 4.13223170e-003 1.37741049e-003 6.88705221e-003 0.
      5.50964195e-003 0. 1.23966942e-002 0. 0. 0. 6.88705221e-003 0.
      1.37741049e-003 0. 0. 0. 0. 0. 2.75482098e-003 0. 0. 0.
      2.75482098e-003 0. 0. 1.37741049e-003 1.37741049e-003 0. 0. 0. 0.
      2.75482098e-003 0. 0. 0. 1.37741049e-003 4.13223170e-003 0. 0. 0.
      1.37741049e-003 0. 0. 0. 0. 2.75482098e-003 0. 6.88705221e-003
      4.13223170e-003 2.75482098e-003 1.37741049e-003 0. 0.
      1.37741049e-003 0. 0. 1.37741049e-003 0. 5.50964195e-003
      4.13223170e-003 1.37741049e-003 0. 0. 0. 2.75482098e-003 0.
      5.50964195e-003 2.75482098e-003 0. 0. 0. 0. 0. 5.50964195e-003
      1.37741049e-003 0. 0. 1.37741049e-003 0. 0. 1.37741049e-003 0.
      4.13223170e-003 0. 1.37741049e-003 0. 0. 0. 1.37741049e-003
      2.75482098e-003 1.37741049e-003 0. 0. 1.37741049e-003 0.
      9.64187365e-003 1.37741049e-003 0. 4.13223170e-003 0. 0.
      1.37741049e-003 0. 0. 2.34159790e-002 0. 0. 1.37741049e-003 0.
      2.75482098e-003 4.13223170e-003 0. 1.37741049e-003 0.
      1.37741049e-003 1.37741049e-003 0. 0. 0. 1.37741049e-003 0. 0.
      6.88705221e-003 2.75482098e-003 0. 2.75482098e-003 0. 0.
      2.75482098e-003 0. 0. 1.37741049e-003 0. 2.75482098e-003 0. 0. 0.
      1.37741049e-003 2.75482098e-003 0. 1.37741049e-003 0.
      1.37741049e-003 0. 0. 2.75482098e-003 0. 4.13223170e-003 0. 0. 0.
      2.75482098e-003 0. 1.37741049e-003 1.37741049e-003 0. 0. 0. 0.
      2.75482098e-003 2.75482098e-003 0. 0. 0. 0. 2.75482098e-003 0.
      1.37741049e-003 2.75482098e-003 4.13223170e-003 0. 0.
      2.75482098e-003 0. 0. 1.37741049e-003 0. 0. 1.37741049e-003 0.
      4.13223170e-003 0. 0. 0. 1.37741049e-003 1.37741049e-003
      2.75482098e-003 0. 0. 0. 0. 1.37741049e-003 0. 0. 1.37741049e-003
      0. 0. 0. 1.37741049e-003 2.75482098e-003 0. 0. 1.37741049e-003
      5.50964195e-003 1.37741049e-003 1.37741049e-003 2.75482098e-003 0.
      0. 2.75482098e-003 0. 0. 0. 0. 0. 2.75482098e-003 0.
      2.75482098e-003 1.37741049e-003 5.50964195e-003 4.13223170e-003
      2.75482098e-003 2.75482098e-003 2.75482098e-003 0. 2.75482098e-003
      4.13223170e-003 0. 1.37741049e-003 1.37741049e-003 0. 0. 0.
      2.75482098e-003 0. 2.75482098e-003 0. 1.37741049e-003 0.
      8.26446339e-003 0. 1.37741049e-003 0. 0. 0. 2.75482098e-003 0. 0.
      0. 2.75482098e-003 2.75482098e-003 1.37741049e-003 2.75482098e-003
      0. 0. 0. 0. 0. 0. 2.75482098e-003 0. 1.37741049e-003 0. 0.
      1.37741049e-003 1.37741049e-003 0. 1.37741049e-003 0. 0. 0. 0. 0.
      1.37741049e-003 0. 1.37741049e-003 0. 1.37741049e-003 0. 0.
      4.13223170e-003 0. 2.75482098e-003 0. 0. 0. 1.37741049e-003 0. 0.
      0. 0. 0. 0. 0. 0. 1.37741049e-003 0. 0. 1.37741049e-003
      2.75482098e-003 4.13223170e-003 0. 1.37741049e-003 2.75482098e-003
      0. 0. 2.75482098e-003 0. 1.37741049e-003 0. 2.75482098e-003
      1.37741049e-003 2.75482098e-003 0. 0. 0. 0. 1.37741049e-003 0.
      2.75482098e-003 0. 0. 1.37741049e-003 0. 0. 0. 0. 0. 0. 0. 0. 0.
      0. 0. 1.37741049e-003 0. 0. 0. 0. 0. 1.37741049e-003 0.
      1.37741049e-003 0. 0. 1.37741049e-003 0. 0. 2.75482098e-003 0. 0.
      0. 0. 0. 0. 0. 0. 4.13223170e-003 1.10192839e-002 4.13223170e-003
      2.75482098e-003 0. 0. 2.75482098e-003 0. 1.37741049e-003 0. 0. 0.
      1.37741049e-003 1.37741049e-003 0. 1.37741049e-003 4.13223170e-003
      1.37741049e-003 0. 1.37741049e-003 0. 0. 0. 5.50964195e-003
      1.37741049e-003 1.37741049e-003 0. 0. 2.75482098e-003
      1.37741049e-003 0. 1.37741049e-003 0. 0. 1.37741049e-003 0. 0.
      2.75482098e-003 2.75482098e-003 2.75482098e-003 1.37741049e-003
      4.13223170e-003 0. 0. 0. 0. 0. 0. 0. 1.37741049e-003
      1.37741049e-003 0. 0. 2.75482098e-003 0. 2.75482098e-003 0. 0. 0.
      1.37741049e-003 0. 0. 0. 0. 0. 0. 2.75482098e-003 0. 0. 0. 0.
      4.13223170e-003 0. 0. 0. 0. 2.75482098e-003 1.37741049e-003 0.
      1.37741049e-003 0. 1.37741049e-003 1.37741049e-003 0.
      1.37741049e-003 0. 2.75482098e-003 1.37741049e-003 0. 0.
      1.37741049e-003 0. 4.13223170e-003 2.75482098e-003 1.37741049e-003
      0. 0. 1.37741049e-003 0. 0. 0. 0. 0. 0. 1.37741049e-003 0. 0. 0.
      1.37741049e-003 4.13223170e-003 0. 1.37741049e-003 1.37741049e-003
      0. 1.37741049e-003 0. 4.13223170e-003 0. 0. 1.37741049e-003 0. 0.
      0. 0. 0. 2.75482098e-003 0. 0. 4.13223170e-003 0. 0. 0. 0. 0. 0.
      1.37741049e-003 0. 0. 1.37741049e-003 0. 0. 0. 2.75482098e-003 0.
      1.10192839e-002 1.37741049e-003 2.75482098e-003 0. 1.37741049e-003
      0. 1.37741049e-003 0. 1.37741049e-003 0. 0. 0. 0. 1.37741049e-003
      0. 1.37741049e-003 0. 0. 0. 0. 0. 0. 0. 1.37741049e-003 0.
      1.37741049e-003 0. 0. 0. 0. 0. 0. 0. 2.75482098e-003
      2.75482098e-003 1.37741049e-003 0. 0. 0. 2.75482098e-003 0. 0. 0.
      0. 0. 0. 0. 0. 0. 0. 1.37741049e-003 4.13223170e-003 0. 0. 0.
      2.75482098e-003 1.37741049e-003 1.37741049e-003 0. 0. 0.
      2.75482098e-003 0. 0. 1.37741049e-003 0. 0. 0. 0. 0. 0. 0.
      1.37741049e-003 0. 1.37741049e-003 4.13223170e-003 0.
      1.37741049e-003 0. 1.37741049e-003 0. 0. 0. 1.37741049e-003
      1.37741049e-003 2.75482098e-003 0. 0. 0. 0. 0. 0. 0.
      2.75482098e-003 0. 2.75482098e-003 0. 0. 0. 2.75482098e-003 0. 0.
      1.37741049e-003 1.23966942e-002 0. 0. 1.37741049e-003
      1.37741049e-003 1.37741049e-003 0. 0. 0. 1.37741049e-003
      1.37741049e-003 1.37741049e-003 0. 1.37741049e-003 0.
      6.88705221e-003 0. 1.37741049e-003 4.13223170e-003 0.
      2.75482098e-003 1.37741049e-003 2.75482098e-003 0. 0. 0.
      4.13223170e-003 0. 0. 0. 1.37741049e-003 0. 0. 0. 1.37741049e-003
      8.26446339e-003 0. 1.37741049e-003 0. 1.37741049e-003 0. 0. 0. 0.
      0. 0. 0. 0. 1.37741049e-003 4.13223170e-003 0. 1.37741049e-003
      1.37741049e-003 0. 0. 1.37741049e-003 0. 0. 0. 1.37741049e-003 0.
      1.37741049e-003 0. 4.13223170e-003 0. 0. 0. 0. 1.37741049e-003 0.
      1.37741049e-003 0. 0. 0. 0. 0. 0. 0. 0. 0. 2.75482098e-003 0.
      2.75482098e-003 0. 0. 0. 0. 0. 1.37741049e-003 1.37741049e-003
      1.37741049e-003 0. 1.37741049e-003 0. 1.37741049e-003 0. 0. 0. 0.
      2.75482098e-003 0. 0. 0. 0. 0. 0. 0.</_>
    <_>
      0. 0. 1.28865975e-003 1.28865975e-003 6.44329889e-003 0. 0. 0. 0.
      0. 0. 3.86597915e-003 3.86597915e-003 0. 0. 1.28865975e-003 0.
      2.57731951e-003 0. 1.28865975e-003 0. 2.57731951e-003 0. 0.
      1.28865975e-003 0. 1.03092780e-002 0. 0. 1.28865975e-003
      3.86597915e-003 2.57731951e-003 6.44329889e-003 2.57731951e-003
      1.28865975e-003 1.28865975e-003 0. 0. 0. 0. 0. 1.28865975e-003 0.
      2.57731951e-003 0. 7.73195829e-003 3.86597915e-003 0. 0. 0. 0.
      2.57731951e-003 0. 2.57731951e-003 0. 2.57731951e-003 0. 0.
      2.57731951e-003 5.15463902e-003 0. 0. 1.28865975e-003 0.
      3.86597915e-003 3.86597915e-003 1.28865975e-003 1.28865975e-003
      2.57731951e-003 1.28865975e-003 1.28865975e-003 0. 2.57731951e-003
      6.44329889e-003 0. 0. 0. 1.28865975e-003 2.57731951e-003 0.
      1.28865975e-003 0. 1.28865975e-003 0. 0. 1.28865975e-003 0. 0. 0.
      0. 0. 1.28865975e-003 0. 0. 2.57731951e-003 0. 0. 1.28865975e-003
      0. 0. 0. 0. 0. 1.28865975e-003 1.28865975e-003 0. 0.
      2.57731951e-003 1.28865975e-003 0. 0. 0. 1.28865975e-003 0. 0.
      2.57731951e-003 0. 0. 2.57731951e-003 0. 2.57731951e-003 0.
      1.28865975e-003 2.57731951e-003 2.57731951e-003 0. 1.28865975e-003
      1.28865975e-003 0. 1.28865975e-003 0. 0. 2.57731951e-003 0. 0.
      1.28865975e-003 1.28865975e-003 3.86597915e-003 0. 0.
      3.86597915e-003 0. 7.73195829e-003 0. 0. 1.28865975e-003
      3.86597915e-003 0. 0. 0. 0. 1.28865975e-003 0. 1.28865975e-003 0.
      1.28865975e-003 1.28865975e-003 0. 2.57731951e-003 1.28865975e-003
      1.28865975e-003 0. 0. 3.86597915e-003 2.57731951e-003 0. 0.
      2.57731951e-003 1.28865975e-003 0. 2.57731951e-003 0.
      2.57731951e-003 0. 0. 0. 2.57731951e-003 0. 1.28865975e-003
      2.57731951e-003 0. 1.28865975e-003 1.28865975e-003 0. 0.
      1.28865975e-003 0. 0. 1.28865975e-003 0. 0. 1.28865975e-003
      1.28865975e-003 1.28865975e-003 0. 0. 1.28865975e-003 0. 0. 0. 0.
      1.28865975e-003 0. 1.28865975e-003 1.28865975e-003 1.28865975e-003
      0. 0. 0. 1.28865975e-003 3.86597915e-003 0. 1.28865975e-003 0.
      1.28865975e-003 0. 0. 0. 0. 1.28865975e-003 3.86597915e-003 0. 0.
      0. 2.57731951e-003 0. 0. 0. 0. 0. 0. 2.57731951e-003
      1.28865975e-003 0. 0. 0. 0. 0. 0. 0. 0. 0. 1.28865975e-003
      7.73195829e-003 0. 1.28865975e-003 1.28865975e-003 1.28865975e-003
      1.28865975e-003 1.28865975e-003 0. 3.86597915e-003 0. 0.
      2.57731951e-003 0. 3.86597915e-003 0. 0. 1.28865975e-003
      3.86597915e-003 1.28865975e-003 3.86597915e-003 0. 0.
      1.28865975e-003 0. 0. 0. 1.28865975e-003 0. 2.57731951e-003
      1.28865975e-003 1.28865975e-003 1.28865975e-003 0. 0. 0.
      5.15463902e-003 1.28865975e-003 0. 1.28865975e-003 0. 0.
      2.57731951e-003 0. 0. 0. 0. 0. 0. 3.86597915e-003 0.
      2.57731951e-003 0. 5.15463902e-003 0. 0. 0. 7.73195829e-003 0.
      1.28865975e-003 2.57731951e-003 0. 0. 0. 0. 2.57731951e-003 0. 0.
      1.28865975e-003 2.57731951e-003 0. 0. 0. 1.28865975e-003 0.
      1.28865975e-003 0. 0. 2.57731951e-003 0. 0. 0. 0. 1.28865975e-003
      1.28865975e-003 0. 2.57731951e-003 1.28865975e-003 0. 0. 0. 0.
      1.28865975e-003 0. 3.86597915e-003 1.28865975e-003 2.57731951e-003
      0. 1.28865975e-003 1.28865975e-003 0. 0. 1.28865975e-003 0.
      1.28865975e-003 1.28865975e-003 5.15463902e-003 0. 1.28865975e-003
      0. 1.28865975e-003 2.57731951e-003 0. 3.86597915e-003
      5.15463902e-003 1.28865975e-003 0. 0. 0. 0. 6.44329889e-003 0.
      2.57731951e-003 0. 0. 0. 0. 0. 1.28865975e-003 1.28865975e-003 0.
      2.57731951e-003 0. 3.86597915e-003 0. 0. 3.86597915e-003 0.
      2.57731951e-003 0. 0. 1.28865975e-003 3.86597915e-003
      1.28865975e-003 1.28865975e-003 3.86597915e-003 1.28865975e-003 0.
      0. 0. 0. 1.93298962e-002 0. 0. 1.28865975e-003 0. 5.15463902e-003
      2.57731951e-003 0. 1.28865975e-003 0. 1.28865975e-003
      2.57731951e-003 2.57731951e-003 3.86597915e-003 0. 2.57731951e-003
      0. 0. 7.73195829e-003 3.86597915e-003 0. 5.15463902e-003 0. 0.
      3.86597915e-003 0. 0. 1.28865975e-003 0. 2.57731951e-003
      1.28865975e-003 0. 0. 0. 3.86597915e-003 2.57731951e-003
      1.28865975e-003 1.28865975e-003 2.57731951e-003 0. 0.
      6.44329889e-003 0. 2.57731951e-003 2.57731951e-003 0. 0.
      1.28865975e-003 0. 2.57731951e-003 1.28865975e-003 1.28865975e-003
      0. 0. 0. 2.57731951e-003 0. 1.28865975e-003 1.28865975e-003 0.
      2.57731951e-003 1.28865975e-003 0. 0. 0. 5.15463902e-003
      1.28865975e-003 0. 1.28865975e-003 0. 1.28865975e-003
      1.28865975e-003 0. 0. 1.28865975e-003 0. 2.57731951e-003 0. 0. 0.
      2.57731951e-003 2.57731951e-003 0. 0. 1.28865975e-003 0. 0. 0.
      1.28865975e-003 0. 1.28865975e-003 0. 1.28865975e-003 0.
      1.28865975e-003 2.57731951e-003 0. 2.57731951e-003 2.57731951e-003
      5.15463902e-003 2.57731951e-003 1.28865975e-003 0. 0. 0.
      2.57731951e-003 0. 0. 0. 0. 0. 1.28865975e-003 0. 0.
      1.28865975e-003 3.86597915e-003 1.28865975e-003 1.28865975e-003 0.
      1.28865975e-003 0. 1.28865975e-003 0. 1.28865975e-003
      1.28865975e-003 0. 0. 1.28865975e-003 0. 3.86597915e-003 0.
      1.28865975e-003 0. 0. 1.28865975e-003 5.15463902e-003 0. 0. 0. 0.
      0. 5.15463902e-003 0. 0. 1.28865975e-003 2.57731951e-003
      2.57731951e-003 0. 2.57731951e-003 0. 0. 0. 0. 0. 0. 0. 0. 0. 0.
      0. 1.28865975e-003 1.28865975e-003 0. 1.28865975e-003
      1.28865975e-003 0. 2.57731951e-003 0. 0. 0. 0. 1.28865975e-003 0.
      0. 0. 0. 2.57731951e-003 0. 1.28865975e-003 0. 0. 0.
      1.28865975e-003 0. 0. 1.28865975e-003 0. 0. 0. 0. 0. 0. 0. 0.
      2.57731951e-003 1.28865975e-003 1.28865975e-003 1.28865975e-003
      2.57731951e-003 2.57731951e-003 0. 0. 2.57731951e-003
      1.28865975e-003 1.28865975e-003 0. 2.57731951e-003 0.
      3.86597915e-003 0. 0. 0. 0. 0. 0. 3.86597915e-003 2.57731951e-003
      0. 1.28865975e-003 0. 0. 0. 0. 0. 2.57731951e-003 0. 0. 0. 0.
      1.28865975e-003 1.28865975e-003 0. 0. 0. 0. 1.28865975e-003 0. 0.
      0. 0. 0. 2.57731951e-003 0. 1.28865975e-003 0. 0. 2.57731951e-003
      0. 0. 0. 0. 0. 0. 2.57731951e-003 6.44329889e-003 1.28865975e-003
      1.28865975e-003 1.28865975e-003 0. 2.57731951e-003 0.
      1.28865975e-003 0. 1.28865975e-003 0. 1.28865975e-003
      2.57731951e-003 1.28865975e-003 1.28865975e-003 3.86597915e-003
      3.86597915e-003 0. 1.28865975e-003 0. 0. 0. 1.03092780e-002 0. 0.
      0. 0. 1.28865975e-003 1.28865975e-003 0. 0. 0. 0. 1.28865975e-003
      0. 2.57731951e-003 2.57731951e-003 1.28865975e-003 1.28865975e-003
      2.57731951e-003 5.15463902e-003 0. 0. 0. 1.28865975e-003 0.
      1.28865975e-003 0. 0. 1.28865975e-003 1.28865975e-003
      1.28865975e-003 1.28865975e-003 2.57731951e-003 3.86597915e-003 0.
      0. 0. 0. 1.28865975e-003 1.28865975e-003 0. 0. 0. 1.28865975e-003
      1.28865975e-003 0. 0. 0. 3.86597915e-003 6.44329889e-003 0. 0. 0.
      0. 3.86597915e-003 1.28865975e-003 0. 0. 0. 0. 0. 1.28865975e-003
      2.57731951e-003 1.28865975e-003 1.15979379e-002 0. 0. 0.
      1.28865975e-003 0. 0. 0. 0. 2.57731951e-003 1.28865975e-003
      1.28865975e-003 1.28865975e-003 1.28865975e-003 0. 1.28865975e-003
      1.28865975e-003 2.57731951e-003 5.15463902e-003 0. 1.28865975e-003
      0. 2.57731951e-003 2.57731951e-003 1.28865975e-003 0.
      1.28865975e-003 0. 0. 2.57731951e-003 2.57731951e-003 0. 0.
      2.57731951e-003 0. 0. 0. 1.28865975e-003 1.28865975e-003
      2.57731951e-003 0. 0. 1.28865975e-003 0. 1.28865975e-003 0.
      2.57731951e-003 0. 1.28865975e-003 1.28865975e-003 0. 0. 0. 0. 0.
      0. 1.28865975e-003 0. 7.73195829e-003 2.57731951e-003
      2.57731951e-003 0. 1.28865975e-003 1.28865975e-003 0. 0.
      1.28865975e-003 0. 0. 1.28865975e-003 0. 0. 1.28865975e-003
      2.57731951e-003 0. 0. 1.28865975e-003 0. 1.28865975e-003 0.
      1.28865975e-003 1.28865975e-003 0. 0. 0. 0. 1.28865975e-003 0. 0.
      0. 0. 2.57731951e-003 0. 0. 0. 0. 0. 1.28865975e-003 0. 0. 0.
      2.57731951e-003 0. 0. 0. 1.28865975e-003 0. 0. 0. 2.57731951e-003
      0. 0. 0. 0. 1.28865975e-003 0. 0. 0. 0. 1.28865975e-003 0.
      1.28865975e-003 1.28865975e-003 1.28865975e-003 1.28865975e-003 0.
      0. 0. 0. 0. 0. 0. 0. 1.28865975e-003 0. 0. 1.28865975e-003
      1.28865975e-003 0. 0. 0. 1.28865975e-003 0. 1.28865975e-003
      1.28865975e-003 2.57731951e-003 0. 0. 0. 0. 0. 1.28865975e-003
      1.28865975e-003 0. 0. 0. 0. 2.57731951e-003 0. 0. 0.
      1.15979379e-002 1.28865975e-003 0. 3.86597915e-003 0. 0.
      2.57731951e-003 0. 0. 1.28865975e-003 0. 1.28865975e-003 0. 0. 0.
      2.57731951e-003 0. 5.15463902e-003 0. 0. 1.28865975e-003
      2.57731951e-003 0. 0. 2.57731951e-003 0. 5.15463902e-003 0.
      1.28865975e-003 1.28865975e-003 1.28865975e-003 0. 1.28865975e-003
      0. 2.57731951e-003 1.03092780e-002 0. 2.57731951e-003 0.
      2.57731951e-003 0. 0. 0. 0. 0. 0. 0. 0. 0. 2.57731951e-003
      1.28865975e-003 1.28865975e-003 0. 0. 0. 1.28865975e-003
      1.28865975e-003 0. 0. 1.28865975e-003 0. 1.28865975e-003
      1.28865975e-003 6.44329889e-003 0. 1.28865975e-003 1.28865975e-003
      0. 0. 0. 0. 0. 0. 3.86597915e-003 0. 0. 0. 0. 0. 0.
      2.57731951e-003 0. 0. 0. 1.28865975e-003 0. 1.28865975e-003 0.
      3.86597915e-003 0. 1.28865975e-003 0. 2.57731951e-003
      1.28865975e-003 0. 0. 0. 0. 0. 1.28865975e-003 0. 0. 0. 0. 0.
      1.28865975e-003 1.28865975e-003</_>
    <_>
      0. 0. 0. 2.30946881e-003 4.61893762e-003 0. 0. 2.30946881e-003 0.
      2.30946881e-003 0. 0. 0. 1.15473438e-002 0. 0. 0. 2.30946881e-003
      2.30946881e-003 2.30946881e-003 0. 2.30946881e-003 0.
      6.92840666e-003 4.61893762e-003 2.30946881e-003 4.61893762e-003 0.
      0. 0. 0. 2.30946881e-003 4.61893762e-003 4.61893762e-003
      2.30946881e-003 0. 0. 0. 0. 0. 0. 2.30946881e-003 0. 0. 0.
      2.30946881e-003 0. 2.30946881e-003 0. 0. 0. 0. 0. 4.61893762e-003
      0. 2.30946881e-003 0. 2.30946881e-003 2.30946881e-003 0. 0. 0. 0.
      0. 0. 0. 2.30946881e-003 0. 0. 4.61893762e-003 0. 2.30946881e-003
      0. 2.30946881e-003 2.30946881e-003 0. 2.30946881e-003 0. 0. 0.
      2.30946881e-003 0. 6.92840666e-003 2.30946881e-003 0. 0. 0. 0.
      6.92840666e-003 0. 0. 2.30946881e-003 0. 2.30946881e-003
      4.61893762e-003 0. 0. 2.30946881e-003 0. 0. 0. 0. 0. 0.
      4.61893762e-003 4.61893762e-003 0. 0. 4.61893762e-003 0. 0. 0.
      9.23787523e-003 0. 4.61893762e-003 0. 0. 0. 0. 0. 0.
      2.30946881e-003 6.92840666e-003 0. 0. 0. 2.30946881e-003 0. 0. 0.
      2.30946881e-003 2.30946881e-003 4.61893762e-003 2.30946881e-003 0.
      0. 4.61893762e-003 0. 0. 0. 0. 2.30946881e-003 0. 2.30946881e-003
      0. 0. 2.30946881e-003 0. 2.30946881e-003 0. 0. 0. 0. 0.
      2.30946881e-003 0. 0. 0. 0. 0. 0. 0. 0. 2.30946881e-003 0. 0. 0.
      0. 0. 0. 6.92840666e-003 0. 2.30946881e-003 0. 4.61893762e-003 0.
      0. 0. 2.30946881e-003 0. 2.30946881e-003 0. 0. 0. 2.30946881e-003
      2.30946881e-003 0. 0. 0. 2.30946881e-003 6.92840666e-003 0. 0.
      2.30946881e-003 0. 0. 2.30946881e-003 0. 0. 2.30946881e-003
      2.30946881e-003 2.30946881e-003 0. 0. 2.30946881e-003
      2.30946881e-003 0. 0. 2.30946881e-003 0. 0. 0. 0. 0. 0. 0. 0. 0.
      0. 0. 4.61893762e-003 0. 0. 0. 2.30946881e-003 0. 0.
      2.30946881e-003 0. 0. 0. 0. 0. 0. 0. 2.30946881e-003 0. 0. 0. 0.
      0. 0. 0. 0. 0. 0. 0. 6.92840666e-003 6.92840666e-003
      4.61893762e-003 0. 0. 0. 0. 6.92840666e-003 0. 2.30946881e-003 0.
      2.30946881e-003 2.30946881e-003 0. 0. 0. 0. 0. 0. 0.
      2.30946881e-003 0. 2.30946881e-003 2.30946881e-003 2.30946881e-003
      0. 0. 0. 0. 0. 0. 2.30946881e-003 0. 0. 4.61893762e-003
      2.30946881e-003 0. 0. 0. 0. 0. 4.61893762e-003 0. 0. 0. 0. 0.
      2.30946881e-003 4.61893762e-003 0. 0. 0. 0. 0. 2.30946881e-003 0.
      0. 0. 2.30946881e-003 0. 2.30946881e-003 0. 0. 6.92840666e-003 0.
      0. 0. 0. 0. 6.92840666e-003 0. 0. 0. 2.30946881e-003 0.
      4.61893762e-003 0. 2.30946881e-003 0. 0. 0. 0. 0. 0. 0. 0.
      2.30946881e-003 0. 0. 9.23787523e-003 4.61893762e-003
      4.61893762e-003 2.30946881e-003 0. 0. 0. 0. 0. 0. 6.92840666e-003
      2.30946881e-003 0. 0. 2.30946881e-003 0. 0. 0. 0. 6.92840666e-003
      6.92840666e-003 0. 0. 0. 0. 4.61893762e-003 2.30946881e-003
      2.30946881e-003 0. 0. 6.92840666e-003 0. 6.92840666e-003 0. 0.
      2.30946881e-003 6.92840666e-003 0. 0. 0. 0. 0. 0. 9.23787523e-003
      0. 0. 0. 0. 6.92840666e-003 2.30946881e-003 6.92840666e-003
      2.30946881e-003 0. 0. 0. 0. 0. 3.00230943e-002 0. 6.92840666e-003
      0. 0. 0. 0. 0. 0. 0. 2.30946881e-003 0. 2.30946881e-003 0. 0. 0.
      0. 0. 0. 0. 0. 0. 2.30946881e-003 0. 0. 0. 0. 2.30946881e-003 0.
      4.61893762e-003 0. 0. 4.61893762e-003 2.30946881e-003
      2.30946881e-003 2.30946881e-003 0. 0. 2.30946881e-003 0. 0. 0. 0.
      0. 0. 0. 0. 0. 0. 2.30946881e-003 0. 0. 0. 0. 2.30946881e-003 0.
      2.30946881e-003 2.30946881e-003 0. 0. 0. 0. 0. 0. 0.
      2.30946881e-003 0. 0. 4.61893762e-003 0. 0. 2.30946881e-003 0. 0.
      0. 0. 2.30946881e-003 0. 0. 0. 0. 0. 1.61662810e-002 0. 0.
      2.30946881e-003 0. 0. 0. 0. 0. 0. 0. 2.30946881e-003
      2.30946881e-003 2.30946881e-003 0. 2.30946881e-003 0.
      2.30946881e-003 4.61893762e-003 2.30946881e-003 0. 0. 0. 0. 0. 0.
      0. 0. 0. 0. 0. 0. 0. 0. 4.61893762e-003 0. 0. 2.30946881e-003 0.
      2.30946881e-003 2.30946881e-003 2.30946881e-003 0. 0.
      2.30946881e-003 4.61893762e-003 0. 2.30946881e-003 0. 0. 0. 0. 0.
      0. 0. 2.30946881e-003 0. 0. 0. 0. 4.61893762e-003 2.30946881e-003
      0. 2.30946881e-003 0. 0. 6.92840666e-003 0. 0. 2.30946881e-003 0.
      0. 2.30946881e-003 0. 4.61893762e-003 0. 0. 2.30946881e-003
      2.30946881e-003 0. 0. 2.30946881e-003 0. 0. 0. 0. 0. 0. 0. 0. 0.
      0. 0. 2.30946881e-003 0. 0. 2.30946881e-003 0. 2.30946881e-003 0.
      0. 0. 1.15473438e-002 9.23787523e-003 0. 2.30946881e-003 0. 0. 0.
      0. 0. 0. 0. 4.61893762e-003 4.61893762e-003 0. 0. 0. 0. 0.
      2.30946881e-003 0. 0. 0. 0. 0. 0. 0. 4.61893762e-003 0. 0. 0. 0.
      0. 2.30946881e-003 0. 0. 0. 0. 0. 0. 0. 0. 2.30946881e-003 0. 0.
      0. 2.30946881e-003 0. 0. 2.30946881e-003 0. 0. 0. 0.
      2.30946881e-003 0. 0. 0. 0. 0. 0. 0. 0. 0. 0. 0. 0. 0. 0.
      2.30946881e-003 0. 2.30946881e-003 0. 0. 0. 0. 0. 0. 0. 0. 0. 0.
      2.30946881e-003 0. 0. 0. 4.61893762e-003 1.38568133e-002 0.
      2.30946881e-003 0. 0. 2.30946881e-003 0. 2.30946881e-003
      2.30946881e-003 2.30946881e-003 0. 0. 2.30946881e-003
      2.30946881e-003 2.30946881e-003 0. 0. 2.30946881e-003 0.
      2.30946881e-003 2.30946881e-003 4.61893762e-003 2.30946881e-003 0.
      6.92840666e-003 0. 0. 0. 0. 0. 0. 0. 2.30946881e-003
      2.30946881e-003 4.61893762e-003 2.30946881e-003 0. 9.23787523e-003
      0. 0. 0. 0. 0. 2.30946881e-003 0. 0. 0. 0. 0. 0. 0. 0. 0. 0.
      1.38568133e-002 0. 0. 0. 0. 4.61893762e-003 0. 0. 0.
      2.30946881e-003 2.30946881e-003 0. 0. 4.61893762e-003 0. 0. 0. 0.
      0. 0. 0. 0. 2.30946881e-003 0. 2.30946881e-003 0. 0. 0. 0. 0. 0.
      2.30946881e-003 0. 0. 0. 0. 0. 6.92840666e-003 4.61893762e-003 0.
      0. 2.30946881e-003 0. 4.61893762e-003 0. 0. 0. 0. 2.30946881e-003
      0. 0. 0. 0. 2.30946881e-003 2.30946881e-003 0. 4.61893762e-003 0.
      0. 0. 0. 0. 0. 2.30946881e-003 0. 0. 0. 0. 0. 0. 0.
      2.30946881e-003 0. 0. 0. 0. 0. 0. 0. 0. 0. 2.30946881e-003 0. 0.
      0. 0. 2.30946881e-003 0. 0. 0. 0. 0. 0. 0. 0. 0. 0. 0. 0. 0. 0. 0.
      2.30946881e-003 0. 0. 2.30946881e-003 2.30946881e-003
      2.30946881e-003 0. 0. 0. 0. 4.61893762e-003 2.30946881e-003
      2.30946881e-003 0. 2.30946881e-003 0. 0. 0. 0. 0. 0.
      2.30946881e-003 0. 0. 0. 0. 0. 0. 0. 0. 0. 9.23787523e-003
      4.61893762e-003 0. 2.30946881e-003 0. 2.30946881e-003 0. 0.
      2.30946881e-003 2.30946881e-003 0. 0. 0. 0. 0. 0. 0. 0. 0. 0. 0.
      0. 2.30946881e-003 2.30946881e-003 0. 2.30946881e-003 0. 0. 0. 0.
      0. 0. 0. 4.61893762e-003 2.30946881e-003 2.30946881e-003 0. 0. 0.
      2.30946881e-003 0. 0. 0. 2.30946881e-003 0. 0. 0. 4.61893762e-003
      0. 0. 2.30946881e-003 0. 2.30946881e-003 0. 0. 0. 2.30946881e-003
      0. 2.30946881e-003 2.30946881e-003 0. 0. 2.30946881e-003 0.
      2.30946881e-003 0. 0. 0. 0. 0. 0. 0. 0. 2.30946881e-003 0. 0. 0.
      0. 0. 0. 2.30946881e-003 0. 0. 0. 0. 0. 0. 0. 0. 0. 0. 0. 0. 0. 0.
      0. 0. 1.38568133e-002 0. 0. 0. 0. 4.61893762e-003 2.30946881e-003
      2.30946881e-003 0. 4.61893762e-003 0. 0. 0. 0. 0. 0. 0. 0. 0.
      4.61893762e-003 0. 0. 0. 0. 0. 0. 2.30946881e-003 0.
      2.30946881e-003 0. 0. 0. 0. 0. 2.30946881e-003 0. 4.61893762e-003
      0. 0. 0. 0. 0. 0. 0. 0. 0. 0. 0. 0. 0. 0. 2.30946881e-003 0.</_>
    <_>
      0. 0. 0. 2.17864919e-003 4.35729837e-003 0. 2.17864919e-003 0. 0.
      2.17864919e-003 0. 0. 0. 6.53594732e-003 0. 0. 2.17864919e-003
      4.35729837e-003 4.35729837e-003 2.17864919e-003 2.17864919e-003 0.
      4.35729837e-003 4.35729837e-003 0. 2.17864919e-003 4.35729837e-003
      0. 2.17864919e-003 0. 6.53594732e-003 0. 4.35729837e-003
      4.35729837e-003 2.17864919e-003 0. 0. 2.17864919e-003 0. 0. 0. 0.
      0. 2.17864919e-003 0. 6.53594732e-003 0. 0. 0. 2.17864919e-003 0.
      0. 0. 0. 0. 2.17864919e-003 2.17864919e-003 2.17864919e-003
      4.35729837e-003 0. 0. 4.35729837e-003 2.17864919e-003 0. 0. 0.
      4.35729837e-003 2.17864919e-003 0. 4.35729837e-003 0. 0. 0.
      2.17864919e-003 2.17864919e-003 0. 2.17864919e-003 0. 0. 0.
      4.35729837e-003 2.17864919e-003 0. 0. 0. 0. 0. 0. 0. 0.
      2.17864919e-003 0. 0. 2.17864919e-003 0. 0. 4.35729837e-003
      2.17864919e-003 0. 2.17864919e-003 2.17864919e-003 0.
      2.17864919e-003 2.17864919e-003 2.17864919e-003 2.17864919e-003
      2.17864919e-003 0. 0. 0. 0. 2.17864919e-003 2.17864919e-003 0.
      2.17864919e-003 0. 0. 0. 0. 0. 0. 0. 8.71459674e-003
      2.17864919e-003 0. 0. 0. 4.35729837e-003 0. 0. 2.17864919e-003 0.
      4.35729837e-003 0. 0. 0. 2.17864919e-003 2.17864919e-003 0. 0.
      2.17864919e-003 2.17864919e-003 0. 2.17864919e-003 0. 0.
      2.17864919e-003 0. 0. 0. 0. 0. 0. 0. 0. 0. 0. 0. 4.35729837e-003
      0. 2.17864919e-003 0. 2.17864919e-003 0. 0. 0. 0. 0. 0. 0.
      4.35729837e-003 0. 6.53594732e-003 0. 2.17864919e-003 0. 0.
      2.17864919e-003 2.17864919e-003 2.17864919e-003 2.17864919e-003
      2.17864919e-003 0. 0. 8.71459674e-003 2.17864919e-003 0. 0. 0. 0.
      4.35729837e-003 0. 0. 6.53594732e-003 0. 4.35729837e-003
      2.17864919e-003 2.17864919e-003 0. 2.17864919e-003 0.
      4.35729837e-003 0. 4.35729837e-003 0. 0. 0. 0. 2.17864919e-003 0.
      0. 0. 0. 0. 0. 0. 0. 0. 0. 0. 2.17864919e-003 0. 0. 0. 0. 0. 0.
      2.17864919e-003 0. 0. 4.35729837e-003 0. 2.17864919e-003
      2.17864919e-003 2.17864919e-003 0. 0. 0. 0. 0. 8.71459674e-003 0.
      0. 0. 0. 0. 0. 8.71459674e-003 0. 0. 2.17864919e-003 0. 0. 0.
      6.53594732e-003 0. 4.35729837e-003 0. 0. 0. 0. 0. 4.35729837e-003
      0. 0. 0. 2.17864919e-003 2.17864919e-003 0. 0. 2.17864919e-003 0.
      0. 0. 0. 0. 0. 0. 0. 2.17864919e-003 0. 2.17864919e-003 0.
      4.35729837e-003 2.17864919e-003 2.17864919e-003 0. 0. 0. 0. 0. 0.
      0. 0. 2.17864919e-003 4.35729837e-003 0. 0. 0. 2.17864919e-003 0.
      2.17864919e-003 0. 0. 6.53594732e-003 6.53594732e-003 0.
      2.17864919e-003 0. 2.17864919e-003 6.53594732e-003 0. 0. 0. 0. 0.
      0. 2.17864919e-003 0. 0. 0. 0. 0. 0. 0. 0. 0. 0. 0. 0. 0. 0. 0.
      2.17864919e-003 0. 0. 8.71459674e-003 0. 2.17864919e-003
      2.17864919e-003 0. 0. 0. 0. 4.35729837e-003 0. 0. 4.35729837e-003
      0. 0. 0. 0. 4.35729837e-003 0. 0. 2.17864919e-003 4.35729837e-003
      0. 0. 0. 0. 2.17864919e-003 0. 2.17864919e-003 0. 0.
      4.35729837e-003 0. 0. 2.17864919e-003 2.17864919e-003 0.
      4.35729837e-003 0. 0. 2.17864919e-003 0. 0. 0. 2.17864919e-003 0.
      2.17864919e-003 0. 0. 4.35729837e-003 0. 4.35729837e-003 0. 0. 0.
      2.17864919e-003 2.17864919e-003 2.17864919e-003 3.70370373e-002
      2.17864919e-003 6.53594732e-003 0. 0. 0. 0. 2.17864919e-003 0. 0.
      2.17864919e-003 0. 4.35729837e-003 0. 0. 0. 2.17864919e-003 0.
      2.17864919e-003 4.35729837e-003 0. 2.17864919e-003 4.35729837e-003
      0. 0. 0. 0. 0. 0. 2.17864919e-003 0. 0. 2.17864919e-003
      6.53594732e-003 0. 4.35729837e-003 0. 2.17864919e-003
      2.17864919e-003 0. 0. 0. 0. 2.17864919e-003 0. 0. 0. 0. 0. 0. 0.
      0. 0. 0. 0. 0. 4.35729837e-003 2.17864919e-003 0. 0. 0. 0. 0. 0.
      0. 0. 0. 0. 2.17864919e-003 0. 0. 0. 0. 0. 0. 2.17864919e-003
      2.17864919e-003 0. 2.17864919e-003 0. 0. 2.17864919e-003
      1.30718946e-002 0. 0. 0. 0. 2.17864919e-003 0. 0. 0. 0. 0.
      2.17864919e-003 0. 2.17864919e-003 0. 0. 0. 0. 2.17864919e-003 0.
      2.17864919e-003 0. 4.35729837e-003 0. 0. 0. 0. 0. 0. 0. 0. 0. 0.
      2.17864919e-003 0. 2.17864919e-003 2.17864919e-003 2.17864919e-003
      0. 0. 2.17864919e-003 4.35729837e-003 2.17864919e-003 0. 0.
      4.35729837e-003 0. 2.17864919e-003 0. 0. 0. 0. 0. 0. 0. 0. 0. 0.
      0. 0. 6.53594732e-003 0. 2.17864919e-003 6.53594732e-003 0. 0. 0.
      0. 0. 0. 0. 0. 4.35729837e-003 0. 2.17864919e-003 0. 0.
      2.17864919e-003 2.17864919e-003 0. 4.35729837e-003 0. 0.
      2.17864919e-003 0. 0. 0. 0. 0. 0. 0. 0. 0. 2.17864919e-003
      2.17864919e-003 0. 4.35729837e-003 0. 0. 0. 0. 0. 0.
      2.17864919e-003 0. 0. 4.35729837e-003 0. 0. 0. 0. 0. 0.
      2.17864919e-003 0. 0. 2.17864919e-003 2.17864919e-003 0. 0.
      4.35729837e-003 0. 0. 0. 0. 0. 0. 0. 2.17864919e-003 0. 0. 0. 0.
      4.35729837e-003 0. 0. 0. 0. 0. 0. 0. 0. 0. 0. 0. 0. 0.
      2.17864919e-003 0. 0. 2.17864919e-003 0. 0. 0. 2.17864919e-003
      2.17864919e-003 0. 2.17864919e-003 0. 0. 0. 0. 0. 0. 0. 0. 0. 0.
      0. 0. 2.17864919e-003 4.35729837e-003 0. 4.35729837e-003
      4.35729837e-003 0. 0. 4.35729837e-003 2.17864919e-003
      2.17864919e-003 0. 2.17864919e-003 0. 0. 0. 0. 0. 0.
      1.08932462e-002 0. 2.17864919e-003 0. 0. 2.17864919e-003 0. 0.
      6.53594732e-003 0. 0. 0. 2.17864919e-003 0. 4.35729837e-003 0. 0.
      4.35729837e-003 0. 0. 0. 2.17864919e-003 0. 6.53594732e-003
      6.53594732e-003 2.17864919e-003 0. 0. 2.17864919e-003 0. 0. 0.
      2.17864919e-003 2.17864919e-003 0. 2.17864919e-003 0.
      4.35729837e-003 2.17864919e-003 0. 0. 0. 0. 0. 0. 2.17864919e-003
      0. 0. 0. 2.17864919e-003 0. 2.17864919e-003 0. 2.17864919e-003
      6.53594732e-003 0. 0. 0. 0. 0. 0. 2.17864919e-003 2.17864919e-003
      0. 4.35729837e-003 0. 0. 0. 0. 0. 0. 0. 0. 0. 0. 2.17864919e-003
      0. 0. 0. 4.35729837e-003 0. 2.17864919e-003 2.17864919e-003 0.
      2.17864919e-003 0. 0. 0. 0. 0. 0. 4.35729837e-003 0. 0. 0. 0. 0.
      2.17864919e-003 0. 0. 0. 0. 2.17864919e-003 0. 0. 0. 0.
      2.17864919e-003 2.17864919e-003 2.17864919e-003 2.17864919e-003 0.
      0. 0. 0. 0. 0. 2.17864919e-003 4.35729837e-003 0. 0. 0. 0. 0. 0.
      0. 0. 0. 0. 0. 0. 2.17864919e-003 0. 0. 0. 4.35729837e-003 0. 0.
      0. 0. 0. 2.17864919e-003 0. 0. 0. 0. 0. 0. 2.17864919e-003 0. 0.
      2.17864919e-003 0. 0. 0. 2.17864919e-003 0. 0. 0. 4.35729837e-003
      2.17864919e-003 0. 0. 0. 0. 0. 2.17864919e-003 0. 2.17864919e-003
      0. 4.35729837e-003 0. 0. 0. 0. 0. 0. 6.53594732e-003 0. 0. 0. 0.
      4.35729837e-003 0. 0. 0. 0. 2.17864919e-003 4.35729837e-003
      2.17864919e-003 0. 0. 0. 0. 0. 0. 2.17864919e-003 0. 0. 0.
      2.17864919e-003 0. 0. 2.17864919e-003 0. 0. 0. 0. 2.17864919e-003
      2.17864919e-003 0. 0. 0. 2.17864919e-003 0. 0. 0. 4.35729837e-003
      0. 0. 4.35729837e-003 2.17864919e-003 0. 0. 2.17864919e-003 0. 0.
      0. 0. 0. 0. 0. 0. 0. 0. 0. 0. 0. 0. 2.17864919e-003 0.
      6.53594732e-003 0. 0. 0. 0. 2.17864919e-003 0. 0. 2.17864919e-003
      2.17864919e-003 4.35729837e-003 0. 0. 0. 0. 0. 0. 2.17864919e-003
      0. 2.17864919e-003 2.17864919e-003 0. 2.17864919e-003 0. 0. 0.
      2.17864919e-003 0. 2.17864919e-003 0. 0. 0. 0. 2.17864919e-003 0.
      0. 2.17864919e-003 0. 2.17864919e-003 2.17864919e-003 0. 0. 0.
      6.53594732e-003 0. 2.17864919e-003 0. 0. 2.17864919e-003 0.
      4.35729837e-003 0. 0. 0. 2.17864919e-003 0. 0. 0. 0. 0. 0.
      2.17864919e-003 2.17864919e-003 0. 0. 0. 0. 0. 0. 4.35729837e-003
      0. 2.17864919e-003 0. 2.17864919e-003 0. 0. 6.53594732e-003
      2.17864919e-003 0. 4.35729837e-003 0. 0. 0. 0. 0. 0. 0. 0.
      2.17864919e-003 0. 0. 0. 0. 0. 0. 0.</_>
    <_>
      0. 0. 0. 0. 2.60416674e-003 0. 0. 0. 0. 0. 2.60416674e-003 0. 0.
      5.20833349e-003 0. 0. 0. 2.60416674e-003 5.20833349e-003 0. 0. 0.
      0. 0. 2.60416674e-003 2.60416674e-003 7.81250000e-003 0. 0. 0.
      5.20833349e-003 0. 5.20833349e-003 5.20833349e-003 2.60416674e-003
      0. 0. 2.60416674e-003 0. 0. 0. 5.20833349e-003 2.60416674e-003 0.
      0. 7.81250000e-003 0. 0. 0. 0. 2.60416674e-003 0. 0. 0. 0. 0.
      2.60416674e-003 0. 2.60416674e-003 2.60416674e-003 0. 0. 0. 0. 0.
      2.60416674e-003 2.60416674e-003 0. 2.60416674e-003 7.81250000e-003
      1.30208340e-002 2.60416674e-003 0. 0. 2.60416674e-003 0. 0. 0. 0.
      0. 2.60416674e-003 5.20833349e-003 2.60416674e-003 0. 0. 0. 0. 0.
      0. 0. 0. 0. 0. 0. 0. 0. 0. 0. 0. 0. 2.60416674e-003
      2.60416674e-003 0. 0. 5.20833349e-003 2.60416674e-003 0.
      5.20833349e-003 0. 0. 0. 0. 0. 0. 2.60416674e-003 0. 0.
      2.60416674e-003 0. 0. 0. 0. 5.20833349e-003 0. 0. 2.60416674e-003
      2.60416674e-003 2.60416674e-003 0. 0. 2.60416674e-003 0.
      2.60416674e-003 2.60416674e-003 0. 0. 2.60416674e-003 0. 0. 0. 0.
      2.60416674e-003 0. 0. 0. 0. 5.20833349e-003 0. 0. 0. 0. 0. 0. 0.
      0. 0. 0. 0. 5.20833349e-003 0. 0. 0. 2.60416674e-003
      2.60416674e-003 0. 0. 0. 0. 0. 0. 0. 0. 2.60416674e-003 0.
      2.60416674e-003 0. 0. 0. 0. 0. 2.60416674e-003 2.60416674e-003 0.
      0. 7.81250000e-003 2.60416674e-003 0. 0. 0. 2.60416674e-003
      2.60416674e-003 0. 0. 2.60416674e-003 0. 0. 2.60416674e-003
      2.60416674e-003 0. 0. 0. 2.60416674e-003 0. 0. 0. 2.60416674e-003
      0. 0. 0. 0. 0. 0. 0. 0. 0. 0. 0. 0. 0. 0. 0. 0. 0. 0. 0. 0. 0.
      2.60416674e-003 0. 0. 2.60416674e-003 2.60416674e-003
      2.60416674e-003 2.60416674e-003 0. 0. 0. 0. 0. 0. 1.30208340e-002
      0. 0. 0. 2.60416674e-003 0. 2.60416674e-003 5.20833349e-003 0. 0.
      2.60416674e-003 2.60416674e-003 0. 0. 0. 0. 1.04166670e-002 0. 0.
      0. 0. 2.60416674e-003 2.60416674e-003 0. 0. 0. 2.60416674e-003 0.
      2.60416674e-003 2.60416674e-003 2.60416674e-003 5.20833349e-003 0.
      0. 0. 0. 0. 0. 2.60416674e-003 0. 0. 0. 0. 0. 0. 2.60416674e-003
      0. 0. 2.60416674e-003 0. 0. 0. 0. 0. 5.20833349e-003
      5.20833349e-003 0. 0. 2.60416674e-003 2.60416674e-003
      2.60416674e-003 2.60416674e-003 0. 0. 0. 0. 0. 5.20833349e-003 0.
      0. 0. 0. 0. 0. 0. 0. 5.20833349e-003 0. 0. 0. 0. 0. 0.
      2.60416674e-003 2.60416674e-003 0. 0. 0. 0. 0. 0. 2.60416674e-003
      0. 0. 0. 2.60416674e-003 1.04166670e-002 5.20833349e-003 0.
      5.20833349e-003 0. 0. 0. 0. 2.60416674e-003 0. 2.60416674e-003
      2.60416674e-003 0. 0. 0. 0. 0. 0. 0. 0. 5.20833349e-003 0. 0. 0.
      2.60416674e-003 0. 2.60416674e-003 0. 0. 0. 5.20833349e-003 0.
      2.60416674e-003 0. 0. 2.60416674e-003 5.20833349e-003
      2.60416674e-003 0. 2.60416674e-003 0. 0. 0. 5.20833349e-003 0. 0.
      0. 0. 5.20833349e-003 0. 2.60416674e-003 0. 0. 0. 2.60416674e-003
      0. 2.60416674e-003 2.86458340e-002 0. 2.60416674e-003 0. 0. 0. 0.
      0. 0. 0. 2.60416674e-003 0. 5.20833349e-003 0. 0. 0. 0. 0.
      2.60416674e-003 0. 2.60416674e-003 0. 0. 0. 0. 0. 0.
      2.60416674e-003 0. 1.04166670e-002 0. 0. 5.20833349e-003
      5.20833349e-003 0. 2.60416674e-003 0. 0. 1.04166670e-002 0. 0. 0.
      0. 0. 0. 2.60416674e-003 0. 0. 0. 0. 0. 0. 0. 0. 0. 0.
      5.20833349e-003 2.60416674e-003 2.60416674e-003 2.60416674e-003 0.
      0. 0. 0. 0. 0. 0. 0. 5.20833349e-003 0. 0. 0. 0. 0. 0. 0.
      5.20833349e-003 0. 2.60416674e-003 0. 7.81250000e-003 0.
      1.82291679e-002 0. 0. 2.60416674e-003 0. 2.60416674e-003 0. 0. 0.
      0. 0. 0. 0. 2.60416674e-003 0. 0. 0. 0. 0. 0. 0. 0. 0. 0. 0. 0. 0.
      0. 0. 0. 7.81250000e-003 0. 0. 5.20833349e-003 0. 0. 0.
      2.60416674e-003 0. 2.60416674e-003 2.60416674e-003 5.20833349e-003
      2.60416674e-003 2.60416674e-003 2.60416674e-003 0. 0.
      5.20833349e-003 0. 0. 0. 0. 2.60416674e-003 0. 0. 0. 0. 0. 0. 0.
      5.20833349e-003 7.81250000e-003 0. 0. 2.60416674e-003 0.
      2.60416674e-003 0. 0. 2.60416674e-003 0. 0. 2.60416674e-003
      2.60416674e-003 0. 0. 0. 0. 2.60416674e-003 0. 0. 0.
      2.60416674e-003 2.60416674e-003 0. 0. 0. 0. 0. 0. 0. 0. 0. 0. 0.
      0. 2.60416674e-003 0. 0. 0. 0. 0. 2.60416674e-003 5.20833349e-003
      0. 0. 0. 0. 0. 0. 5.20833349e-003 7.81250000e-003 0. 0.
      7.81250000e-003 0. 0. 0. 0. 0. 5.20833349e-003 0. 2.60416674e-003
      0. 0. 0. 0. 0. 2.60416674e-003 0. 0. 0. 0. 0. 0. 0.
      2.60416674e-003 0. 0. 0. 2.60416674e-003 0. 2.60416674e-003
      2.60416674e-003 0. 0. 0. 2.60416674e-003 0. 0. 0. 0. 0. 0.
      2.60416674e-003 2.60416674e-003 0. 2.60416674e-003 0. 0.
      2.60416674e-003 0. 0. 0. 2.60416674e-003 0. 0. 2.60416674e-003 0.
      0. 5.20833349e-003 0. 0. 2.60416674e-003 0. 0. 2.60416674e-003
      5.20833349e-003 2.60416674e-003 0. 0. 0. 0. 2.60416674e-003 0. 0.
      0. 0. 0. 0. 0. 0. 0. 0. 0. 0. 5.20833349e-003 0. 5.20833349e-003
      2.60416674e-003 2.60416674e-003 0. 0. 2.60416674e-003
      5.20833349e-003 2.60416674e-003 2.60416674e-003 2.60416674e-003
      2.60416674e-003 5.20833349e-003 2.60416674e-003 2.60416674e-003
      5.20833349e-003 0. 0. 0. 0. 0. 0. 0. 2.60416674e-003
      2.60416674e-003 0. 0. 0. 7.81250000e-003 2.60416674e-003 0. 0. 0.
      0. 0. 0. 0. 0. 2.60416674e-003 0. 5.20833349e-003 0. 0. 0. 0.
      7.81250000e-003 0. 0. 0. 0. 0. 0. 0. 2.60416674e-003 0.
      2.60416674e-003 0. 0. 2.60416674e-003 0. 0. 0. 0. 0. 0.
      2.60416674e-003 0. 0. 0. 0. 0. 0. 0. 0. 0. 2.60416674e-003 0. 0.
      2.60416674e-003 0. 0. 0. 2.60416674e-003 2.60416674e-003 0. 0. 0.
      0. 0. 0. 0. 0. 0. 0. 0. 0. 0. 0. 2.60416674e-003 5.20833349e-003
      0. 2.60416674e-003 0. 0. 0. 0. 0. 0. 2.60416674e-003 0. 0. 0.
      2.60416674e-003 0. 0. 0. 0. 0. 0. 0. 2.60416674e-003 0. 0. 0. 0.
      0. 5.20833349e-003 0. 0. 0. 0. 0. 0. 0. 0. 0. 0. 2.60416674e-003
      0. 0. 0. 0. 0. 0. 0. 0. 0. 0. 0. 0. 0. 5.20833349e-003 0. 0. 0. 0.
      0. 2.60416674e-003 0. 0. 0. 2.60416674e-003 0. 0. 0. 0. 0. 0. 0.
      0. 0. 0. 0. 0. 0. 0. 0. 0. 2.60416674e-003 5.20833349e-003
      2.60416674e-003 0. 0. 0. 0. 0. 0. 2.60416674e-003 0. 0. 0.
      2.60416674e-003 5.20833349e-003 0. 0. 0. 0. 2.60416674e-003 0.
      2.60416674e-003 2.60416674e-003 0. 0. 0. 2.60416674e-003 0. 0. 0.
      0. 2.60416674e-003 2.60416674e-003 7.81250000e-003 2.60416674e-003
      0. 0. 0. 0. 0. 0. 0. 0. 2.60416674e-003 0. 0. 0. 0.
      2.60416674e-003 0. 0. 0. 2.60416674e-003 0. 0. 0. 0. 0.
      2.60416674e-003 0. 0. 0. 5.20833349e-003 0. 5.20833349e-003 0. 0.
      0. 0. 2.60416674e-003 0. 0. 0. 0. 0. 0. 2.60416674e-003 0.
      2.60416674e-003 5.20833349e-003 0. 0. 0. 0. 0. 0. 0.
      2.60416674e-003 0. 0. 2.60416674e-003 0. 0. 0. 0. 0. 0.
      5.20833349e-003 0. 0. 2.60416674e-003 0. 2.60416674e-003 0.
      5.20833349e-003 0. 0. 0. 5.20833349e-003 0. 0. 0. 0.
      2.60416674e-003 0. 0. 0. 0. 0. 0. 0. 0. 0. 0. 0. 0. 0. 0. 0. 0. 0.
      2.60416674e-003 0. 7.81250000e-003 2.60416674e-003 0. 0. 0.
      2.60416674e-003 0. 0. 0. 0. 0. 0. 0. 0. 0. 0. 0.</_>
    <_>
      0. 0. 0. 0. 4.55580885e-003 0. 2.27790442e-003 0. 0. 0.
      2.27790442e-003 0. 2.27790442e-003 4.55580885e-003 0. 0. 0.
      2.27790442e-003 2.27790442e-003 0. 2.27790442e-003 0. 0. 0.
      2.27790442e-003 0. 4.55580885e-003 2.27790442e-003 0. 0. 0. 0.
      4.55580885e-003 2.27790442e-003 2.27790442e-003 0. 0.
      4.55580885e-003 0. 2.27790442e-003 0. 2.27790442e-003 0. 0. 0.
      1.36674270e-002 0. 0. 0. 0. 0. 0. 0. 4.55580885e-003 0.
      4.55580885e-003 0. 6.83371350e-003 0. 0. 0. 0. 0. 0. 0.
      2.27790442e-003 2.27790442e-003 0. 4.55580885e-003 1.36674270e-002
      0. 0. 2.27790442e-003 0. 0. 0. 0. 0. 2.27790442e-003 0.
      2.27790442e-003 0. 6.83371350e-003 0. 0. 0. 0. 0. 9.11161769e-003
      0. 0. 2.27790442e-003 0. 0. 2.27790442e-003 0. 2.27790442e-003 0.
      0. 0. 0. 0. 2.27790442e-003 0. 0. 2.27790442e-003 0. 0.
      6.83371350e-003 2.96127573e-002 2.27790442e-003 0. 0. 0.
      4.55580885e-003 0. 0. 0. 0. 0. 0. 4.55580885e-003 6.83371350e-003
      6.83371350e-003 2.27790442e-003 0. 2.27790442e-003 0.
      2.27790442e-003 0. 0. 2.27790442e-003 4.55580885e-003
      4.55580885e-003 2.27790442e-003 0. 4.55580885e-003 2.27790442e-003
      2.27790442e-003 0. 4.55580885e-003 0. 0. 0. 0. 0. 0.
      2.27790442e-003 2.27790442e-003 2.27790442e-003 0. 0. 0. 0.
      2.27790442e-003 2.27790442e-003 0. 0. 2.27790442e-003 0. 0. 0. 0.
      0. 2.27790442e-003 0. 0. 2.27790442e-003 0. 2.27790442e-003
      4.55580885e-003 0. 0. 0. 6.83371350e-003 0. 0. 0. 0.
      2.27790442e-003 2.27790442e-003 0. 0. 0. 0. 4.55580885e-003 0.
      2.27790442e-003 2.27790442e-003 0. 2.27790442e-003 0. 0.
      4.55580885e-003 0. 0. 2.27790442e-003 0. 0. 0. 0. 4.55580885e-003
      2.27790442e-003 2.27790442e-003 0. 2.27790442e-003 0. 0.
      2.27790442e-003 0. 0. 0. 0. 0. 2.27790442e-003 0. 0. 0. 0. 0.
      4.55580885e-003 0. 0. 0. 2.27790442e-003 0. 0. 2.27790442e-003 0.
      0. 2.27790442e-003 2.27790442e-003 4.55580885e-003 0. 0.
      2.27790442e-003 0. 4.55580885e-003 0. 0. 2.27790442e-003
      2.27790442e-003 0. 0. 2.27790442e-003 0. 2.27790442e-003
      2.27790442e-003 1.13895219e-002 0. 0. 2.27790442e-003 0. 0.
      2.27790442e-003 0. 4.55580885e-003 2.27790442e-003 2.27790442e-003
      2.27790442e-003 2.27790442e-003 0. 0. 0. 0. 0. 0. 0.
      2.27790442e-003 2.27790442e-003 2.27790442e-003 0. 2.27790442e-003
      4.55580885e-003 0. 2.27790442e-003 0. 0. 0. 2.27790442e-003 0.
      4.55580885e-003 2.27790442e-003 0. 0. 0. 0. 0. 4.55580885e-003 0.
      0. 0. 0. 0. 0. 6.83371350e-003 0. 0. 2.27790442e-003 0. 0.
      4.55580885e-003 2.27790442e-003 0. 0. 0. 0. 2.27790442e-003 0. 0.
      0. 0. 0. 2.27790442e-003 2.27790442e-003 0. 6.83371350e-003
      2.27790442e-003 0. 0. 6.83371350e-003 0. 0. 0. 2.27790442e-003 0.
      0. 0. 0. 0. 0. 0. 0. 0. 0. 0. 4.55580885e-003 4.55580885e-003 0.
      2.27790442e-003 0. 0. 2.27790442e-003 0. 2.27790442e-003 0. 0. 0.
      0. 0. 0. 2.27790442e-003 0. 0. 0. 0. 6.83371350e-003 0. 0. 0. 0.
      0. 0. 0. 2.27790442e-003 0. 6.83371350e-003 0. 4.55580885e-003 0.
      0. 0. 6.83371350e-003 0. 0. 2.27790442e-003 0. 4.55580885e-003 0.
      6.83371350e-003 0. 0. 0. 2.27790442e-003 4.55580885e-003 0.
      4.55580885e-003 0. 0. 0. 0. 0. 0. 1.59453303e-002 2.27790442e-003
      2.27790442e-003 0. 0. 0. 0. 0. 0. 0. 2.27790442e-003 0.
      2.27790442e-003 0. 0. 0. 0. 0. 0. 0. 2.27790442e-003 0.
      2.27790442e-003 0. 0. 2.27790442e-003 0. 2.27790442e-003
      2.27790442e-003 0. 0. 0. 0. 0. 0. 4.55580885e-003 0. 0.
      4.55580885e-003 0. 0. 0. 0. 0. 0. 0. 0. 0. 0. 4.55580885e-003 0.
      0. 0. 0. 0. 0. 4.55580885e-003 4.55580885e-003 4.55580885e-003 0.
      0. 0. 0. 0. 0. 0. 2.27790442e-003 0. 4.55580885e-003 0.
      2.27790442e-003 2.27790442e-003 0. 0. 0. 0. 4.55580885e-003 0. 0.
      0. 2.27790442e-003 4.55580885e-003 9.11161769e-003 0. 0.
      2.27790442e-003 0. 0. 0. 0. 0. 0. 0. 0. 2.27790442e-003 0. 0. 0.
      0. 0. 2.27790442e-003 2.27790442e-003 0. 0. 0. 0. 0. 0. 0. 0. 0.
      0. 0. 0. 0. 0. 0. 2.27790442e-003 0. 0. 0. 4.55580885e-003
      2.27790442e-003 0. 0. 0. 0. 2.27790442e-003 0. 2.27790442e-003 0.
      0. 0. 0. 0. 0. 0. 2.27790442e-003 0. 0. 0. 0. 2.27790442e-003
      4.55580885e-003 2.27790442e-003 2.27790442e-003 0. 0.
      2.27790442e-003 0. 0. 0. 0. 0. 0. 0. 2.27790442e-003 0. 0. 0. 0.
      0. 0. 0. 0. 0. 0. 0. 0. 0. 0. 0. 0. 2.27790442e-003 0. 0. 0. 0. 0.
      0. 0. 0. 2.27790442e-003 0. 2.27790442e-003 4.55580885e-003 0.
      2.27790442e-003 0. 2.27790442e-003 2.27790442e-003 0.
      2.27790442e-003 0. 0. 0. 2.27790442e-003 0. 2.27790442e-003 0. 0.
      0. 0. 2.27790442e-003 0. 0. 2.27790442e-003 2.27790442e-003 0. 0.
      4.55580885e-003 0. 0. 2.27790442e-003 0. 0. 0. 0. 2.27790442e-003
      0. 0. 0. 0. 0. 0. 0. 2.27790442e-003 0. 0. 4.55580885e-003
      2.27790442e-003 0. 0. 0. 0. 0. 0. 0. 0. 0. 0. 0. 0. 0. 0. 0. 0.
      4.55580885e-003 0. 0. 0. 0. 4.55580885e-003 0. 0. 0.
      4.55580885e-003 0. 0. 0. 2.27790442e-003 0. 0. 0. 0.
      2.27790442e-003 0. 0. 0. 0. 2.05011405e-002 0. 0. 0. 0. 0. 0. 0.
      2.27790442e-003 0. 2.27790442e-003 0. 0. 0. 0. 0. 0.
      2.27790442e-003 0. 0. 6.83371350e-003 2.27790442e-003
      4.55580885e-003 0. 0. 0. 0. 0. 0. 0. 0. 0. 2.27790442e-003
      2.27790442e-003 1.13895219e-002 2.27790442e-003 2.27790442e-003
      4.55580885e-003 2.27790442e-003 0. 0. 0. 0. 2.27790442e-003 0. 0.
      0. 0. 0. 2.27790442e-003 0. 2.27790442e-003 4.55580885e-003 0.
      9.11161769e-003 0. 0. 0. 0. 0. 0. 2.27790442e-003 2.27790442e-003
      2.27790442e-003 2.27790442e-003 0. 0. 2.27790442e-003 0. 0. 0. 0.
      0. 0. 0. 2.27790442e-003 0. 0. 0. 0. 0. 2.27790442e-003 0. 0. 0.
      0. 0. 0. 0. 0. 0. 2.27790442e-003 0. 0. 0. 2.27790442e-003 0. 0.
      0. 0. 0. 0. 0. 0. 0. 0. 2.27790442e-003 0. 2.27790442e-003 0.
      2.27790442e-003 0. 0. 0. 0. 0. 0. 2.27790442e-003 2.27790442e-003
      0. 0. 2.27790442e-003 0. 0. 2.27790442e-003 4.55580885e-003 0.
      4.55580885e-003 0. 2.27790442e-003 0. 6.83371350e-003 0. 0. 0. 0.
      0. 0. 0. 0. 0. 0. 2.27790442e-003 0. 0. 0. 0. 0. 0. 0. 0. 0. 0. 0.
      0. 2.27790442e-003 0. 0. 0. 0. 2.27790442e-003 0. 0. 0.
      2.27790442e-003 0. 0. 0. 0. 0. 2.27790442e-003 0. 0. 0. 0. 0. 0.
      2.27790442e-003 0. 0. 0. 0. 0. 2.27790442e-003 0. 0. 0.
      6.83371350e-003 2.27790442e-003 0. 0. 0. 2.27790442e-003 0. 0. 0.
      0. 0. 0. 2.27790442e-003 2.27790442e-003 0. 2.27790442e-003 0. 0.
      0. 0. 0. 0. 2.27790442e-003 4.55580885e-003 0. 0. 0. 0. 0. 0. 0.
      0. 0. 0. 2.27790442e-003 0. 0. 2.27790442e-003 0. 0. 0.
      2.27790442e-003 0. 0. 0. 0. 0. 1.13895219e-002 0. 0.
      2.27790442e-003 0. 2.27790442e-003 0. 4.55580885e-003 0. 0. 0. 0.
      0. 0. 0. 0. 0. 0. 0. 0. 0. 0. 0. 0. 0. 0. 2.27790442e-003 0.
      2.27790442e-003 0. 0. 0. 0. 2.27790442e-003 0. 0. 0. 0. 0. 0.
      4.55580885e-003 0. 0. 0. 0. 0. 2.27790442e-003 0. 0. 0.
      6.83371350e-003 0. 0. 0. 2.27790442e-003 0. 0. 6.83371350e-003 0.
      2.50569489e-002 0. 0. 0. 0. 0. 0. 2.27790442e-003 0. 0.
      2.27790442e-003 0. 0. 0. 0. 0. 0. 2.27790442e-003 0.
      4.55580885e-003 0. 0. 0. 0. 0. 4.55580885e-003 0. 2.27790442e-003
      0. 0. 0. 0. 0. 0. 0. 0. 0. 0. 0. 0. 0. 0. 0. 0.</_>
    <_>
      0. 0. 0. 0. 7.53768813e-003 0. 0. 0. 0. 0. 0. 0. 0. 0. 0. 0. 0.
      5.02512557e-003 7.53768813e-003 2.51256279e-003 2.51256279e-003 0.
      2.51256279e-003 2.51256279e-003 0. 0. 5.02512557e-003 0. 0.
      2.51256279e-003 7.53768813e-003 2.51256279e-003 7.53768813e-003
      7.53768813e-003 0. 2.51256279e-003 0. 0. 0. 0. 0. 2.51256279e-003
      2.51256279e-003 0. 5.02512557e-003 5.02512557e-003 0. 0. 0. 0. 0.
      2.51256279e-003 0. 2.51256279e-003 2.51256279e-003 2.51256279e-003
      0. 1.00502511e-002 5.02512557e-003 2.51256279e-003 0. 0.
      2.51256279e-003 0. 0. 0. 0. 2.51256279e-003 2.51256279e-003
      2.51256279e-003 5.02512557e-003 0. 0. 0. 2.51256279e-003 0. 0. 0.
      0. 0. 0. 5.02512557e-003 7.53768813e-003 0. 0. 0. 0. 0. 0. 0. 0.
      5.02512557e-003 0. 0. 0. 0. 0. 0. 0. 0. 2.51256279e-003
      5.02512557e-003 5.02512557e-003 2.51256279e-003 0. 2.51256279e-003
      0. 0. 2.51256279e-003 0. 2.51256279e-003 0. 2.51256279e-003 0.
      2.51256279e-003 0. 2.51256279e-003 0. 0. 0. 0. 2.51256279e-003 0.
      0. 0. 0. 5.02512557e-003 0. 0. 0. 0. 2.51256279e-003
      2.51256279e-003 0. 0. 0. 2.51256279e-003 5.02512557e-003 0. 0.
      2.51256279e-003 2.51256279e-003 0. 2.51256279e-003 0. 0.
      2.51256279e-003 0. 0. 2.51256279e-003 0. 0. 0. 0. 0. 0. 0. 0.
      5.02512557e-003 0. 0. 0. 0. 5.02512557e-003 0. 0. 0. 0. 0. 0.
      7.53768813e-003 0. 2.51256279e-003 0. 5.02512557e-003 0. 0.
      5.02512557e-003 0. 2.51256279e-003 0. 5.02512557e-003 0. 0.
      7.53768813e-003 2.51256279e-003 2.51256279e-003 2.51256279e-003
      2.51256279e-003 2.51256279e-003 7.53768813e-003 0. 0. 0. 0. 0. 0.
      2.51256279e-003 0. 0. 0. 5.02512557e-003 0. 2.51256279e-003
      2.51256279e-003 5.02512557e-003 0. 0. 0. 0. 2.51256279e-003 0. 0.
      2.51256279e-003 0. 0. 2.51256279e-003 0. 0. 5.02512557e-003 0.
      2.51256279e-003 0. 2.51256279e-003 0. 0. 0. 5.02512557e-003 0. 0.
      0. 0. 0. 2.51256279e-003 5.02512557e-003 0. 0. 0. 0. 0.
      7.53768813e-003 0. 0. 2.51256279e-003 0. 0. 1.00502511e-002 0. 0.
      0. 2.51256279e-003 5.02512557e-003 0. 0. 5.02512557e-003 0.
      5.02512557e-003 0. 2.51256279e-003 0. 0. 0. 2.51256279e-003 0. 0.
      0. 5.02512557e-003 2.51256279e-003 0. 0. 2.51256279e-003
      2.51256279e-003 0. 0. 0. 2.51256279e-003 0. 0. 0. 2.51256279e-003
      0. 0. 0. 0. 0. 0. 2.51256279e-003 0. 2.51256279e-003 0. 0. 0.
      2.51256279e-003 0. 5.02512557e-003 5.02512557e-003 0. 0. 0.
      2.51256279e-003 2.51256279e-003 2.51256279e-003 2.51256279e-003 0.
      0. 0. 0. 5.02512557e-003 0. 0. 7.53768813e-003 2.51256279e-003 0.
      0. 0. 0. 2.51256279e-003 0. 0. 0. 2.51256279e-003 0. 0.
      2.51256279e-003 0. 0. 0. 0. 0. 0. 0. 0. 0. 0. 0. 0.
      2.51256279e-003 2.51256279e-003 2.51256279e-003 2.51256279e-003 0.
      0. 0. 0. 5.02512557e-003 0. 0. 2.51256279e-003 2.51256279e-003 0.
      0. 0. 2.51256279e-003 0. 0. 2.51256279e-003 5.02512557e-003 0. 0.
      0. 0. 2.51256279e-003 0. 2.51256279e-003 0. 0. 5.02512557e-003 0.
      2.51256279e-003 0. 0. 0. 0. 0. 0. 7.53768813e-003 0. 0. 0.
      7.53768813e-003 2.51256279e-003 2.51256279e-003 0. 2.51256279e-003
      2.51256279e-003 0. 2.51256279e-003 2.51256279e-003 0. 0.
      2.51256279e-003 0. 0. 2.26130653e-002 7.53768813e-003
      2.51256279e-003 5.02512557e-003 0. 0. 0. 0. 2.51256279e-003 0. 0.
      2.51256279e-003 1.00502511e-002 0. 0. 5.02512557e-003 0. 0. 0. 0.
      0. 0. 0. 2.51256279e-003 0. 0. 0. 0. 0. 0. 0. 0. 5.02512557e-003
      2.51256279e-003 0. 0. 0. 0. 2.51256279e-003 0. 0. 0. 0. 0. 0. 0.
      0. 0. 0. 0. 0. 0. 0. 0. 0. 0. 2.51256279e-003 7.53768813e-003
      2.51256279e-003 0. 0. 0. 0. 0. 0. 0. 0. 0. 2.51256279e-003 0.
      5.02512557e-003 5.02512557e-003 0. 0. 0. 2.51256279e-003
      2.51256279e-003 0. 2.51256279e-003 0. 0. 2.51256279e-003
      1.00502511e-002 0. 0. 2.51256279e-003 0. 0. 0. 0. 0. 0. 0. 0. 0.
      5.02512557e-003 0. 0. 0. 0. 0. 0. 0. 2.51256279e-003 0. 0. 0. 0.
      0. 0. 0. 0. 2.51256279e-003 0. 0. 7.53768813e-003 0. 0. 0.
      2.51256279e-003 2.51256279e-003 7.53768813e-003 0. 0.
      2.51256279e-003 0. 0. 0. 2.51256279e-003 0. 0. 0. 0. 0. 0. 0. 0.
      0. 0. 0. 0. 2.51256279e-003 2.51256279e-003 1.00502511e-002
      2.51256279e-003 5.02512557e-003 0. 0. 0. 2.51256279e-003 0.
      2.51256279e-003 0. 0. 2.51256279e-003 0. 0. 0. 0. 2.51256279e-003
      0. 0. 0. 0. 0. 2.51256279e-003 0. 0. 0. 0. 0. 0. 0. 0.
      5.02512557e-003 2.51256279e-003 0. 0. 2.51256279e-003 0. 0. 0. 0.
      0. 0. 5.02512557e-003 0. 0. 2.51256279e-003 0. 2.51256279e-003 0.
      0. 0. 0. 0. 2.51256279e-003 0. 0. 2.51256279e-003 0. 0.
      5.02512557e-003 0. 0. 2.51256279e-003 0. 0. 0. 0. 0. 0. 0. 0. 0.
      0. 0. 0. 2.51256279e-003 0. 0. 0. 0. 0. 7.53768813e-003 0. 0. 0.
      0. 0. 2.51256279e-003 0. 2.51256279e-003 0. 0. 0. 0.
      2.51256279e-003 0. 2.51256279e-003 0. 0. 2.51256279e-003 0. 0. 0.
      0. 0. 0. 0. 0. 0. 2.51256279e-003 0. 0. 0. 5.02512557e-003 0. 0.
      0. 0. 0. 0. 0. 0. 0. 0. 0. 0. 2.51256279e-003 2.51256279e-003 0.
      0. 0. 0. 0. 0. 0. 5.02512557e-003 0. 2.51256279e-003 0.
      2.51256279e-003 0. 2.51256279e-003 0. 0. 5.02512557e-003 0.
      5.02512557e-003 7.53768813e-003 2.51256279e-003 0. 5.02512557e-003
      0. 0. 0. 2.51256279e-003 0. 0. 0. 0. 0. 0. 2.51256279e-003
      2.51256279e-003 0. 0. 2.51256279e-003 0. 0. 0. 0. 0. 0.
      2.51256279e-003 0. 0. 0. 0. 0. 0. 2.51256279e-003 2.51256279e-003
      7.53768813e-003 0. 0. 2.51256279e-003 0. 0. 0. 0. 2.51256279e-003
      0. 0. 0. 0. 2.51256279e-003 0. 0. 0. 0. 0. 0. 5.02512557e-003 0.
      0. 0. 0. 0. 0. 0. 2.51256279e-003 0. 0. 0. 0. 2.51256279e-003 0.
      0. 0. 1.00502511e-002 2.51256279e-003 0. 0. 0. 0. 0.
      2.51256279e-003 5.02512557e-003 0. 0. 0. 0. 0. 0. 0. 0.
      5.02512557e-003 0. 5.02512557e-003 0. 2.51256279e-003 0. 0. 0. 0.
      5.02512557e-003 2.51256279e-003 0. 0. 0. 0. 0. 0. 0. 0. 0. 0. 0.
      0. 0. 0. 0. 0. 5.02512557e-003 0. 0. 0. 0. 0. 0. 0. 0. 0.
      5.02512557e-003 0. 0. 0. 0. 2.51256279e-003 0. 0. 0. 0. 0. 0. 0.
      0. 0. 0. 0. 0. 0. 0. 0. 2.51256279e-003 0. 2.51256279e-003 0.
      2.51256279e-003 0. 0. 0. 0. 0. 0. 2.51256279e-003 0. 0. 0. 0.
      2.51256279e-003 0. 2.51256279e-003 2.51256279e-003 0.
      5.02512557e-003 2.51256279e-003 0. 0. 0. 0. 0. 0. 2.51256279e-003
      0. 0. 0. 0. 0. 2.51256279e-003 2.51256279e-003 0. 0. 0. 0. 0. 0.
      0. 0. 0. 2.51256279e-003 5.02512557e-003 2.51256279e-003 0. 0. 0.
      0. 0. 0. 0. 0. 0. 2.51256279e-003 0. 2.51256279e-003 0. 0.
      2.51256279e-003 2.51256279e-003 0. 0. 2.51256279e-003
      5.02512557e-003 0. 0. 0. 0. 0. 0. 0. 0. 2.51256279e-003 0. 0. 0.
      0. 0. 0. 0. 0. 0. 0. 0. 0. 2.51256279e-003 0. 0. 0. 0. 0. 0.
      2.51256279e-003 0. 0. 0. 0. 0. 0. 0. 0. 0. 0. 0. 0. 0.
      2.51256279e-003 0. 5.02512557e-003 0. 0. 0. 0. 0. 0. 0. 0. 0. 0.
      0. 2.51256279e-003 0. 0. 0. 0. 5.02512557e-003 0. 0. 0. 0. 0. 0.
      7.53768813e-003 0. 0. 0. 0. 0. 0. 0. 0. 2.51256279e-003 0. 0. 0.
      0. 0. 2.51256279e-003 0. 5.02512557e-003 0. 0. 0. 0.
      2.51256279e-003 0. 0. 0. 0. 0. 0. 0. 0. 0. 2.51256279e-003 0.</_>
    <_>
      0. 0. 1.52207003e-003 0. 4.56621032e-003 0. 0. 0. 0. 0.
      1.52207003e-003 0. 0. 0. 3.04414006e-003 0. 0. 1.52207003e-003
      3.04414006e-003 3.04414006e-003 1.52207003e-003 1.52207003e-003
      3.04414006e-003 0. 0. 0. 0. 0. 0. 1.52207003e-003 4.56621032e-003
      0. 1.52207003e-003 0. 3.04414006e-003 0. 1.06544904e-002
      1.52207003e-003 0. 0. 0. 0. 0. 0. 1.52207003e-003 7.61034992e-003
      0. 0. 0. 6.08828012e-003 1.52207003e-003 4.56621032e-003 0. 0. 0.
      1.52207003e-003 1.52207003e-003 7.61034992e-003 0. 1.52207003e-003
      0. 0. 0. 3.04414006e-003 4.56621032e-003 3.04414006e-003
      1.52207003e-003 0. 0. 1.21765602e-002 0. 1.52207003e-003
      1.52207003e-003 1.52207003e-003 0. 3.04414006e-003 4.56621032e-003
      0. 0. 1.52207003e-003 3.04414006e-003 0. 7.61034992e-003 0. 0. 0.
      0. 0. 0. 0. 0. 0. 0. 1.52207003e-003 0. 0. 0. 0. 0. 0. 0.
      7.61034992e-003 1.52207003e-003 1.52207003e-003 1.52207003e-003 0.
      1.52207003e-003 1.52207003e-003 3.04414006e-003 0. 0. 0. 0. 0.
      1.52207003e-003 0. 1.52207003e-003 3.04414006e-003 0. 0.
      1.67427696e-002 0. 6.08828012e-003 0. 1.52207003e-003 0. 0. 0.
      1.52207003e-003 0. 0. 0. 0. 0. 1.52207003e-003 0. 4.56621032e-003
      0. 0. 0. 4.56621032e-003 0. 0. 0. 0. 0. 0. 0. 1.52207003e-003
      1.52207003e-003 0. 1.52207003e-003 3.04414006e-003 1.52207003e-003
      1.52207003e-003 0. 0. 0. 1.52207003e-003 9.13242064e-003
      1.52207003e-003 3.04414006e-003 0. 0. 1.52207003e-003
      1.52207003e-003 0. 3.04414006e-003 0. 0. 0. 0. 0. 0. 0.
      4.56621032e-003 0. 3.04414006e-003 0. 1.52207003e-003
      4.56621032e-003 0. 0. 0. 4.56621032e-003 1.52207003e-003 0. 0. 0.
      1.52207003e-003 0. 0. 0. 0. 4.56621032e-003 0. 6.08828012e-003 0.
      0. 0. 0. 0. 4.56621032e-003 1.52207003e-003 0. 0. 0. 0. 0. 0.
      6.08828012e-003 0. 0. 0. 0. 0. 0. 4.56621032e-003 1.52207003e-003
      0. 0. 0. 0. 0. 1.52207003e-003 0. 0. 0. 1.52207003e-003 0. 0. 0.
      3.04414006e-003 7.61034992e-003 7.61034992e-003 0. 0. 0. 0. 0. 0.
      0. 0. 0. 1.52207003e-003 0. 0. 0. 4.56621032e-003 0. 0.
      1.52207003e-003 0. 0. 6.08828012e-003 0. 0. 0. 0. 0. 0. 0. 0.
      9.13242064e-003 0. 0. 0. 0. 1.52207003e-003 1.52207003e-003
      1.52207003e-003 4.56621032e-003 0. 0. 0. 0. 0. 0. 1.52207003e-003
      3.04414006e-003 0. 1.52207003e-003 0. 0. 4.56621032e-003 0. 0. 0.
      0. 3.04414006e-003 0. 0. 0. 0. 0. 3.04414006e-003 0. 0. 0. 0. 0.
      1.52207003e-003 1.52207003e-003 0. 1.52207003e-003 0. 0. 0. 0.
      3.04414006e-003 3.04414006e-003 0. 0. 0. 1.52207003e-003 0. 0.
      1.52207003e-003 1.52207003e-003 0. 0. 0. 3.04414006e-003 0.
      3.04414006e-003 1.52207003e-003 0. 0. 0. 1.52207003e-003 0. 0. 0.
      0. 0. 0. 1.52207003e-003 3.04414006e-003 3.04414006e-003
      1.52207003e-003 0. 1.52207003e-003 0. 0. 0. 0. 9.13242064e-003
      1.52207003e-003 3.04414006e-003 0. 0. 0. 0. 0. 0. 3.04414006e-003
      1.52207003e-003 0. 3.04414006e-003 0. 4.56621032e-003 0.
      4.56621032e-003 0. 0. 0. 1.52207003e-003 1.52207003e-003
      3.04414006e-003 3.04414006e-003 0. 0. 3.04414006e-003 0. 0.
      1.52207003e-003 0. 1.52207003e-003 0. 1.52207003e-003 0. 0. 0.
      3.04414006e-003 1.52207003e-003 1.52207003e-003 1.52207003e-003
      4.56621032e-003 0. 0. 3.04414006e-003 1.52207003e-003 0.
      1.52207003e-003 0. 3.04414006e-003 0. 4.56621032e-003
      6.08828012e-003 3.04414006e-003 0. 0. 4.56621032e-003 0. 0.
      3.04414006e-003 1.52207003e-003 0. 0. 0. 3.04414006e-003
      1.52207003e-003 0. 0. 0. 0. 0. 1.52207003e-003 0. 0.
      7.61034992e-003 3.04414006e-003 0. 1.52207003e-003 0.
      4.56621032e-003 1.52207003e-003 1.52207003e-003 1.52207003e-003 0.
      0. 1.52207003e-003 0. 0. 0. 0. 0. 0. 0. 0. 0. 0. 1.52207003e-003
      4.56621032e-003 0. 0. 0. 0. 0. 1.52207003e-003 1.52207003e-003
      1.52207003e-003 1.52207003e-003 0. 0. 1.52207003e-003 0. 0.
      3.04414006e-003 0. 0. 1.52207003e-003 3.04414006e-003 0. 0. 0. 0.
      0. 0. 1.52207003e-003 0. 0. 4.56621032e-003 1.52207003e-003
      1.52207003e-003 6.08828012e-003 1.52207003e-003 0. 1.52207003e-003
      1.52207003e-003 0. 1.52207003e-003 0. 0. 0. 0. 0. 0.
      1.52207003e-003 0. 0. 0. 0. 1.52207003e-003 1.52207003e-003 0.
      1.52207003e-003 0. 0. 0. 0. 0. 0. 0. 1.52207003e-003 0. 0. 0.
      1.52207003e-003 0. 1.52207003e-003 0. 0. 0. 0. 1.52207003e-003 0.
      0. 0. 1.52207003e-003 1.52207003e-003 0. 0. 0. 0. 0. 0. 0. 0. 0.
      7.61034992e-003 4.56621032e-003 0. 0. 0. 0. 0. 0. 0. 0. 0. 0. 0.
      0. 0. 0. 0. 3.04414006e-003 0. 0. 0. 0. 1.52207003e-003 0.
      1.52207003e-003 0. 0. 1.52207003e-003 0. 3.04414006e-003
      1.52207003e-003 1.52207003e-003 0. 0. 9.13242064e-003 0.
      1.52207003e-003 0. 0. 0. 0. 0. 1.52207003e-003 0. 0. 0. 0.
      6.08828012e-003 0. 1.52207003e-003 1.52207003e-003 0. 0. 0. 0. 0.
      1.52207003e-003 0. 0. 0. 4.56621032e-003 0. 1.52207003e-003 0. 0.
      1.52207003e-003 0. 0. 1.52207003e-003 0. 0. 0. 0. 0. 0. 0.
      1.52207003e-003 0. 0. 0. 0. 1.52207003e-003 0. 0. 0. 0. 0. 0.
      1.52207003e-003 1.52207003e-003 0. 0. 0. 0. 0. 0. 0. 0. 0. 0. 0.
      0. 0. 0. 1.52207003e-003 0. 1.52207003e-003 3.04414006e-003 0. 0.
      1.52207003e-003 0. 0. 0. 0. 0. 0. 1.52207003e-003 0.
      1.52207003e-003 6.08828012e-003 0. 1.52207003e-003 0. 0. 0. 0. 0.
      4.56621032e-003 1.52207003e-003 0. 0. 0. 0. 0. 1.52207003e-003 0.
      0. 0. 0. 0. 0. 0. 0. 0. 1.52207003e-003 1.52207003e-003
      3.04414006e-003 1.52207003e-003 1.52207003e-003 0. 0.
      4.56621032e-003 0. 0. 1.52207003e-003 0. 1.52207003e-003 0. 0. 0.
      0. 6.08828012e-003 0. 0. 1.52207003e-003 0. 0. 1.52207003e-003 0.
      0. 1.52207003e-003 0. 0. 0. 1.52207003e-003 1.52207003e-003 0. 0.
      1.52207003e-003 0. 1.52207003e-003 3.04414006e-003 1.52207003e-003
      1.52207003e-003 0. 1.52207003e-003 0. 0. 0. 0. 1.52207003e-003 0.
      0. 0. 0. 3.04414006e-003 3.04414006e-003 0. 1.52207003e-003
      1.52207003e-003 0. 0. 4.56621032e-003 3.04414006e-003 0. 0.
      1.52207003e-003 0. 3.04414006e-003 4.56621032e-003 0. 0. 0.
      9.13242064e-003 0. 0. 3.04414006e-003 4.56621032e-003 0. 0. 0.
      7.61034992e-003 0. 0. 0. 0. 0. 1.52207003e-003 0. 3.04414006e-003
      0. 0. 0. 0. 0. 1.52207003e-003 0. 0. 0. 0. 6.08828012e-003
      1.52207003e-003 0. 0. 0. 0. 0. 1.52207003e-003 0. 0.
      1.52207003e-003 0. 0. 1.52207003e-003 3.04414006e-003 0.
      3.04414006e-003 3.04414006e-003 0. 6.08828012e-003 1.52207003e-003
      7.61034992e-003 0. 0. 0. 3.04414006e-003 0. 7.61034992e-003 0. 0.
      0. 0. 1.52207003e-003 3.04414006e-003 0. 0. 1.52207003e-003
      1.52207003e-003 0. 0. 0. 1.52207003e-003 0. 0. 0. 0. 0.
      7.61034992e-003 0. 1.52207003e-003 0. 1.52207003e-003 0. 0. 0. 0.
      7.61034992e-003 3.04414006e-003 0. 0. 0. 0. 3.04414006e-003 0.
      4.56621032e-003 0. 1.52207003e-003 0. 1.52207003e-003
      1.52207003e-003 0. 0. 0. 0. 0. 0. 0. 0. 0. 1.52207003e-003 0.
      1.52207003e-003 0. 0. 0. 0. 0. 0. 0. 0. 0. 4.56621032e-003 0. 0.
      3.04414006e-003 1.52207003e-003 0. 0. 0. 3.04414006e-003 0. 0. 0.
      3.04414006e-003 0. 0. 6.08828012e-003 1.52207003e-003 0. 0.
      1.52207003e-003 0. 0. 1.52207003e-003 4.56621032e-003 0. 0. 0. 0.
      0. 0. 0. 3.04414006e-003 0. 0. 0. 1.52207003e-003 0. 0. 0. 0.
      1.06544904e-002 1.52207003e-003 3.04414006e-003 0. 1.52207003e-003
      0. 7.61034992e-003 0. 3.04414006e-003 1.52207003e-003
      3.04414006e-003 3.04414006e-003 3.04414006e-003 0. 0. 0. 0. 0.
      1.52207003e-003 0. 0. 7.61034992e-003 0. 0. 0. 3.04414006e-003
      1.52207003e-003 1.52207003e-003 6.08828012e-003 0. 0. 0. 0. 0. 0.
      0. 0. 0. 0. 1.52207003e-003 0. 1.52207003e-003 0. 0.
      3.04414006e-003 0. 0. 1.52207003e-003 1.52207003e-003 0.
      1.52207003e-003 0. 0. 0. 0. 0. 0. 1.52207003e-003 0. 0. 0.
      3.04414006e-003 6.08828012e-003 0. 1.52207003e-003 0. 0. 0.
      1.52207003e-003 4.56621032e-003 9.13242064e-003 0. 1.52207003e-003
      1.52207003e-003 0. 0. 0. 1.52207003e-003 1.52207003e-003 0. 0. 0.
      0. 0. 0. 0. 0. 0. 0. 0. 1.52207003e-003 0. 0. 0. 0. 0.
      3.04414006e-003 1.82648413e-002</_>
    <_>
      0. 0. 2.32018554e-003 0. 2.32018554e-003 0. 0. 0. 0. 0. 0. 0. 0.
      0. 6.96055684e-003 0. 0. 2.32018554e-003 2.32018554e-003 0. 0. 0.
      4.64037107e-003 0. 0. 0. 0. 0. 0. 2.32018554e-003 4.64037107e-003
      0. 0. 0. 2.32018554e-003 0. 2.08816696e-002 2.32018554e-003 0. 0.
      0. 2.32018554e-003 0. 0. 2.32018554e-003 4.64037107e-003 0. 0. 0.
      0. 0. 4.64037107e-003 0. 0. 0. 0. 2.32018554e-003 9.28074215e-003
      0. 2.32018554e-003 0. 0. 0. 2.32018554e-003 6.96055684e-003
      2.32018554e-003 2.32018554e-003 2.32018554e-003 0. 4.64037107e-003
      0. 2.32018554e-003 0. 2.32018554e-003 0. 2.32018554e-003 0. 0. 0.
      0. 9.28074215e-003 2.32018554e-003 6.96055684e-003 2.32018554e-003
      0. 0. 0. 0. 0. 0. 0. 0. 0. 0. 0. 0. 0. 0. 0. 0. 0. 2.32018554e-003
      0. 0. 2.32018554e-003 0. 0. 2.32018554e-003 0. 0. 0. 0. 0. 0.
      2.32018554e-003 0. 2.32018554e-003 0. 0. 0. 6.96055684e-003 0.
      9.28074215e-003 0. 0. 0. 0. 0. 0. 0. 0. 2.32018554e-003 0. 0.
      1.16009274e-002 0. 0. 0. 0. 0. 2.32018554e-003 0. 0. 0. 0.
      2.32018554e-003 0. 0. 0. 2.32018554e-003 0. 0. 4.64037107e-003 0.
      0. 0. 0. 0. 0. 9.28074215e-003 2.32018554e-003 0. 0. 0.
      2.32018554e-003 0. 0. 0. 0. 0. 0. 0. 0. 0. 0. 6.96055684e-003 0.
      2.32018554e-003 0. 2.32018554e-003 9.28074215e-003 0. 0. 0.
      6.96055684e-003 0. 0. 0. 0. 9.28074215e-003 0. 0. 0. 0. 0. 0.
      2.32018554e-003 0. 0. 0. 0. 0. 6.96055684e-003 0. 0. 0. 0. 0.
      2.32018554e-003 0. 1.62412990e-002 0. 0. 0. 2.32018554e-003 0. 0.
      2.32018554e-003 2.32018554e-003 0. 0. 0. 0. 0. 0. 0. 0. 0. 0. 0.
      0. 0. 2.32018554e-003 6.96055684e-003 6.96055684e-003 0. 0.
      4.64037107e-003 0. 0. 0. 0. 0. 0. 0. 0. 0. 0. 2.32018554e-003 0.
      0. 0. 0. 0. 6.96055684e-003 0. 0. 2.32018554e-003 2.32018554e-003
      0. 0. 0. 0. 0. 0. 2.32018554e-003 0. 0. 2.32018554e-003 0. 0.
      6.96055684e-003 0. 0. 0. 0. 0. 0. 0. 0. 0. 2.32018554e-003 0. 0.
      0. 0. 0. 0. 0. 0. 0. 0. 0. 0. 0. 4.64037107e-003 0. 0. 0. 0. 0. 0.
      2.32018554e-003 0. 0. 0. 0. 0. 0. 2.32018554e-003 2.32018554e-003
      0. 0. 4.64037107e-003 2.32018554e-003 0. 0. 0. 0. 0. 0. 0.
      2.32018554e-003 0. 0. 4.64037107e-003 0. 0. 0. 0. 0. 0. 0. 0. 0.
      0. 4.64037107e-003 2.32018554e-003 6.96055684e-003 0. 0. 0. 0. 0.
      0. 2.32018554e-003 6.96055684e-003 2.32018554e-003 0. 0.
      2.32018554e-003 0. 0. 0. 0. 2.32018554e-003 4.64037107e-003 0. 0.
      0. 1.16009274e-002 0. 2.32018554e-003 0. 0. 0. 0. 0.
      2.32018554e-003 0. 0. 0. 4.64037107e-003 0. 0. 0. 0. 0. 0.
      2.32018554e-003 0. 0. 0. 2.32018554e-003 0. 2.32018554e-003
      2.32018554e-003 0. 0. 0. 0. 2.32018554e-003 0. 0. 0.
      9.28074215e-003 2.32018554e-003 2.32018554e-003 4.64037107e-003
      2.32018554e-003 0. 0. 6.96055684e-003 2.32018554e-003 0. 0.
      2.32018554e-003 0. 0. 0. 4.64037107e-003 0. 0. 2.32018554e-003 0.
      0. 0. 0. 2.32018554e-003 0. 1.16009274e-002 6.96055684e-003 0.
      6.96055684e-003 0. 2.32018554e-003 2.32018554e-003 0.
      4.64037107e-003 0. 0. 0. 0. 0. 2.32018554e-003 0. 0. 0. 0. 0. 0.
      0. 2.32018554e-003 6.96055684e-003 0. 0. 0. 0. 2.32018554e-003
      6.96055684e-003 0. 0. 0. 4.64037107e-003 0. 0. 0. 0.
      2.32018554e-003 0. 0. 0. 0. 0. 0. 0. 0. 0. 0. 0. 0. 0.
      4.64037107e-003 0. 2.32018554e-003 4.64037107e-003 2.32018554e-003
      0. 0. 2.32018554e-003 0. 0. 0. 0. 0. 0. 0. 0. 0. 0. 0. 0. 0.
      2.32018554e-003 6.96055684e-003 0. 0. 0. 0. 0. 0. 0. 0. 0. 0. 0.
      0. 0. 4.64037107e-003 0. 2.32018554e-003 0. 0. 0. 0.
      6.96055684e-003 0. 0. 0. 0. 0. 0. 0. 0. 0. 0. 0. 0. 0. 0.
      2.32018554e-003 2.32018554e-003 0. 0. 0. 0. 2.32018554e-003 0.
      2.32018554e-003 0. 0. 0. 0. 0. 0. 0. 0. 2.32018554e-003 0.
      2.32018554e-003 0. 0. 0. 0. 0. 0. 0. 0. 2.32018554e-003
      6.96055684e-003 4.64037107e-003 2.32018554e-003 0. 0.
      2.32018554e-003 0. 2.32018554e-003 0. 2.32018554e-003 0. 0. 0. 0.
      0. 0. 0. 0. 0. 0. 2.32018554e-003 0. 0. 0. 0. 0. 0. 0. 0. 0. 0.
      4.64037107e-003 0. 2.32018554e-003 0. 0. 0. 0. 0. 0. 0. 0. 0. 0.
      0. 0. 0. 2.32018554e-003 0. 0. 0. 0. 0. 0. 0. 0. 0.
      2.32018554e-003 0. 2.32018554e-003 4.64037107e-003 0. 0.
      2.32018554e-003 0. 0. 0. 2.32018554e-003 0. 0. 0. 0. 0. 0. 0. 0.
      0. 2.32018554e-003 0. 0. 0. 9.28074215e-003 0. 0. 0. 0. 0. 0.
      2.32018554e-003 2.32018554e-003 6.96055684e-003 4.64037107e-003 0.
      0. 0. 0. 2.32018554e-003 0. 0. 4.64037107e-003 0. 0. 0. 0. 0. 0.
      0. 0. 0. 0. 2.32018554e-003 0. 0. 0. 0. 0. 2.32018554e-003 0.
      4.64037107e-003 0. 0. 0. 0. 4.64037107e-003 2.32018554e-003 0. 0.
      0. 2.32018554e-003 0. 0. 0. 0. 2.32018554e-003 2.32018554e-003 0.
      2.32018554e-003 0. 6.96055684e-003 0. 0. 0. 0. 0. 0. 0. 0.
      4.64037107e-003 0. 0. 0. 0. 0. 0. 0. 2.32018554e-003 0.
      4.64037107e-003 0. 0. 0. 0. 0. 0. 0. 0. 0. 2.32018554e-003 0. 0.
      2.32018554e-003 0. 0. 0. 2.32018554e-003 0. 0. 0. 0. 0.
      2.32018554e-003 0. 0. 0. 0. 9.28074215e-003 0. 0. 0. 0. 0.
      2.32018554e-003 0. 4.64037107e-003 0. 0. 0. 0. 0. 0. 0. 0.
      2.32018554e-003 0. 0. 2.32018554e-003 0. 4.64037107e-003 0.
      2.32018554e-003 0. 2.32018554e-003 6.96055684e-003 2.32018554e-003
      0. 0. 0. 0. 0. 0. 0. 0. 0. 0. 0. 2.32018554e-003 4.64037107e-003
      0. 2.32018554e-003 9.28074215e-003 0. 6.96055684e-003
      2.32018554e-003 6.96055684e-003 0. 0. 0. 4.64037107e-003 0.
      4.64037107e-003 0. 0. 0. 0. 2.32018554e-003 0. 6.96055684e-003 0.
      2.32018554e-003 0. 0. 0. 0. 0. 0. 0. 2.32018554e-003
      2.32018554e-003 0. 6.96055684e-003 0. 0. 0. 0. 0. 0. 0. 0.
      9.28074215e-003 0. 0. 0. 0. 0. 0. 0. 6.96055684e-003 0. 0. 0.
      2.32018554e-003 0. 0. 0. 0. 0. 2.32018554e-003 0. 2.32018554e-003
      0. 0. 0. 0. 0. 0. 0. 0. 0. 0. 0. 0. 0. 0. 1.16009274e-002 0. 0.
      2.32018554e-003 0. 0. 4.64037107e-003 0. 0. 0. 0. 2.32018554e-003
      2.32018554e-003 0. 0. 6.96055684e-003 2.32018554e-003 0. 0. 0. 0.
      0. 4.64037107e-003 0. 0. 0. 0. 0. 0. 2.32018554e-003 0. 0. 0.
      2.32018554e-003 0. 0. 0. 0. 0. 6.96055684e-003 9.28074215e-003 0.
      2.32018554e-003 0. 0. 0. 4.64037107e-003 0. 2.32018554e-003
      2.32018554e-003 6.96055684e-003 0. 2.32018554e-003 0. 0. 0. 0. 0.
      0. 0. 0. 4.64037107e-003 0. 2.32018554e-003 0. 4.64037107e-003 0.
      0. 0. 0. 0. 0. 0. 0. 0. 2.32018554e-003 0. 0. 0. 0.
      2.32018554e-003 0. 0. 0. 0. 0. 0. 0. 0. 2.32018554e-003 0. 0. 0.
      0. 0. 0. 0. 0. 0. 0. 0. 2.32018554e-003 9.28074215e-003 0.
      4.64037107e-003 0. 0. 2.32018554e-003 0. 4.64037107e-003
      9.28074215e-003 2.32018554e-003 2.32018554e-003 0. 0. 0. 0. 0. 0.
      0. 0. 2.32018554e-003 0. 0. 0. 0. 0. 0. 2.32018554e-003 0. 0. 0.
      0. 0. 0. 0. 2.32018554e-003 2.32018549e-002</_>
    <_>
      0. 0. 1.37741049e-003 0. 4.13223170e-003 0. 0. 0. 0. 0.
      1.37741049e-003 0. 0. 0. 4.13223170e-003 0. 0. 2.75482098e-003
      2.75482098e-003 2.75482098e-003 1.37741049e-003 2.75482098e-003
      1.37741049e-003 0. 0. 0. 0. 0. 2.75482098e-003 1.37741049e-003
      5.50964195e-003 0. 1.37741049e-003 1.37741049e-003 1.37741049e-003
      0. 8.26446339e-003 0. 1.37741049e-003 0. 1.37741049e-003 0.
      2.75482098e-003 0. 2.75482098e-003 9.64187365e-003 0.
      1.37741049e-003 0. 1.37741049e-003 0. 2.75482098e-003 0. 0. 0.
      1.37741049e-003 1.37741049e-003 8.26446339e-003 0. 0. 0. 0. 0.
      5.50964195e-003 4.13223170e-003 4.13223170e-003 1.37741049e-003 0.
      0. 1.10192839e-002 1.37741049e-003 1.37741049e-003 1.37741049e-003
      1.37741049e-003 0. 2.75482098e-003 4.13223170e-003 1.37741049e-003
      0. 0. 2.75482098e-003 1.37741049e-003 1.37741049e-003 0.
      2.75482098e-003 0. 0. 0. 0. 0. 1.37741049e-003 0. 0. 0.
      1.37741049e-003 1.37741049e-003 0. 0. 0. 1.37741049e-003 0.
      4.13223170e-003 2.75482098e-003 1.37741049e-003 1.37741049e-003 0.
      1.37741049e-003 1.37741049e-003 2.75482098e-003 0. 0. 0. 0.
      4.13223170e-003 1.37741049e-003 0. 1.37741049e-003 0. 0. 0.
      9.64187365e-003 0. 5.50964195e-003 0. 0. 0. 1.37741049e-003 0.
      2.75482098e-003 0. 0. 1.37741049e-003 2.75482098e-003 0.
      6.88705221e-003 0. 2.75482098e-003 0. 0. 0. 5.50964195e-003 0. 0.
      0. 0. 0. 0. 0. 1.37741049e-003 0. 0. 1.37741049e-003
      4.13223170e-003 2.75482098e-003 0. 0. 0. 0. 0. 5.50964195e-003
      2.75482098e-003 2.75482098e-003 0. 0. 2.75482098e-003 0. 0.
      1.37741049e-003 0. 0. 0. 0. 0. 0. 0. 4.13223170e-003 0.
      4.13223170e-003 0. 1.37741049e-003 8.26446339e-003 0. 0.
      1.37741049e-003 5.50964195e-003 1.37741049e-003 0. 1.37741049e-003
      0. 4.13223170e-003 0. 0. 0. 0. 2.75482098e-003 0. 4.13223170e-003
      0. 1.37741049e-003 0. 0. 0. 6.88705221e-003 0. 0. 0. 0. 0.
      2.75482098e-003 0. 5.50964195e-003 0. 1.37741049e-003 0. 0. 0. 0.
      2.75482098e-003 4.13223170e-003 0. 0. 0. 0. 0. 5.50964195e-003 0.
      0. 0. 0. 0. 0. 0. 4.13223170e-003 4.13223170e-003 6.88705221e-003
      0. 0. 1.37741049e-003 0. 0. 0. 0. 0. 0. 2.75482098e-003 0. 0. 0.
      1.37741049e-003 0. 0. 1.37741049e-003 0. 0. 9.64187365e-003 0. 0.
      0. 1.37741049e-003 0. 0. 0. 0. 1.10192839e-002 0. 0.
      1.37741049e-003 0. 1.37741049e-003 1.37741049e-003 2.75482098e-003
      4.13223170e-003 1.37741049e-003 2.75482098e-003 1.37741049e-003 0.
      0. 0. 1.37741049e-003 1.37741049e-003 0. 4.13223170e-003 0. 0.
      4.13223170e-003 0. 0. 0. 0. 2.75482098e-003 0. 0. 0.
      2.75482098e-003 0. 4.13223170e-003 0. 0. 0. 0. 0. 2.75482098e-003
      1.37741049e-003 0. 1.37741049e-003 0. 0. 2.75482098e-003 0.
      1.37741049e-003 2.75482098e-003 0. 0. 2.75482098e-003
      1.37741049e-003 0. 0. 0. 0. 0. 0. 0. 2.75482098e-003 0.
      1.37741049e-003 0. 0. 1.37741049e-003 0. 2.75482098e-003 0. 0.
      1.37741049e-003 0. 0. 1.37741049e-003 1.37741049e-003
      4.13223170e-003 2.75482098e-003 0. 0. 0. 1.37741049e-003 0.
      4.13223170e-003 2.75482098e-003 4.13223170e-003 1.37741049e-003
      1.37741049e-003 1.37741049e-003 1.37741049e-003 0. 0. 0. 0.
      4.13223170e-003 1.37741049e-003 1.37741049e-003 5.50964195e-003 0.
      2.75482098e-003 0. 2.75482098e-003 0. 0. 0. 1.37741049e-003 0.
      1.37741049e-003 0. 0. 0. 4.13223170e-003 0. 0. 0. 0. 0. 0.
      4.13223170e-003 0. 0. 0. 1.37741049e-003 1.37741049e-003 0. 0. 0.
      0. 0. 1.37741049e-003 1.37741049e-003 0. 1.37741049e-003 0.
      4.13223170e-003 1.37741049e-003 5.50964195e-003 1.37741049e-003
      4.13223170e-003 0. 0. 6.88705221e-003 0. 1.37741049e-003 0.
      4.13223170e-003 0. 0. 0. 2.75482098e-003 1.37741049e-003 0. 0. 0.
      1.37741049e-003 0. 0. 1.37741049e-003 0. 4.13223170e-003
      1.37741049e-003 0. 1.37741049e-003 0. 2.75482098e-003
      1.37741049e-003 2.75482098e-003 2.75482098e-003 0. 0.
      2.75482098e-003 0. 0. 1.37741049e-003 0. 0. 1.37741049e-003 0. 0.
      0. 0. 0. 2.75482098e-003 2.75482098e-003 0. 0. 0. 1.37741049e-003
      2.75482098e-003 1.37741049e-003 1.37741049e-003 0. 0. 0.
      2.75482098e-003 0. 4.13223170e-003 1.37741049e-003 0. 0.
      1.37741049e-003 1.37741049e-003 0. 0. 0. 0. 0. 0. 1.37741049e-003
      0. 1.37741049e-003 5.50964195e-003 1.37741049e-003 1.37741049e-003
      5.50964195e-003 1.37741049e-003 0. 0. 1.37741049e-003 0.
      1.37741049e-003 1.37741049e-003 0. 0. 0. 0. 1.37741049e-003 0. 0.
      0. 0. 0. 1.37741049e-003 4.13223170e-003 0. 0. 0. 0. 0. 0. 0. 0.
      0. 0. 0. 1.37741049e-003 0. 1.37741049e-003 2.75482098e-003
      1.37741049e-003 0. 0. 0. 0. 1.37741049e-003 0. 0. 0.
      1.37741049e-003 0. 0. 0. 0. 0. 0. 0. 1.37741049e-003
      1.37741049e-003 0. 6.88705221e-003 2.75482098e-003 0. 0.
      1.37741049e-003 0. 1.37741049e-003 0. 0. 1.37741049e-003 0. 0. 0.
      0. 0. 1.37741049e-003 0. 1.37741049e-003 1.37741049e-003 0. 0. 0.
      1.37741049e-003 1.37741049e-003 4.13223170e-003 0. 0. 0. 0.
      5.50964195e-003 1.37741049e-003 2.75482098e-003 0. 0.
      6.88705221e-003 0. 1.37741049e-003 0. 1.37741049e-003 0.
      1.37741049e-003 0. 0. 0. 1.37741049e-003 0. 0. 2.75482098e-003
      2.75482098e-003 2.75482098e-003 0. 0. 0. 0. 1.37741049e-003 0. 0.
      0. 0. 1.37741049e-003 5.50964195e-003 0. 0. 0. 0. 1.37741049e-003
      0. 0. 1.37741049e-003 0. 0. 0. 0. 0. 0. 0. 1.37741049e-003
      1.37741049e-003 1.37741049e-003 0. 0. 2.75482098e-003
      1.37741049e-003 0. 0. 0. 0. 0. 0. 2.75482098e-003 0. 0. 0. 0. 0.
      0. 0. 0. 0. 0. 0. 0. 0. 0. 0. 0. 1.37741049e-003 1.37741049e-003
      0. 0. 2.75482098e-003 1.37741049e-003 0. 0. 0. 0. 0. 0. 0. 0.
      4.13223170e-003 0. 0. 0. 1.37741049e-003 0. 0. 0. 1.37741049e-003
      0. 0. 0. 0. 0. 0. 0. 0. 0. 1.37741049e-003 1.37741049e-003 0.
      1.37741049e-003 0. 0. 0. 0. 0. 2.75482098e-003 0. 2.75482098e-003
      0. 0. 5.50964195e-003 2.75482098e-003 1.37741049e-003 0. 0.
      5.50964195e-003 0. 0. 1.37741049e-003 0. 4.13223170e-003 0. 0. 0.
      0. 0. 0. 0. 1.37741049e-003 1.37741049e-003 0. 0. 0.
      5.50964195e-003 1.37741049e-003 0. 0. 1.37741049e-003 0. 0.
      2.75482098e-003 1.37741049e-003 1.37741049e-003 0. 2.75482098e-003
      0. 0. 0. 0. 1.37741049e-003 0. 0. 1.37741049e-003 1.37741049e-003
      2.75482098e-003 6.88705221e-003 0. 1.37741049e-003 0. 0. 0.
      4.13223170e-003 0. 0. 0. 1.37741049e-003 0. 1.37741049e-003 0. 0.
      0. 0. 1.23966942e-002 0. 0. 1.37741049e-003 2.75482098e-003 0.
      1.37741049e-003 0. 1.37741049e-003 1.37741049e-003 0. 0. 0. 0.
      1.37741049e-003 0. 4.13223170e-003 1.37741049e-003 0. 0. 0. 0. 0.
      0. 1.37741049e-003 0. 0. 2.75482098e-003 2.75482098e-003 0. 0. 0.
      0. 0. 0. 0. 0. 0. 0. 0. 1.37741049e-003 0. 1.37741049e-003
      1.37741049e-003 0. 0. 5.50964195e-003 1.37741049e-003
      4.13223170e-003 0. 0. 0. 0. 0. 4.13223170e-003 0. 0. 0. 0.
      1.37741049e-003 0. 0. 0. 4.13223170e-003 2.75482098e-003 0. 0. 0.
      2.75482098e-003 0. 0. 1.37741049e-003 0. 0. 6.88705221e-003 0.
      1.37741049e-003 0. 0. 1.37741049e-003 0. 0. 0. 4.13223170e-003
      2.75482098e-003 0. 0. 0. 0. 1.37741049e-003 0. 6.88705221e-003 0.
      0. 0. 0. 0. 0. 0. 0. 0. 1.37741049e-003 1.37741049e-003
      1.37741049e-003 0. 0. 1.37741049e-003 1.37741049e-003
      1.37741049e-003 0. 0. 0. 0. 0. 0. 0. 0. 1.37741049e-003
      2.75482098e-003 0. 0. 1.37741049e-003 0. 0. 0. 0. 1.37741049e-003
      0. 0. 1.37741049e-003 0. 0. 0. 4.13223170e-003 2.75482098e-003 0.
      0. 2.75482098e-003 1.37741049e-003 0. 2.75482098e-003
      1.37741049e-003 0. 1.37741049e-003 0. 0. 0. 1.37741049e-003 0.
      2.75482098e-003 0. 0. 0. 0. 0. 0. 2.75482098e-003 0.
      6.88705221e-003 1.37741049e-003 1.37741049e-003 0. 0. 0.
      4.13223170e-003 0. 1.37741049e-003 1.37741049e-003 1.37741049e-003
      5.50964195e-003 2.75482098e-003 0. 0. 0. 0. 0. 2.75482098e-003 0.
      0. 5.50964195e-003 0. 0. 0. 2.75482098e-003 0. 2.75482098e-003
      5.50964195e-003 0. 0. 0. 0. 0. 1.37741049e-003 0. 0. 0.
      1.37741049e-003 0. 0. 1.37741049e-003 1.37741049e-003 0.
      1.37741049e-003 0. 0. 2.75482098e-003 0. 1.37741049e-003
      1.37741049e-003 0. 0. 0. 0. 0. 0. 1.37741049e-003 0. 0. 0.
      1.37741049e-003 1.10192839e-002 0. 5.50964195e-003 0. 0.
      1.37741049e-003 0. 2.75482098e-003 9.64187365e-003 1.37741049e-003
      2.75482098e-003 4.13223170e-003 0. 0. 0. 0. 1.37741049e-003
      1.37741049e-003 0. 0. 1.37741049e-003 0. 1.37741049e-003 0. 0. 0.
      2.75482098e-003 0. 1.37741049e-003 0. 0. 0. 0. 0. 1.37741049e-003
      1.37741044e-002</_>
    <_>
      0. 0. 5.30503970e-003 0. 7.95755908e-003 0. 0. 0. 2.65251985e-003
      2.65251985e-003 0. 2.65251985e-003 5.30503970e-003 0.
      2.65251985e-003 0. 0. 1.06100794e-002 1.32625997e-002
      2.65251985e-003 0. 0. 0. 5.30503970e-003 5.30503970e-003 0. 0. 0.
      0. 0. 0. 5.30503970e-003 1.06100794e-002 0. 5.30503970e-003 0.
      2.65251985e-003 0. 0. 0. 0. 5.30503970e-003 0. 0. 0.
      5.30503970e-003 0. 0. 2.65251985e-003 0. 0. 2.65251985e-003 0. 0.
      0. 2.65251985e-003 0. 0. 2.65251985e-003 0. 0. 0. 0. 0. 0. 0. 0.
      2.65251985e-003 2.65251985e-003 1.06100794e-002 2.65251985e-003 0.
      0. 5.30503970e-003 2.65251985e-003 0. 2.65251985e-003 0.
      7.95755908e-003 2.65251985e-003 0. 0. 0. 0. 0. 2.65251985e-003 0.
      0. 1.32625997e-002 0. 0. 0. 0. 0. 0. 0. 0. 0. 0. 0. 0.
      2.65251985e-003 0. 2.65251985e-003 2.65251985e-003 0.
      5.30503970e-003 0. 0. 0. 2.65251985e-003 0. 0. 0. 2.65251985e-003
      0. 5.30503970e-003 0. 0. 0. 0. 2.65251985e-003 0. 0.
      2.65251985e-003 0. 0. 2.65251985e-003 0. 0. 0. 0. 2.65251985e-003
      0. 0. 0. 0. 0. 0. 0. 0. 0. 0. 0. 0. 0. 0. 0. 2.65251985e-003 0. 0.
      0. 0. 2.65251985e-003 2.65251985e-003 2.65251985e-003 0. 0. 0. 0.
      0. 2.65251985e-003 0. 0. 2.65251985e-003 0. 0. 5.30503970e-003 0.
      0. 0. 0. 7.95755908e-003 0. 2.65251985e-003 5.30503970e-003 0. 0.
      2.65251985e-003 0. 5.30503970e-003 0. 2.65251985e-003 0.
      2.65251985e-003 0. 0. 0. 0. 2.65251985e-003 0. 0. 0. 0. 0. 0.
      2.65251985e-003 0. 0. 0. 2.65251985e-003 0. 2.65251985e-003 0. 0.
      0. 0. 0. 0. 0. 7.95755908e-003 0. 0. 2.65251985e-003 0. 0. 0. 0.
      0. 0. 0. 0. 0. 0. 2.65251985e-003 2.65251985e-003 0.
      2.65251985e-003 0. 0. 0. 5.30503970e-003 0. 0. 5.30503970e-003 0.
      0. 0. 0. 0. 0. 0. 0. 2.65251985e-003 0. 0. 0. 2.65251985e-003 0.
      0. 2.65251985e-003 0. 0. 0. 7.95755908e-003 0. 0. 2.65251985e-003
      0. 0. 2.65251985e-003 0. 0. 0. 0. 2.65251985e-003 0. 0. 0. 0. 0.
      0. 2.65251985e-003 0. 2.65251985e-003 0. 0. 0. 0. 2.65251985e-003
      0. 0. 0. 2.65251985e-003 0. 5.30503970e-003 0. 0. 0. 0. 0. 0. 0.
      2.65251985e-003 0. 2.65251985e-003 0. 0. 0. 5.30503970e-003
      7.95755908e-003 0. 0. 0. 2.65251985e-003 7.95755908e-003 0. 0. 0.
      0. 2.65251985e-003 0. 0. 0. 0. 0. 0. 2.65251985e-003 0. 0.
      2.65251985e-003 2.65251985e-003 0. 0. 5.30503970e-003
      5.30503970e-003 0. 0. 0. 0. 2.65251985e-003 0. 0. 0. 0. 0.
      7.95755908e-003 5.30503970e-003 5.30503970e-003 0. 0. 0. 0. 0.
      2.65251985e-003 0. 0. 0. 1.06100794e-002 0. 0. 0. 0. 0.
      2.65251985e-003 0. 1.32625997e-002 0. 0. 0. 0. 0. 0. 0. 0. 0. 0.
      0. 5.30503970e-003 7.95755908e-003 0. 0. 0. 2.65251985e-003 0. 0.
      0. 0. 0. 1.06100794e-002 0. 0. 2.65251985e-003 0. 0. 0. 0.
      2.65251985e-003 7.95755908e-003 0. 0. 0. 0. 7.95755908e-003 0.
      2.65251985e-003 0. 0. 2.65251985e-003 0. 2.65251985e-003 0. 0. 0.
      0. 0. 2.65251985e-003 0. 5.30503970e-003 0. 0. 0. 2.65251985e-003
      0. 0. 2.65251985e-003 0. 0. 0. 0. 5.30503970e-003 2.65251985e-003
      0. 0. 0. 0. 2.65251985e-003 2.65251985e-003 0. 0. 0.
      2.65251985e-003 0. 0. 7.95755908e-003 0. 0. 0. 0. 0. 0. 0.
      2.65251985e-003 0. 0. 0. 0. 0. 0. 0. 0. 2.65251985e-003 0. 0.
      5.30503970e-003 0. 0. 0. 0. 0. 2.65251985e-003 0. 0. 0. 0. 0. 0.
      0. 0. 0. 2.65251985e-003 0. 0. 0. 2.65251985e-003 2.65251985e-003
      2.65251985e-003 2.65251985e-003 0. 2.65251985e-003 0.
      2.65251985e-003 0. 0. 0. 0. 0. 2.65251985e-003 0. 2.65251985e-003
      0. 2.65251985e-003 2.65251985e-003 0. 2.65251985e-003 0. 0. 0. 0.
      0. 0. 0. 0. 0. 2.65251985e-003 0. 0. 0. 0. 0. 2.65251985e-003 0.
      0. 0. 0. 5.30503970e-003 2.65251985e-003 0. 2.65251985e-003
      5.30503970e-003 0. 0. 0. 0. 0. 2.65251985e-003 0. 0. 0. 0. 0. 0.
      0. 0. 0. 2.65251985e-003 0. 2.65251985e-003 0. 0. 0. 0. 0. 0. 0.
      0. 0. 0. 0. 0. 0. 0. 0. 0. 0. 0. 0. 2.65251985e-003 0.
      5.30503970e-003 0. 0. 0. 0. 0. 0. 0. 0. 0. 2.65251985e-003 0.
      2.65251985e-003 0. 0. 0. 0. 0. 0. 0. 0. 0. 0. 0. 0. 0. 0. 0. 0. 0.
      7.95755908e-003 2.65251985e-003 2.65251985e-003 0. 0. 0. 0. 0. 0.
      0. 0. 0. 0. 0. 0. 0. 0. 0. 0. 5.30503970e-003 0. 2.65251985e-003
      0. 0. 0. 0. 2.65251985e-003 0. 0. 0. 0. 0. 0. 0. 0. 0. 0.
      2.65251985e-003 0. 0. 0. 0. 0. 0. 0. 2.65251985e-003 0.
      2.65251985e-003 0. 0. 0. 0. 2.65251985e-003 0. 0. 0. 0.
      2.65251985e-003 0. 2.65251985e-003 0. 2.65251985e-003 0.
      5.30503970e-003 0. 0. 0. 0. 0. 5.30503970e-003 2.65251985e-003
      2.65251985e-003 0. 0. 2.91777179e-002 0. 2.65251985e-003 0. 0. 0.
      0. 0. 0. 0. 0. 0. 0. 0. 0. 2.65251985e-003 0. 0. 0. 0. 0.
      1.06100794e-002 2.65251985e-003 0. 0. 0. 0. 2.65251985e-003
      7.95755908e-003 2.65251985e-003 0. 0. 0. 0. 0. 0. 7.95755908e-003
      5.30503970e-003 0. 0. 0. 0. 0. 0. 0. 0. 0. 0. 0. 5.30503970e-003
      0. 0. 2.65251985e-003 0. 7.95755908e-003 0. 0. 0. 0.
      2.65251985e-003 2.65251985e-003 2.65251985e-003 2.65251985e-003
      5.30503970e-003 0. 7.95755908e-003 0. 2.65251985e-003 0. 0. 0. 0.
      0. 0. 5.30503970e-003 0. 0. 2.65251985e-003 0. 7.95755908e-003 0.
      0. 0. 0. 0. 2.65251985e-003 0. 0. 0. 0. 0. 0. 0. 0.
      2.65251985e-003 2.65251985e-003 0. 7.95755908e-003 0.
      2.65251985e-003 0. 0. 0. 0. 0. 2.65251985e-003 0. 0. 0. 0. 0.
      5.30503970e-003 2.65251985e-003 0. 0. 0. 0. 2.65251985e-003
      2.65251985e-003 0. 0. 0. 0. 0. 0. 7.95755908e-003 0.
      2.65251985e-003 0. 2.65251985e-003 0. 0. 0. 0. 0. 5.30503970e-003
      0. 0. 0. 0. 5.30503970e-003 0. 0. 2.65251985e-003 0. 0. 0. 0. 0.
      0. 0. 0. 0. 0. 0. 0. 0. 0. 2.65251985e-003 0. 2.65251985e-003 0.
      2.65251985e-003 0. 0. 2.65251985e-003 0. 0. 2.65251985e-003
      5.30503970e-003 0. 0. 0. 0. 0. 0. 0. 0. 0. 0. 0. 0. 0. 0. 0. 0. 0.
      0. 2.65251985e-003 0. 0. 0. 0. 0. 0. 0. 0. 0. 0. 0.
      5.30503970e-003 0. 0. 0. 0. 0. 0. 0. 0. 0. 1.32625997e-002
      5.30503970e-003 0. 0. 0. 0. 0. 0. 0. 2.65251985e-003
      2.65251985e-003 0. 0. 0. 0. 0. 0. 0. 2.65251985e-003 0.
      5.30503970e-003 0. 0. 0. 2.65251985e-003 2.65251985e-003
      2.65251985e-003 0. 0. 7.95755908e-003 0. 2.65251985e-003 0. 0. 0.
      2.65251985e-003 0. 0. 5.30503970e-003 0. 0. 0. 0. 0. 0. 0. 0. 0.
      0. 5.30503970e-003 2.65251985e-003 0. 0. 2.65251985e-003 0. 0. 0.
      2.65251985e-003 0. 0. 0. 0. 0. 0. 0. 0. 0. 0. 0. 0. 0. 0.
      2.65251985e-003 0. 2.65251985e-003 0. 0. 2.65251985e-003 0. 0. 0.
      0. 0. 0. 0. 0. 0. 0. 0. 2.65251985e-003 5.30503970e-003
      2.65251985e-003 0. 2.65251985e-003 0. 0. 0. 0. 0. 0. 0. 0.
      2.65251985e-003 0. 0. 0. 0. 2.65251985e-003 0. 0. 0. 0.
      7.95755908e-003 0. 0. 0. 2.65251985e-003 0. 0. 0. 0. 0. 0. 0. 0.
      0. 0.</_>
    <_>
      0. 0. 0. 0. 0. 6.68896316e-003 0. 0. 0. 6.68896316e-003 0. 0.
      3.34448158e-003 0. 0. 0. 3.34448158e-003 0. 1.00334445e-002 0. 0.
      0. 0. 0. 0. 0. 0. 0. 0. 0. 0. 0. 3.34448158e-003 3.34448158e-003
      3.34448158e-003 0. 0. 0. 0. 0. 0. 0. 0. 0. 0. 0. 0. 0.
      3.34448158e-003 0. 0. 0. 0. 3.34448158e-003 0. 3.34448158e-003 0.
      3.34448158e-003 3.34448158e-003 0. 0. 0. 0. 0. 0. 0. 0. 0. 0.
      3.34448158e-003 3.34448158e-003 0. 3.34448158e-003 0. 0.
      3.34448158e-003 0. 0. 3.34448158e-003 0. 6.68896316e-003
      1.00334445e-002 0. 0. 0. 6.68896316e-003 0. 0. 2.67558526e-002 0.
      0. 0. 0. 3.34448158e-003 0. 3.34448158e-003 0. 3.34448158e-003 0.
      0. 3.34448158e-003 0. 0. 0. 0. 0. 0. 6.68896316e-003 0. 0. 0. 0.
      0. 0. 0. 0. 3.34448158e-003 1.00334445e-002 0. 3.34448158e-003 0.
      0. 0. 0. 3.34448158e-003 0. 0. 0. 0. 0. 0. 0. 3.34448158e-003 0.
      0. 0. 3.34448158e-003 0. 0. 3.34448158e-003 3.34448158e-003 0. 0.
      0. 0. 0. 3.34448158e-003 0. 3.34448158e-003 0. 0. 0. 0. 0.
      1.00334445e-002 1.33779263e-002 0. 0. 0. 0. 0. 0. 3.34448158e-003
      0. 0. 0. 0. 3.34448158e-003 0. 0. 0. 0. 1.00334445e-002 0. 0. 0.
      0. 0. 0. 3.34448158e-003 0. 0. 3.34448158e-003 0. 3.34448158e-003
      0. 0. 0. 6.68896316e-003 0. 0. 0. 3.34448158e-003 0. 0. 0. 0. 0.
      0. 0. 0. 0. 0. 0. 0. 3.34448158e-003 0. 0. 0. 0. 1.00334445e-002
      0. 1.33779263e-002 0. 0. 0. 3.34448158e-003 0. 0. 0. 0. 0.
      3.34448158e-003 0. 3.34448158e-003 3.34448158e-003 0. 0. 0.
      3.34448158e-003 0. 3.34448158e-003 3.34448158e-003 0. 0. 0. 0. 0.
      0. 0. 0. 0. 0. 0. 0. 0. 0. 0. 0. 0. 3.34448158e-003 0.
      3.34448158e-003 3.34448158e-003 3.34448158e-003 0. 0. 0. 0. 0. 0.
      3.34448158e-003 0. 0. 0. 3.34448158e-003 0. 0. 3.34448158e-003 0.
      0. 6.68896316e-003 0. 0. 3.34448158e-003 0. 0. 0. 0. 0. 0.
      3.34448158e-003 0. 0. 3.34448158e-003 3.34448158e-003 0. 0. 0. 0.
      0. 0. 0. 0. 0. 3.34448158e-003 0. 0. 0. 0. 3.34448158e-003
      3.34448158e-003 0. 0. 0. 0. 0. 0. 1.67224072e-002 3.34448158e-003
      3.34448158e-003 0. 0. 0. 0. 3.34448158e-003 0. 0. 0. 0. 0. 0. 0.
      3.34448158e-003 1.00334445e-002 3.34448158e-003 0. 0. 0. 0. 0. 0.
      0. 0. 3.34448158e-003 0. 3.34448158e-003 3.34448158e-003 0. 0. 0.
      0. 0. 0. 0. 0. 0. 0. 6.68896316e-003 0. 6.68896316e-003 0. 0.
      3.34448158e-003 0. 0. 3.34448158e-003 0. 0. 0. 0. 0. 0.
      3.34448158e-003 0. 0. 0. 3.34448158e-003 0. 3.34448158e-003 0. 0.
      0. 0. 0. 0. 0. 0. 0. 0. 0. 0. 0. 0. 0. 3.34448158e-003 0. 0.
      3.34448158e-003 0. 0. 0. 0. 0. 0. 0. 0. 0. 0. 0. 0.
      3.34448158e-003 0. 0. 3.34448158e-003 0. 0. 0. 0. 0. 0. 0. 0. 0.
      0. 3.34448158e-003 0. 0. 0. 0. 3.34448158e-003 3.34448158e-003
      6.68896316e-003 0. 0. 0. 3.34448158e-003 0. 0. 0. 0. 0. 0. 0. 0.
      0. 0. 0. 0. 3.34448158e-003 0. 0. 6.68896316e-003 0. 0. 0. 0. 0.
      0. 3.34448158e-003 0. 0. 0. 0. 0. 6.68896316e-003 0. 0. 0.
      3.34448158e-003 3.34448158e-003 6.68896316e-003 0. 0. 0. 0. 0.
      3.34448158e-003 0. 3.34448158e-003 0. 6.68896316e-003 0. 0. 0.
      3.34448158e-003 0. 3.34448158e-003 0. 0. 0. 0. 0. 0. 0.
      3.34448158e-003 0. 0. 3.34448158e-003 0. 0. 0. 0. 3.34448158e-003
      0. 0. 0. 0. 0. 0. 0. 0. 0. 0. 0. 0. 0. 0. 3.34448158e-003
      3.34448158e-003 0. 6.68896316e-003 0. 0. 3.34448158e-003
      1.00334445e-002 1.67224072e-002 0. 1.33779263e-002 0. 0. 0. 0. 0.
      0. 0. 0. 0. 0. 0. 6.68896316e-003 0. 0. 0. 3.34448158e-003 0.
      3.34448158e-003 0. 0. 3.34448158e-003 0. 0. 0. 0. 0. 0. 0. 0.
      3.34448158e-003 0. 0. 0. 0. 3.34448158e-003 0. 0. 0. 0. 0. 0. 0.
      0. 0. 0. 0. 0. 0. 0. 0. 0. 0. 0. 0. 0. 0. 0. 3.34448158e-003 0. 0.
      0. 0. 0. 0. 0. 0. 0. 0. 0. 0. 1.00334445e-002 0. 0.
      3.34448158e-003 0. 3.34448158e-003 3.34448158e-003 0. 0. 0. 0. 0.
      0. 3.34448158e-003 0. 0. 0. 0. 0. 3.34448158e-003 0.
      6.68896316e-003 0. 0. 0. 0. 0. 0. 3.34448158e-003 0. 0. 0. 0. 0.
      0. 0. 3.34448158e-003 0. 0. 0. 0. 0. 6.68896316e-003 0.
      3.34448158e-003 0. 0. 3.34448158e-003 0. 0. 0. 3.34448158e-003
      6.68896316e-003 0. 0. 0. 0. 0. 0. 0. 0. 0. 0. 3.34448158e-003 0.
      3.34448158e-003 0. 0. 0. 3.34448158e-003 3.34448158e-003 0. 0.
      3.34448158e-003 2.00668890e-002 0. 0. 0. 0. 0. 0. 0.
      3.34448158e-003 0. 0. 0. 3.34448158e-003 0. 0. 0. 0. 0.
      3.34448158e-003 0. 0. 3.34448158e-003 1.00334445e-002 0. 0.
      3.34448158e-003 0. 0. 1.67224072e-002 0. 0. 0. 0. 0. 0. 0. 0. 0.
      0. 0. 0. 0. 6.68896316e-003 0. 0. 0. 0. 0. 0. 3.34448158e-003 0.
      0. 3.34448158e-003 1.00334445e-002 0. 0. 3.34448158e-003 0. 0. 0.
      0. 0. 0. 3.34448158e-003 0. 0. 0. 0. 0. 3.34448158e-003 0. 0. 0.
      0. 0. 0. 0. 0. 1.00334445e-002 0. 0. 0. 0. 0. 3.34448158e-003 0.
      0. 0. 0. 0. 0. 0. 3.34448158e-003 0. 0. 0. 0. 1.00334445e-002 0.
      0. 0. 0. 0. 0. 0. 3.34448158e-003 0. 3.34448158e-003
      3.34448158e-003 0. 0. 0. 0. 0. 3.34448158e-003 0. 0. 0.
      3.34448158e-003 3.34448158e-003 0. 3.34448158e-003 0. 0.
      3.34448158e-003 3.34448158e-003 0. 0. 0. 6.68896316e-003 0.
      3.34448158e-003 0. 0. 0. 0. 0. 0. 0. 1.00334445e-002 0. 0.
