<?xml version="1.0"?>
<opencv_storage>
<my_svm type_id="opencv-ml-svm">
  <svm_type>C_SVC</svm_type>
  <kernel><type>RBF</type>
    <gamma>5.0625000000000009e-001</gamma></kernel>
  <C>3.1250000000000000e+002</C>
  <term_criteria><epsilon>2.2204460492503131e-016</epsilon>
    <iterations>100</iterations></term_criteria>
  <var_all>1000</var_all>
  <var_count>1000</var_count>
  <class_count>2</class_count>
  <class_labels type_id="opencv-matrix">
    <rows>1</rows>
    <cols>2</cols>
    <dt>i</dt>
    <data>
      0 1</data></class_labels>
  <sv_total>26</sv_total>
  <support_vectors>
    <_>
      0. 0. 1.37741049e-003 0. 9.64187365e-003 0. 0. 0. 0.
      2.75482098e-003 1.37741049e-003 4.13223170e-003 1.37741049e-003 0.
      0. 1.37741049e-003 0. 2.75482098e-003 1.37741049e-003 0. 0.
      2.75482098e-003 4.13223170e-003 0. 4.13223170e-003 1.37741049e-003
      1.10192839e-002 0. 0. 1.37741049e-003 1.37741049e-003
      1.37741049e-003 1.37741049e-003 2.75482098e-003 1.37741049e-003
      1.37741049e-003 0. 0. 1.37741049e-003 0. 0. 1.37741049e-003
      1.37741049e-003 2.75482098e-003 1.37741049e-003 6.88705221e-003
      2.75482098e-003 0. 0. 1.37741049e-003 0. 1.37741049e-003 0.
      4.13223170e-003 1.37741049e-003 1.37741049e-003 1.37741049e-003
      2.75482098e-003 0. 4.13223170e-003 0. 0. 2.75482098e-003 0.
      1.37741049e-003 0. 2.75482098e-003 0. 1.37741049e-003
      1.37741049e-003 1.37741049e-003 1.37741049e-003 5.50964195e-003
      2.75482098e-003 0. 0. 1.37741049e-003 0. 4.13223170e-003 0.
      1.37741049e-003 0. 2.75482098e-003 0. 0. 1.37741049e-003 0. 0.
      1.37741049e-003 0. 0. 0. 0. 1.37741049e-003 8.26446339e-003
      1.37741049e-003 0. 0. 0. 0. 0. 2.75482098e-003 0. 0. 0. 0. 0.
      1.37741049e-003 1.37741049e-003 0. 1.37741049e-003 0. 0. 0.
      2.75482098e-003 1.37741049e-003 1.37741049e-003 2.75482098e-003
      5.50964195e-003 0. 4.13223170e-003 0. 0. 0. 4.13223170e-003 0.
      1.37741049e-003 0. 0. 0. 0. 0. 4.13223170e-003 1.37741049e-003 0.
      0. 1.37741049e-003 0. 0. 0. 1.37741049e-003 1.37741049e-003
      2.75482098e-003 0. 0. 1.37741049e-003 2.75482098e-003
      1.37741049e-003 0. 0. 0. 0. 0. 2.75482098e-003 0. 0.
      2.75482098e-003 0. 2.75482098e-003 0. 1.37741049e-003 0. 0.
      2.75482098e-003 2.75482098e-003 1.37741049e-003 0. 1.37741049e-003
      0. 0. 0. 0. 2.75482098e-003 0. 0. 0. 1.37741049e-003 0.
      2.75482098e-003 1.37741049e-003 1.37741049e-003 0. 0.
      1.37741049e-003 0. 1.37741049e-003 0. 0. 1.37741049e-003 0. 0.
      1.37741049e-003 1.37741049e-003 4.13223170e-003 0. 0.
      2.75482098e-003 0. 1.37741049e-003 0. 0. 1.37741049e-003 0. 0.
      2.75482098e-003 2.75482098e-003 0. 0. 0. 0. 1.37741049e-003 0.
      1.37741049e-003 1.37741049e-003 0. 0. 0. 0. 1.37741049e-003 0.
      4.13223170e-003 0. 0. 0. 1.37741049e-003 0. 0. 1.37741049e-003 0.
      0. 2.75482098e-003 4.13223170e-003 1.37741049e-003 1.37741049e-003
      0. 0. 0. 0. 0. 0. 0. 0. 1.37741049e-003 1.37741049e-003 0.
      1.37741049e-003 1.37741049e-003 1.37741049e-003 4.13223170e-003
      1.37741049e-003 0. 6.88705221e-003 0. 0. 1.37741049e-003 0. 0.
      2.75482098e-003 1.37741049e-003 0. 2.75482098e-003 2.75482098e-003
      1.37741049e-003 0. 0. 1.37741049e-003 0. 1.37741049e-003 0. 0.
      1.37741049e-003 2.75482098e-003 1.37741049e-003 1.37741049e-003 0.
      0. 0. 0. 0. 0. 0. 1.37741049e-003 0. 0. 2.75482098e-003 0. 0. 0.
      0. 4.13223170e-003 1.37741049e-003 6.88705221e-003 0.
      5.50964195e-003 0. 1.23966942e-002 0. 0. 0. 6.88705221e-003 0.
      1.37741049e-003 0. 0. 0. 0. 0. 2.75482098e-003 0. 0. 0.
      2.75482098e-003 0. 0. 1.37741049e-003 1.37741049e-003 0. 0. 0. 0.
      2.75482098e-003 0. 0. 0. 1.37741049e-003 4.13223170e-003 0. 0. 0.
      1.37741049e-003 0. 0. 0. 0. 2.75482098e-003 0. 6.88705221e-003
      4.13223170e-003 2.75482098e-003 1.37741049e-003 0. 0.
      1.37741049e-003 0. 0. 1.37741049e-003 0. 5.50964195e-003
      4.13223170e-003 1.37741049e-003 0. 0. 0. 2.75482098e-003 0.
      5.50964195e-003 2.75482098e-003 0. 0. 0. 0. 0. 5.50964195e-003
      1.37741049e-003 0. 0. 1.37741049e-003 0. 0. 1.37741049e-003 0.
      4.13223170e-003 0. 1.37741049e-003 0. 0. 0. 1.37741049e-003
      2.75482098e-003 1.37741049e-003 0. 0. 1.37741049e-003 0.
      9.64187365e-003 1.37741049e-003 0. 4.13223170e-003 0. 0.
      1.37741049e-003 0. 0. 2.34159790e-002 0. 0. 1.37741049e-003 0.
      2.75482098e-003 4.13223170e-003 0. 1.37741049e-003 0.
      1.37741049e-003 1.37741049e-003 0. 0. 0. 1.37741049e-003 0. 0.
      6.88705221e-003 2.75482098e-003 0. 2.75482098e-003 0. 0.
      2.75482098e-003 0. 0. 1.37741049e-003 0. 2.75482098e-003 0. 0. 0.
      1.37741049e-003 2.75482098e-003 0. 1.37741049e-003 0.
      1.37741049e-003 0. 0. 2.75482098e-003 0. 4.13223170e-003 0. 0. 0.
      2.75482098e-003 0. 1.37741049e-003 1.37741049e-003 0. 0. 0. 0.
      2.75482098e-003 2.75482098e-003 0. 0. 0. 0. 2.75482098e-003 0.
      1.37741049e-003 2.75482098e-003 4.13223170e-003 0. 0.
      2.75482098e-003 0. 0. 1.37741049e-003 0. 0. 1.37741049e-003 0.
      4.13223170e-003 0. 0. 0. 1.37741049e-003 1.37741049e-003
      2.75482098e-003 0. 0. 0. 0. 1.37741049e-003 0. 0. 1.37741049e-003
      0. 0. 0. 1.37741049e-003 2.75482098e-003 0. 0. 1.37741049e-003
      5.50964195e-003 1.37741049e-003 1.37741049e-003 2.75482098e-003 0.
      0. 2.75482098e-003 0. 0. 0. 0. 0. 2.75482098e-003 0.
      2.75482098e-003 1.37741049e-003 5.50964195e-003 4.13223170e-003
      2.75482098e-003 2.75482098e-003 2.75482098e-003 0. 2.75482098e-003
      4.13223170e-003 0. 1.37741049e-003 1.37741049e-003 0. 0. 0.
      2.75482098e-003 0. 2.75482098e-003 0. 1.37741049e-003 0.
      8.26446339e-003 0. 1.37741049e-003 0. 0. 0. 2.75482098e-003 0. 0.
      0. 2.75482098e-003 2.75482098e-003 1.37741049e-003 2.75482098e-003
      0. 0. 0. 0. 0. 0. 2.75482098e-003 0. 1.37741049e-003 0. 0.
      1.37741049e-003 1.37741049e-003 0. 1.37741049e-003 0. 0. 0. 0. 0.
      1.37741049e-003 0. 1.37741049e-003 0. 1.37741049e-003 0. 0.
      4.13223170e-003 0. 2.75482098e-003 0. 0. 0. 1.37741049e-003 0. 0.
      0. 0. 0. 0. 0. 0. 1.37741049e-003 0. 0. 1.37741049e-003
      2.75482098e-003 4.13223170e-003 0. 1.37741049e-003 2.75482098e-003
      0. 0. 2.75482098e-003 0. 1.37741049e-003 0. 2.75482098e-003
      1.37741049e-003 2.75482098e-003 0. 0. 0. 0. 1.37741049e-003 0.
      2.75482098e-003 0. 0. 1.37741049e-003 0. 0. 0. 0. 0. 0. 0. 0. 0.
      0. 0. 1.37741049e-003 0. 0. 0. 0. 0. 1.37741049e-003 0.
      1.37741049e-003 0. 0. 1.37741049e-003 0. 0. 2.75482098e-003 0. 0.
      0. 0. 0. 0. 0. 0. 4.13223170e-003 1.10192839e-002 4.13223170e-003
      2.75482098e-003 0. 0. 2.75482098e-003 0. 1.37741049e-003 0. 0. 0.
      1.37741049e-003 1.37741049e-003 0. 1.37741049e-003 4.13223170e-003
      1.37741049e-003 0. 1.37741049e-003 0. 0. 0. 5.50964195e-003
      1.37741049e-003 1.37741049e-003 0. 0. 2.75482098e-003
      1.37741049e-003 0. 1.37741049e-003 0. 0. 1.37741049e-003 0. 0.
      2.75482098e-003 2.75482098e-003 2.75482098e-003 1.37741049e-003
      4.13223170e-003 0. 0. 0. 0. 0. 0. 0. 1.37741049e-003
      1.37741049e-003 0. 0. 2.75482098e-003 0. 2.75482098e-003 0. 0. 0.
      1.37741049e-003 0. 0. 0. 0. 0. 0. 2.75482098e-003 0. 0. 0. 0.
      4.13223170e-003 0. 0. 0. 0. 2.75482098e-003 1.37741049e-003 0.
      1.37741049e-003 0. 1.37741049e-003 1.37741049e-003 0.
      1.37741049e-003 0. 2.75482098e-003 1.37741049e-003 0. 0.
      1.37741049e-003 0. 4.13223170e-003 2.75482098e-003 1.37741049e-003
      0. 0. 1.37741049e-003 0. 0. 0. 0. 0. 0. 1.37741049e-003 0. 0. 0.
      1.37741049e-003 4.13223170e-003 0. 1.37741049e-003 1.37741049e-003
      0. 1.37741049e-003 0. 4.13223170e-003 0. 0. 1.37741049e-003 0. 0.
      0. 0. 0. 2.75482098e-003 0. 0. 4.13223170e-003 0. 0. 0. 0. 0. 0.
      1.37741049e-003 0. 0. 1.37741049e-003 0. 0. 0. 2.75482098e-003 0.
      1.10192839e-002 1.37741049e-003 2.75482098e-003 0. 1.37741049e-003
      0. 1.37741049e-003 0. 1.37741049e-003 0. 0. 0. 0. 1.37741049e-003
      0. 1.37741049e-003 0. 0. 0. 0. 0. 0. 0. 1.37741049e-003 0.
      1.37741049e-003 0. 0. 0. 0. 0. 0. 0. 2.75482098e-003
      2.75482098e-003 1.37741049e-003 0. 0. 0. 2.75482098e-003 0. 0. 0.
      0. 0. 0. 0. 0. 0. 0. 1.37741049e-003 4.13223170e-003 0. 0. 0.
      2.75482098e-003 1.37741049e-003 1.37741049e-003 0. 0. 0.
      2.75482098e-003 0. 0. 1.37741049e-003 0. 0. 0. 0. 0. 0. 0.
      1.37741049e-003 0. 1.37741049e-003 4.13223170e-003 0.
      1.37741049e-003 0. 1.37741049e-003 0. 0. 0. 1.37741049e-003
      1.37741049e-003 2.75482098e-003 0. 0. 0. 0. 0. 0. 0.
      2.75482098e-003 0. 2.75482098e-003 0. 0. 0. 2.75482098e-003 0. 0.
      1.37741049e-003 1.23966942e-002 0. 0. 1.37741049e-003
      1.37741049e-003 1.37741049e-003 0. 0. 0. 1.37741049e-003
      1.37741049e-003 1.37741049e-003 0. 1.37741049e-003 0.
      6.88705221e-003 0. 1.37741049e-003 4.13223170e-003 0.
      2.75482098e-003 1.37741049e-003 2.75482098e-003 0. 0. 0.
      4.13223170e-003 0. 0. 0. 1.37741049e-003 0. 0. 0. 1.37741049e-003
      8.26446339e-003 0. 1.37741049e-003 0. 1.37741049e-003 0. 0. 0. 0.
      0. 0. 0. 0. 1.37741049e-003 4.13223170e-003 0. 1.37741049e-003
      1.37741049e-003 0. 0. 1.37741049e-003 0. 0. 0. 1.37741049e-003 0.
      1.37741049e-003 0. 4.13223170e-003 0. 0. 0. 0. 1.37741049e-003 0.
      1.37741049e-003 0. 0. 0. 0. 0. 0. 0. 0. 0. 2.75482098e-003 0.
      2.75482098e-003 0. 0. 0. 0. 0. 1.37741049e-003 1.37741049e-003
      1.37741049e-003 0. 1.37741049e-003 0. 1.37741049e-003 0. 0. 0. 0.
      2.75482098e-003 0. 0. 0. 0. 0. 0. 0.</_>
    <_>
      1.32625992e-003 0. 0. 0. 7.95755908e-003 0. 0. 0. 0.
      1.32625992e-003 0. 3.97877954e-003 3.97877954e-003 0. 0.
      2.65251985e-003 0. 5.30503970e-003 1.32625992e-003 1.32625992e-003
      0. 2.65251985e-003 1.32625992e-003 1.32625992e-003 1.32625992e-003
      0. 2.12201588e-002 0. 0. 1.32625992e-003 1.06100794e-002
      1.32625992e-003 6.63129985e-003 1.32625992e-003 1.32625992e-003 0.
      0. 0. 0. 0. 0. 1.32625992e-003 1.32625992e-003 1.32625992e-003 0.
      5.30503970e-003 5.30503970e-003 0. 1.32625992e-003 0. 0.
      1.32625992e-003 0. 5.30503970e-003 1.32625992e-003 2.65251985e-003
      0. 0. 3.97877954e-003 5.30503970e-003 0. 0. 0. 0. 0.
      2.65251985e-003 1.32625992e-003 0. 2.65251985e-003 1.32625992e-003
      2.65251985e-003 1.32625992e-003 1.32625992e-003 6.63129985e-003 0.
      0. 3.97877954e-003 1.32625992e-003 2.65251985e-003 0. 0. 0. 0. 0.
      0. 0. 0. 0. 0. 1.32625992e-003 0. 2.65251985e-003 0. 0.
      1.32625992e-003 0. 0. 1.32625992e-003 0. 2.65251985e-003 0. 0.
      1.32625992e-003 0. 1.32625992e-003 0. 1.32625992e-003
      1.32625992e-003 0. 0. 1.32625992e-003 0. 2.65251985e-003 0. 0. 0.
      0. 0. 3.97877954e-003 0. 1.32625992e-003 0. 0. 3.97877954e-003
      2.65251985e-003 1.32625992e-003 0. 1.32625992e-003 0.
      2.65251985e-003 0. 0. 0. 1.32625992e-003 0. 1.32625992e-003
      1.32625992e-003 3.97877954e-003 0. 0. 0. 0. 7.95755908e-003 0. 0.
      2.65251985e-003 3.97877954e-003 1.32625992e-003 0. 0. 0. 0. 0.
      2.65251985e-003 0. 0. 0. 0. 2.65251985e-003 1.32625992e-003 0. 0.
      0. 1.32625992e-003 3.97877954e-003 0. 0. 2.65251985e-003 0. 0.
      1.32625992e-003 0. 1.32625992e-003 1.32625992e-003 0. 0.
      2.65251985e-003 1.32625992e-003 1.32625992e-003 1.32625992e-003 0.
      0. 1.32625992e-003 0. 1.32625992e-003 2.65251985e-003 0. 0. 0. 0.
      0. 2.65251985e-003 0. 3.97877954e-003 0. 0. 5.30503970e-003 0. 0.
      0. 1.32625992e-003 0. 0. 0. 1.32625992e-003 1.32625992e-003 0. 0.
      1.32625992e-003 1.32625992e-003 0. 1.32625992e-003 2.65251985e-003
      1.32625992e-003 0. 0. 0. 0. 1.32625992e-003 0. 0. 0. 0. 0. 0. 0.
      2.65251985e-003 0. 0. 0. 2.65251985e-003 3.97877954e-003
      1.32625992e-003 0. 1.32625992e-003 0. 0. 0. 0. 0. 0. 0. 0.
      2.65251985e-003 0. 0. 0. 0. 0. 1.32625992e-003 0. 3.97877954e-003
      0. 0. 0. 0. 1.32625992e-003 2.65251985e-003 0. 0. 3.97877954e-003
      0. 2.65251985e-003 0. 0. 1.32625992e-003 0. 0. 0. 0.
      1.32625992e-003 3.97877954e-003 1.32625992e-003 0. 0.
      1.32625992e-003 0. 0. 1.32625992e-003 0. 0. 1.32625992e-003 0. 0.
      1.32625992e-003 0. 0. 0. 1.32625992e-003 0. 0. 5.30503970e-003 0.
      0. 0. 5.30503970e-003 0. 1.32625992e-003 1.32625992e-003
      7.95755908e-003 0. 3.97877954e-003 1.32625992e-003 0. 0. 0. 0.
      5.30503970e-003 0. 1.32625992e-003 0. 1.32625992e-003 0. 0. 0. 0.
      1.32625992e-003 5.30503970e-003 0. 0. 2.65251985e-003 0. 0. 0.
      1.32625992e-003 1.32625992e-003 1.32625992e-003 0. 0.
      1.32625992e-003 0. 0. 0. 0. 2.65251985e-003 1.32625992e-003
      1.32625992e-003 2.65251985e-003 3.97877954e-003 0. 0. 0. 0. 0.
      1.32625992e-003 1.32625992e-003 0. 5.30503970e-003 5.30503970e-003
      0. 1.32625992e-003 0. 0. 1.32625992e-003 0. 2.65251985e-003
      6.63129985e-003 1.32625992e-003 0. 0. 0. 0. 5.30503970e-003 0. 0.
      0. 1.32625992e-003 2.65251985e-003 0. 1.32625992e-003 0.
      3.97877954e-003 0. 2.65251985e-003 0. 2.65251985e-003 0. 0.
      3.97877954e-003 2.65251985e-003 1.32625992e-003 0. 0. 0.
      5.30503970e-003 2.65251985e-003 1.32625992e-003 1.32625992e-003
      3.97877954e-003 0. 0. 0. 0. 2.78514586e-002 1.32625992e-003 0.
      1.32625992e-003 0. 2.65251985e-003 2.65251985e-003 1.32625992e-003
      1.32625992e-003 0. 0. 1.32625992e-003 1.32625992e-003
      5.30503970e-003 0. 0. 0. 1.32625992e-003 3.97877954e-003
      3.97877954e-003 0. 1.32625992e-003 0. 1.32625992e-003
      2.65251985e-003 0. 0. 1.32625992e-003 0. 1.32625992e-003 0. 0. 0.
      2.65251985e-003 1.32625992e-003 0. 1.32625992e-003 0.
      1.32625992e-003 0. 0. 5.30503970e-003 0. 5.30503970e-003 0.
      1.32625992e-003 0. 1.32625992e-003 0. 0. 1.32625992e-003
      1.32625992e-003 0. 0. 0. 2.65251985e-003 2.65251985e-003
      1.32625992e-003 2.65251985e-003 2.65251985e-003 0. 0. 0. 0. 0. 0.
      0. 0. 0. 0. 1.32625992e-003 0. 0. 0. 1.32625992e-003 0.
      5.30503970e-003 0. 0. 0. 2.65251985e-003 3.97877954e-003
      1.32625992e-003 0. 0. 0. 0. 0. 0. 0. 1.32625992e-003 0. 0.
      1.32625992e-003 1.32625992e-003 3.97877954e-003 0. 0.
      1.32625992e-003 2.65251985e-003 2.65251985e-003 2.65251985e-003
      1.32625992e-003 0. 0. 5.30503970e-003 0. 1.32625992e-003 0. 0. 0.
      0. 0. 0. 1.32625992e-003 5.30503970e-003 1.32625992e-003 0. 0.
      2.65251985e-003 0. 1.32625992e-003 0. 0. 1.32625992e-003 0. 0. 0.
      0. 2.65251985e-003 0. 1.32625992e-003 0. 0. 2.65251985e-003
      3.97877954e-003 1.32625992e-003 0. 0. 0. 1.32625992e-003
      6.63129985e-003 0. 0. 0. 1.32625992e-003 2.65251985e-003 0.
      2.65251985e-003 1.32625992e-003 0. 0. 0. 0. 0. 0. 0.
      1.32625992e-003 0. 0. 0. 2.65251985e-003 0. 0. 0. 1.32625992e-003
      0. 0. 0. 0. 0. 2.65251985e-003 0. 0. 0. 0. 1.32625992e-003 0.
      2.65251985e-003 0. 0. 0. 1.32625992e-003 0. 0. 1.32625992e-003 0.
      0. 0. 0. 0. 0. 0. 0. 2.65251985e-003 0. 6.63129985e-003
      1.32625992e-003 1.32625992e-003 2.65251985e-003 1.32625992e-003 0.
      2.65251985e-003 0. 1.32625992e-003 0. 2.65251985e-003 0.
      2.65251985e-003 0. 2.65251985e-003 0. 0. 0. 0. 6.63129985e-003
      1.32625992e-003 0. 1.32625992e-003 0. 0. 0. 0. 0. 0. 0. 0. 0. 0.
      0. 1.32625992e-003 1.32625992e-003 0. 0. 0. 0. 0. 0.
      1.32625992e-003 1.32625992e-003 0. 1.32625992e-003 0. 0.
      3.97877954e-003 0. 0. 0. 1.32625992e-003 0. 0. 1.32625992e-003
      1.32625992e-003 5.30503970e-003 3.97877954e-003 3.97877954e-003
      1.32625992e-003 0. 1.32625992e-003 2.65251985e-003 0.
      1.32625992e-003 0. 1.32625992e-003 0. 2.65251985e-003
      1.32625992e-003 0. 3.97877954e-003 5.30503970e-003 1.06100794e-002
      0. 1.32625992e-003 0. 0. 0. 1.45888589e-002 1.32625992e-003 0. 0.
      0. 2.65251985e-003 0. 0. 0. 0. 0. 1.32625992e-003 0. 0. 0.
      2.65251985e-003 0. 1.32625992e-003 2.65251985e-003 0. 0. 0.
      2.65251985e-003 0. 0. 0. 2.65251985e-003 0. 1.32625992e-003 0.
      3.97877954e-003 0. 1.32625992e-003 0. 0. 0. 0. 0. 0. 0. 0. 0. 0.
      0. 0. 0. 0. 3.97877954e-003 9.28381924e-003 0. 0. 0. 0.
      2.65251985e-003 1.32625992e-003 2.65251985e-003 0. 0.
      1.32625992e-003 1.32625992e-003 1.32625992e-003 1.32625992e-003
      1.32625992e-003 1.19363395e-002 1.32625992e-003 0. 0.
      1.32625992e-003 1.32625992e-003 0. 0. 1.32625992e-003
      2.65251985e-003 0. 0. 0. 2.65251985e-003 0. 0. 0. 0.
      7.95755908e-003 0. 0. 0. 2.65251985e-003 2.65251985e-003
      1.32625992e-003 0. 2.65251985e-003 0. 0. 0. 0. 1.32625992e-003
      1.32625992e-003 1.32625992e-003 0. 0. 0. 0. 1.32625992e-003
      2.65251985e-003 0. 0. 2.65251985e-003 0. 0. 0. 0. 0. 0.
      1.32625992e-003 0. 0. 0. 0. 0. 0. 1.32625992e-003 0.
      1.19363395e-002 2.65251985e-003 1.32625992e-003 0. 2.65251985e-003
      0. 0. 0. 1.32625992e-003 0. 0. 1.32625992e-003 1.32625992e-003
      1.32625992e-003 2.65251985e-003 2.65251985e-003 0. 0. 0. 0. 0. 0.
      0. 1.32625992e-003 0. 0. 0. 0. 0. 0. 1.32625992e-003 0. 0.
      1.32625992e-003 0. 0. 0. 0. 0. 2.65251985e-003 0. 0. 0.
      2.65251985e-003 0. 0. 0. 0. 0. 0. 1.32625992e-003 2.65251985e-003
      0. 0. 0. 0. 0. 0. 0. 0. 0. 1.32625992e-003 0. 2.65251985e-003
      1.32625992e-003 0. 0. 0. 0. 0. 0. 0. 0. 0. 0. 1.32625992e-003 0.
      0. 1.32625992e-003 1.32625992e-003 0. 0. 0. 1.32625992e-003 0. 0.
      1.32625992e-003 0. 0. 0. 0. 0. 1.32625992e-003 0. 1.32625992e-003
      0. 0. 0. 1.32625992e-003 1.32625992e-003 0. 1.32625992e-003 0.
      1.19363395e-002 0. 0. 2.65251985e-003 0. 0. 2.65251985e-003
      2.65251985e-003 0. 0. 3.97877954e-003 0. 0. 0. 0. 3.97877954e-003
      0. 1.32625992e-003 1.32625992e-003 0. 2.65251985e-003
      1.32625992e-003 1.32625992e-003 0. 1.32625992e-003 0. 0. 0.
      1.32625992e-003 2.65251985e-003 5.30503970e-003 0. 1.32625992e-003
      0. 1.32625992e-003 3.97877954e-003 0. 2.65251985e-003 0. 0. 0. 0.
      0. 0. 0. 0. 0. 0. 0. 2.65251985e-003 0. 2.65251985e-003 0. 0.
      1.32625992e-003 2.65251985e-003 1.32625992e-003 0. 1.32625992e-003
      1.32625992e-003 0. 0. 0. 5.30503970e-003 0. 1.32625992e-003 0. 0.
      0. 1.32625992e-003 0. 0. 0. 2.65251985e-003 0. 0. 0. 0. 0. 0.
      3.97877954e-003 0. 0. 0. 2.65251985e-003 0. 0. 0. 5.30503970e-003
      0. 1.32625992e-003 0. 0. 1.32625992e-003 0. 0. 0. 0. 0. 0. 0. 0.
      0. 0. 0. 0. 0.</_>
    <_>
      2.67022708e-003 0. 1.33511354e-003 0. 1.06809083e-002 0.
      1.33511354e-003 0. 0. 1.33511354e-003 0. 2.67022708e-003
      4.00534086e-003 0. 0. 1.33511354e-003 0. 6.67556748e-003
      1.33511354e-003 0. 0. 2.67022708e-003 1.33511354e-003 0. 0. 0.
      1.33511350e-002 0. 1.33511354e-003 2.67022708e-003 1.06809083e-002
      1.33511354e-003 5.34045417e-003 4.00534086e-003 1.33511354e-003
      1.33511354e-003 0. 0. 0. 0. 0. 0. 0. 2.67022708e-003
      1.33511354e-003 6.67556748e-003 2.67022708e-003 0. 0. 0. 0.
      1.33511354e-003 0. 4.00534086e-003 0. 2.67022708e-003 0. 0. 0.
      4.00534086e-003 0. 0. 2.67022708e-003 0. 0. 0. 1.33511354e-003
      1.33511354e-003 2.67022708e-003 0. 4.00534086e-003 2.67022708e-003
      4.00534086e-003 2.67022708e-003 0. 0. 0. 0. 0. 0. 1.33511354e-003
      0. 0. 0. 0. 0. 0. 0. 0. 0. 0. 1.33511354e-003 0. 0.
      5.34045417e-003 0. 0. 0. 0. 0. 1.33511354e-003 0. 0.
      1.33511354e-003 4.00534086e-003 0. 0. 0. 2.67022708e-003 0. 0. 0.
      1.33511354e-003 0. 0. 1.33511354e-003 0. 0. 2.67022708e-003 0.
      1.33511354e-003 0. 0. 0. 4.00534086e-003 1.33511354e-003
      2.67022708e-003 0. 1.33511354e-003 1.33511354e-003 0. 0.
      1.33511354e-003 0. 0. 1.33511354e-003 1.33511354e-003
      2.67022708e-003 0. 1.33511354e-003 1.33511354e-003 0.
      1.06809083e-002 0. 0. 2.67022708e-003 4.00534086e-003 0. 0. 0. 0.
      0. 0. 1.33511354e-003 1.33511354e-003 0. 0. 0. 4.00534086e-003 0.
      0. 0. 0. 5.34045417e-003 2.67022708e-003 0. 0. 2.67022708e-003 0.
      0. 0. 1.33511354e-003 1.33511354e-003 0. 0. 0. 2.67022708e-003
      1.33511354e-003 1.33511354e-003 0. 0. 0. 0. 0. 0. 2.67022708e-003
      1.33511354e-003 0. 0. 0. 0. 1.33511354e-003 0. 5.34045417e-003 0.
      0. 4.00534086e-003 0. 0. 0. 0. 1.33511354e-003 0. 0.
      1.33511354e-003 4.00534086e-003 0. 0. 0. 0. 1.33511354e-003 0. 0.
      0. 1.33511354e-003 1.33511354e-003 1.33511354e-003 0. 0.
      1.33511354e-003 4.00534086e-003 0. 0. 0. 0. 0. 4.00534086e-003 0.
      0. 0. 2.67022708e-003 2.67022708e-003 2.67022708e-003 0. 0. 0. 0.
      0. 0. 0. 1.33511354e-003 0. 1.33511354e-003 0. 0. 0. 0.
      2.67022708e-003 1.33511354e-003 1.33511354e-003 1.33511354e-003
      4.00534086e-003 0. 0. 1.33511354e-003 0. 2.67022708e-003
      2.67022708e-003 0. 0. 2.67022708e-003 1.33511354e-003
      2.67022708e-003 0. 0. 1.33511354e-003 0. 1.33511354e-003 0. 0. 0.
      2.67022708e-003 1.33511354e-003 0. 1.33511354e-003 0. 0. 0.
      1.33511354e-003 0. 1.33511354e-003 1.33511354e-003 0. 0.
      1.33511354e-003 0. 0. 0. 0. 0. 1.33511354e-003 4.00534086e-003 0.
      1.33511354e-003 0. 6.67556748e-003 0. 0. 0. 2.67022708e-003 0.
      5.34045417e-003 1.33511354e-003 0. 0. 0. 0. 4.00534086e-003 0. 0.
      0. 1.33511354e-003 2.67022708e-003 0. 0. 0. 1.33511354e-003
      2.67022708e-003 0. 0. 2.67022708e-003 0. 0. 0. 0. 1.33511354e-003
      0. 0. 2.67022708e-003 2.67022708e-003 0. 0. 1.33511354e-003 0.
      2.67022708e-003 0. 8.01068172e-003 0. 1.33511354e-003 0.
      1.33511354e-003 1.33511354e-003 0. 1.33511354e-003 0.
      1.33511354e-003 0. 1.33511354e-003 1.33511354e-003 0.
      2.67022708e-003 0. 2.67022708e-003 1.33511354e-003 0.
      4.00534086e-003 5.34045417e-003 0. 0. 0. 0. 0. 5.34045417e-003 0.
      1.33511354e-003 0. 0. 2.67022708e-003 2.67022708e-003 0. 0.
      4.00534086e-003 2.67022708e-003 1.33511354e-003 0. 1.33511354e-003
      0. 1.33511354e-003 5.34045417e-003 1.33511354e-003 0.
      1.33511354e-003 0. 1.33511354e-003 5.34045417e-003 4.00534086e-003
      1.33511354e-003 5.34045417e-003 1.33511354e-003 0. 1.33511354e-003
      0. 0. 2.53671575e-002 1.33511354e-003 2.67022708e-003 0.
      1.33511354e-003 2.67022708e-003 1.33511354e-003 0. 2.67022708e-003
      0. 0. 0. 0. 6.67556748e-003 0. 0. 0. 0. 4.00534086e-003
      4.00534086e-003 0. 2.67022708e-003 0. 0. 0. 0. 0. 0.
      1.33511354e-003 1.33511354e-003 0. 0. 0. 0. 0. 1.33511354e-003
      1.33511354e-003 0. 2.67022708e-003 0. 0. 8.01068172e-003 0.
      4.00534086e-003 0. 0. 0. 1.33511354e-003 0. 2.67022708e-003 0. 0.
      0. 0. 0. 2.67022708e-003 0. 0. 1.33511354e-003 1.33511354e-003
      1.33511354e-003 0. 0. 0. 0. 2.67022708e-003 1.33511354e-003 0.
      2.67022708e-003 0. 0. 0. 0. 0. 1.33511354e-003 0. 2.67022708e-003
      0. 0. 0. 6.67556748e-003 1.33511354e-003 2.67022708e-003 0.
      2.67022708e-003 0. 0. 0. 0. 0. 1.33511354e-003 1.33511354e-003
      1.33511354e-003 0. 0. 5.34045417e-003 0. 0. 2.67022708e-003
      5.34045417e-003 1.33511354e-003 2.67022708e-003 0. 0. 0.
      4.00534086e-003 0. 0. 0. 0. 0. 0. 0. 0. 0. 4.00534086e-003
      1.33511354e-003 0. 0. 2.67022708e-003 0. 1.33511354e-003 0.
      1.33511354e-003 1.33511354e-003 0. 0. 0. 1.33511354e-003
      2.67022708e-003 0. 2.67022708e-003 0. 0. 0. 1.33511354e-003 0. 0.
      0. 0. 1.33511354e-003 8.01068172e-003 0. 0. 1.33511354e-003
      4.00534086e-003 2.67022708e-003 0. 2.67022708e-003 1.33511354e-003
      0. 0. 1.33511354e-003 0. 1.33511354e-003 0. 0. 0. 0. 0.
      2.67022708e-003 1.33511354e-003 0. 0. 0. 2.67022708e-003
      1.33511354e-003 0. 0. 0. 0. 2.67022708e-003 0. 0. 0. 0.
      1.33511354e-003 0. 1.33511354e-003 0. 0. 0. 2.67022708e-003 0.
      1.33511354e-003 0. 0. 1.33511354e-003 0. 0. 1.33511354e-003 0. 0.
      0. 4.00534086e-003 1.33511354e-003 2.67022708e-003 2.67022708e-003
      1.33511354e-003 1.33511354e-003 0. 0. 5.34045417e-003
      1.33511354e-003 1.33511354e-003 0. 2.67022708e-003 0.
      5.34045417e-003 0. 0. 0. 0. 1.33511354e-003 0. 2.67022708e-003 0.
      0. 1.33511354e-003 0. 0. 0. 0. 0. 0. 1.33511354e-003 0. 0. 0.
      2.67022708e-003 0. 0. 0. 0. 0. 0. 0. 0. 1.33511354e-003 0. 0.
      1.33511354e-003 0. 0. 0. 0. 4.00534086e-003 0. 1.33511354e-003 0.
      0. 1.33511354e-003 1.33511354e-003 1.33511354e-003 5.34045417e-003
      1.33511354e-003 1.33511354e-003 0. 1.33511354e-003 1.33511354e-003
      0. 5.34045417e-003 0. 0. 0. 1.33511354e-003 0. 0. 1.33511354e-003
      1.33511354e-003 6.67556748e-003 0. 1.33511354e-003 0. 0. 0.
      9.34579503e-003 0. 1.33511354e-003 0. 1.33511354e-003
      1.33511354e-003 0. 0. 0. 0. 0. 1.33511354e-003 0. 0.
      2.67022708e-003 0. 1.33511354e-003 1.33511354e-003 2.67022708e-003
      0. 0. 1.33511354e-003 2.67022708e-003 0. 0. 0. 0. 0.
      4.00534086e-003 0. 2.67022708e-003 0. 1.33511354e-003 0. 0. 0. 0.
      0. 0. 0. 0. 0. 0. 2.67022708e-003 0. 1.33511354e-003
      2.67022708e-003 4.00534086e-003 5.34045417e-003 0. 0. 0. 0.
      2.67022708e-003 2.67022708e-003 0. 2.67022708e-003 1.33511354e-003
      0. 1.33511354e-003 0. 4.00534086e-003 0. 1.73564758e-002
      1.33511354e-003 0. 0. 1.33511354e-003 4.00534086e-003
      1.33511354e-003 0. 2.67022708e-003 1.33511354e-003 0.
      1.33511354e-003 1.33511354e-003 1.33511354e-003 0. 0. 0.
      1.33511354e-003 4.00534086e-003 0. 0. 0. 1.33511354e-003
      1.33511354e-003 1.33511354e-003 0. 0. 0. 1.33511354e-003
      1.33511354e-003 0. 0. 0. 1.33511354e-003 1.33511354e-003 0. 0. 0.
      1.33511354e-003 0. 1.33511354e-003 0. 1.33511354e-003 0. 0. 0.
      1.33511354e-003 0. 0. 1.33511354e-003 0. 0. 0. 0. 0.
      1.33511354e-003 1.33511354e-003 0. 1.20160216e-002 2.67022708e-003
      2.67022708e-003 0. 1.33511354e-003 0. 1.33511354e-003 0.
      1.33511354e-003 0. 0. 0. 0. 2.67022708e-003 2.67022708e-003
      2.67022708e-003 0. 0. 0. 0. 0. 0. 0. 1.33511354e-003 0. 0. 0. 0.
      2.67022708e-003 1.33511354e-003 0. 0. 2.67022708e-003
      1.33511354e-003 0. 0. 0. 0. 2.67022708e-003 1.33511354e-003 0.
      1.33511354e-003 0. 1.33511354e-003 0. 0. 0. 1.33511354e-003 0.
      1.33511354e-003 2.67022708e-003 4.00534086e-003 0. 0. 0. 0.
      1.33511354e-003 0. 0. 0. 1.33511354e-003 0. 0. 0. 0. 0.
      1.33511354e-003 0. 1.33511354e-003 0. 0. 0. 0. 0. 0.
      1.33511354e-003 0. 0. 0. 0. 0. 0. 0. 1.33511354e-003 0.
      2.67022708e-003 1.33511354e-003 2.67022708e-003 0. 0. 0.
      1.33511354e-003 0. 0. 0. 0. 0. 1.33511354e-003 0. 2.67022708e-003
      0. 2.67022708e-003 0. 1.73564758e-002 0. 0. 4.00534086e-003 0. 0.
      2.67022708e-003 1.33511354e-003 0. 0. 0. 0. 0. 0. 0.
      1.33511354e-003 0. 4.00534086e-003 1.33511354e-003 1.33511354e-003
      1.33511354e-003 0. 0. 0. 0. 0. 4.00534086e-003 0. 0.
      1.33511354e-003 1.33511354e-003 0. 1.33511354e-003 0.
      2.67022708e-003 9.34579503e-003 0. 4.00534086e-003 0.
      1.33511354e-003 0. 0. 0. 0. 0. 0. 0. 0. 0. 1.33511354e-003 0.
      1.33511354e-003 0. 0. 1.33511354e-003 1.33511354e-003
      1.33511354e-003 0. 0. 1.33511354e-003 0. 1.33511354e-003 0.
      8.01068172e-003 0. 0. 0. 0. 0. 0. 0. 0. 0. 1.33511354e-003 0. 0.
      0. 0. 0. 0. 1.33511354e-003 0. 1.33511354e-003 0. 1.33511354e-003
      1.33511354e-003 0. 0. 4.00534086e-003 0. 0. 1.33511354e-003
      2.67022708e-003 0. 1.33511354e-003 0. 0. 0. 0. 0. 0. 0. 0. 0. 0.
      0. 0.</_>
    <_>
      0. 0. 1.28865975e-003 1.28865975e-003 6.44329889e-003 0. 0. 0. 0.
      0. 0. 3.86597915e-003 3.86597915e-003 0. 0. 1.28865975e-003 0.
      2.57731951e-003 0. 1.28865975e-003 0. 2.57731951e-003 0. 0.
      1.28865975e-003 0. 1.03092780e-002 0. 0. 1.28865975e-003
      3.86597915e-003 2.57731951e-003 6.44329889e-003 2.57731951e-003
      1.28865975e-003 1.28865975e-003 0. 0. 0. 0. 0. 1.28865975e-003 0.
      2.57731951e-003 0. 7.73195829e-003 3.86597915e-003 0. 0. 0. 0.
      2.57731951e-003 0. 2.57731951e-003 0. 2.57731951e-003 0. 0.
      2.57731951e-003 5.15463902e-003 0. 0. 1.28865975e-003 0.
      3.86597915e-003 3.86597915e-003 1.28865975e-003 1.28865975e-003
      2.57731951e-003 1.28865975e-003 1.28865975e-003 0. 2.57731951e-003
      6.44329889e-003 0. 0. 0. 1.28865975e-003 2.57731951e-003 0.
      1.28865975e-003 0. 1.28865975e-003 0. 0. 1.28865975e-003 0. 0. 0.
      0. 0. 1.28865975e-003 0. 0. 2.57731951e-003 0. 0. 1.28865975e-003
      0. 0. 0. 0. 0. 1.28865975e-003 1.28865975e-003 0. 0.
      2.57731951e-003 1.28865975e-003 0. 0. 0. 1.28865975e-003 0. 0.
      2.57731951e-003 0. 0. 2.57731951e-003 0. 2.57731951e-003 0.
      1.28865975e-003 2.57731951e-003 2.57731951e-003 0. 1.28865975e-003
      1.28865975e-003 0. 1.28865975e-003 0. 0. 2.57731951e-003 0. 0.
      1.28865975e-003 1.28865975e-003 3.86597915e-003 0. 0.
      3.86597915e-003 0. 7.73195829e-003 0. 0. 1.28865975e-003
      3.86597915e-003 0. 0. 0. 0. 1.28865975e-003 0. 1.28865975e-003 0.
      1.28865975e-003 1.28865975e-003 0. 2.57731951e-003 1.28865975e-003
      1.28865975e-003 0. 0. 3.86597915e-003 2.57731951e-003 0. 0.
      2.57731951e-003 1.28865975e-003 0. 2.57731951e-003 0.
      2.57731951e-003 0. 0. 0. 2.57731951e-003 0. 1.28865975e-003
      2.57731951e-003 0. 1.28865975e-003 1.28865975e-003 0. 0.
      1.28865975e-003 0. 0. 1.28865975e-003 0. 0. 1.28865975e-003
      1.28865975e-003 1.28865975e-003 0. 0. 1.28865975e-003 0. 0. 0. 0.
      1.28865975e-003 0. 1.28865975e-003 1.28865975e-003 1.28865975e-003
      0. 0. 0. 1.28865975e-003 3.86597915e-003 0. 1.28865975e-003 0.
      1.28865975e-003 0. 0. 0. 0. 1.28865975e-003 3.86597915e-003 0. 0.
      0. 2.57731951e-003 0. 0. 0. 0. 0. 0. 2.57731951e-003
      1.28865975e-003 0. 0. 0. 0. 0. 0. 0. 0. 0. 1.28865975e-003
      7.73195829e-003 0. 1.28865975e-003 1.28865975e-003 1.28865975e-003
      1.28865975e-003 1.28865975e-003 0. 3.86597915e-003 0. 0.
      2.57731951e-003 0. 3.86597915e-003 0. 0. 1.28865975e-003
      3.86597915e-003 1.28865975e-003 3.86597915e-003 0. 0.
      1.28865975e-003 0. 0. 0. 1.28865975e-003 0. 2.57731951e-003
      1.28865975e-003 1.28865975e-003 1.28865975e-003 0. 0. 0.
      5.15463902e-003 1.28865975e-003 0. 1.28865975e-003 0. 0.
      2.57731951e-003 0. 0. 0. 0. 0. 0. 3.86597915e-003 0.
      2.57731951e-003 0. 5.15463902e-003 0. 0. 0. 7.73195829e-003 0.
      1.28865975e-003 2.57731951e-003 0. 0. 0. 0. 2.57731951e-003 0. 0.
      1.28865975e-003 2.57731951e-003 0. 0. 0. 1.28865975e-003 0.
      1.28865975e-003 0. 0. 2.57731951e-003 0. 0. 0. 0. 1.28865975e-003
      1.28865975e-003 0. 2.57731951e-003 1.28865975e-003 0. 0. 0. 0.
      1.28865975e-003 0. 3.86597915e-003 1.28865975e-003 2.57731951e-003
      0. 1.28865975e-003 1.28865975e-003 0. 0. 1.28865975e-003 0.
      1.28865975e-003 1.28865975e-003 5.15463902e-003 0. 1.28865975e-003
      0. 1.28865975e-003 2.57731951e-003 0. 3.86597915e-003
      5.15463902e-003 1.28865975e-003 0. 0. 0. 0. 6.44329889e-003 0.
      2.57731951e-003 0. 0. 0. 0. 0. 1.28865975e-003 1.28865975e-003 0.
      2.57731951e-003 0. 3.86597915e-003 0. 0. 3.86597915e-003 0.
      2.57731951e-003 0. 0. 1.28865975e-003 3.86597915e-003
      1.28865975e-003 1.28865975e-003 3.86597915e-003 1.28865975e-003 0.
      0. 0. 0. 1.93298962e-002 0. 0. 1.28865975e-003 0. 5.15463902e-003
      2.57731951e-003 0. 1.28865975e-003 0. 1.28865975e-003
      2.57731951e-003 2.57731951e-003 3.86597915e-003 0. 2.57731951e-003
      0. 0. 7.73195829e-003 3.86597915e-003 0. 5.15463902e-003 0. 0.
      3.86597915e-003 0. 0. 1.28865975e-003 0. 2.57731951e-003
      1.28865975e-003 0. 0. 0. 3.86597915e-003 2.57731951e-003
      1.28865975e-003 1.28865975e-003 2.57731951e-003 0. 0.
      6.44329889e-003 0. 2.57731951e-003 2.57731951e-003 0. 0.
      1.28865975e-003 0. 2.57731951e-003 1.28865975e-003 1.28865975e-003
      0. 0. 0. 2.57731951e-003 0. 1.28865975e-003 1.28865975e-003 0.
      2.57731951e-003 1.28865975e-003 0. 0. 0. 5.15463902e-003
      1.28865975e-003 0. 1.28865975e-003 0. 1.28865975e-003
      1.28865975e-003 0. 0. 1.28865975e-003 0. 2.57731951e-003 0. 0. 0.
      2.57731951e-003 2.57731951e-003 0. 0. 1.28865975e-003 0. 0. 0.
      1.28865975e-003 0. 1.28865975e-003 0. 1.28865975e-003 0.
      1.28865975e-003 2.57731951e-003 0. 2.57731951e-003 2.57731951e-003
      5.15463902e-003 2.57731951e-003 1.28865975e-003 0. 0. 0.
      2.57731951e-003 0. 0. 0. 0. 0. 1.28865975e-003 0. 0.
      1.28865975e-003 3.86597915e-003 1.28865975e-003 1.28865975e-003 0.
      1.28865975e-003 0. 1.28865975e-003 0. 1.28865975e-003
      1.28865975e-003 0. 0. 1.28865975e-003 0. 3.86597915e-003 0.
      1.28865975e-003 0. 0. 1.28865975e-003 5.15463902e-003 0. 0. 0. 0.
      0. 5.15463902e-003 0. 0. 1.28865975e-003 2.57731951e-003
      2.57731951e-003 0. 2.57731951e-003 0. 0. 0. 0. 0. 0. 0. 0. 0. 0.
      0. 1.28865975e-003 1.28865975e-003 0. 1.28865975e-003
      1.28865975e-003 0. 2.57731951e-003 0. 0. 0. 0. 1.28865975e-003 0.
      0. 0. 0. 2.57731951e-003 0. 1.28865975e-003 0. 0. 0.
      1.28865975e-003 0. 0. 1.28865975e-003 0. 0. 0. 0. 0. 0. 0. 0.
      2.57731951e-003 1.28865975e-003 1.28865975e-003 1.28865975e-003
      2.57731951e-003 2.57731951e-003 0. 0. 2.57731951e-003
      1.28865975e-003 1.28865975e-003 0. 2.57731951e-003 0.
      3.86597915e-003 0. 0. 0. 0. 0. 0. 3.86597915e-003 2.57731951e-003
      0. 1.28865975e-003 0. 0. 0. 0. 0. 2.57731951e-003 0. 0. 0. 0.
      1.28865975e-003 1.28865975e-003 0. 0. 0. 0. 1.28865975e-003 0. 0.
      0. 0. 0. 2.57731951e-003 0. 1.28865975e-003 0. 0. 2.57731951e-003
      0. 0. 0. 0. 0. 0. 2.57731951e-003 6.44329889e-003 1.28865975e-003
      1.28865975e-003 1.28865975e-003 0. 2.57731951e-003 0.
      1.28865975e-003 0. 1.28865975e-003 0. 1.28865975e-003
      2.57731951e-003 1.28865975e-003 1.28865975e-003 3.86597915e-003
      3.86597915e-003 0. 1.28865975e-003 0. 0. 0. 1.03092780e-002 0. 0.
      0. 0. 1.28865975e-003 1.28865975e-003 0. 0. 0. 0. 1.28865975e-003
      0. 2.57731951e-003 2.57731951e-003 1.28865975e-003 1.28865975e-003
      2.57731951e-003 5.15463902e-003 0. 0. 0. 1.28865975e-003 0.
      1.28865975e-003 0. 0. 1.28865975e-003 1.28865975e-003
      1.28865975e-003 1.28865975e-003 2.57731951e-003 3.86597915e-003 0.
      0. 0. 0. 1.28865975e-003 1.28865975e-003 0. 0. 0. 1.28865975e-003
      1.28865975e-003 0. 0. 0. 3.86597915e-003 6.44329889e-003 0. 0. 0.
      0. 3.86597915e-003 1.28865975e-003 0. 0. 0. 0. 0. 1.28865975e-003
      2.57731951e-003 1.28865975e-003 1.15979379e-002 0. 0. 0.
      1.28865975e-003 0. 0. 0. 0. 2.57731951e-003 1.28865975e-003
      1.28865975e-003 1.28865975e-003 1.28865975e-003 0. 1.28865975e-003
      1.28865975e-003 2.57731951e-003 5.15463902e-003 0. 1.28865975e-003
      0. 2.57731951e-003 2.57731951e-003 1.28865975e-003 0.
      1.28865975e-003 0. 0. 2.57731951e-003 2.57731951e-003 0. 0.
      2.57731951e-003 0. 0. 0. 1.28865975e-003 1.28865975e-003
      2.57731951e-003 0. 0. 1.28865975e-003 0. 1.28865975e-003 0.
      2.57731951e-003 0. 1.28865975e-003 1.28865975e-003 0. 0. 0. 0. 0.
      0. 1.28865975e-003 0. 7.73195829e-003 2.57731951e-003
      2.57731951e-003 0. 1.28865975e-003 1.28865975e-003 0. 0.
      1.28865975e-003 0. 0. 1.28865975e-003 0. 0. 1.28865975e-003
      2.57731951e-003 0. 0. 1.28865975e-003 0. 1.28865975e-003 0.
      1.28865975e-003 1.28865975e-003 0. 0. 0. 0. 1.28865975e-003 0. 0.
      0. 0. 2.57731951e-003 0. 0. 0. 0. 0. 1.28865975e-003 0. 0. 0.
      2.57731951e-003 0. 0. 0. 1.28865975e-003 0. 0. 0. 2.57731951e-003
      0. 0. 0. 0. 1.28865975e-003 0. 0. 0. 0. 1.28865975e-003 0.
      1.28865975e-003 1.28865975e-003 1.28865975e-003 1.28865975e-003 0.
      0. 0. 0. 0. 0. 0. 0. 1.28865975e-003 0. 0. 1.28865975e-003
      1.28865975e-003 0. 0. 0. 1.28865975e-003 0. 1.28865975e-003
      1.28865975e-003 2.57731951e-003 0. 0. 0. 0. 0. 1.28865975e-003
      1.28865975e-003 0. 0. 0. 0. 2.57731951e-003 0. 0. 0.
      1.15979379e-002 1.28865975e-003 0. 3.86597915e-003 0. 0.
      2.57731951e-003 0. 0. 1.28865975e-003 0. 1.28865975e-003 0. 0. 0.
      2.57731951e-003 0. 5.15463902e-003 0. 0. 1.28865975e-003
      2.57731951e-003 0. 0. 2.57731951e-003 0. 5.15463902e-003 0.
      1.28865975e-003 1.28865975e-003 1.28865975e-003 0. 1.28865975e-003
      0. 2.57731951e-003 1.03092780e-002 0. 2.57731951e-003 0.
      2.57731951e-003 0. 0. 0. 0. 0. 0. 0. 0. 0. 2.57731951e-003
      1.28865975e-003 1.28865975e-003 0. 0. 0. 1.28865975e-003
      1.28865975e-003 0. 0. 1.28865975e-003 0. 1.28865975e-003
      1.28865975e-003 6.44329889e-003 0. 1.28865975e-003 1.28865975e-003
      0. 0. 0. 0. 0. 0. 3.86597915e-003 0. 0. 0. 0. 0. 0.
      2.57731951e-003 0. 0. 0. 1.28865975e-003 0. 1.28865975e-003 0.
      3.86597915e-003 0. 1.28865975e-003 0. 2.57731951e-003
      1.28865975e-003 0. 0. 0. 0. 0. 1.28865975e-003 0. 0. 0. 0. 0.
      1.28865975e-003 1.28865975e-003</_>
    <_>
      3.14465398e-003 1.57232699e-003 1.57232699e-003 1.57232699e-003
      9.43396240e-003 0. 0. 0. 0. 0. 1.57232699e-003 1.57232699e-003 0.
      1.57232699e-003 1.57232699e-003 0. 0. 1.57232699e-003
      1.57232699e-003 4.71698120e-003 0. 0. 3.14465398e-003 0.
      1.57232699e-003 1.57232699e-003 0. 0. 3.14465398e-003 0.
      1.57232699e-003 0. 0. 1.57232699e-003 1.57232699e-003 0. 0.
      1.57232699e-003 3.14465398e-003 0. 3.14465398e-003 3.14465398e-003
      0. 0. 0. 0. 0. 0. 0. 0. 1.57232699e-003 3.14465398e-003 0.
      1.57232699e-003 0. 4.71698120e-003 0. 0. 1.57232699e-003
      1.57232699e-003 0. 1.57232699e-003 0. 0. 0. 0. 0. 0.
      6.28930796e-003 3.14465398e-003 1.57232699e-003 0. 1.57232699e-003
      3.14465398e-003 0. 0. 1.57232699e-003 1.57232699e-003
      1.57232699e-003 0. 6.28930796e-003 1.57232699e-003 3.14465398e-003
      3.14465398e-003 0. 0. 0. 1.57232699e-003 0. 1.57232699e-003 0.
      1.57232699e-003 0. 1.57232699e-003 0. 1.57232699e-003
      1.57232699e-003 0. 0. 3.14465398e-003 0. 0. 6.28930796e-003
      3.14465398e-003 0. 3.14465398e-003 1.57232699e-003 4.71698120e-003
      3.14465398e-003 0. 0. 0. 3.14465398e-003 0. 0. 1.57232699e-003 0.
      6.28930796e-003 0. 0. 0. 0. 4.71698120e-003 0. 0. 0.
      1.57232699e-003 1.57232699e-003 0. 3.14465398e-003 0.
      1.57232699e-003 3.14465398e-003 3.14465398e-003 1.57232699e-003
      3.14465398e-003 3.14465398e-003 1.57232699e-003 1.57232699e-003 0.
      7.86163472e-003 1.57232699e-003 0. 0. 0. 3.14465398e-003
      3.14465398e-003 0. 6.28930796e-003 0. 0. 1.57232699e-003 0.
      3.14465398e-003 0. 0. 0. 1.57232699e-003 0. 0. 0. 0. 0. 0.
      3.14465398e-003 1.57232699e-003 0. 6.28930796e-003 0. 0. 0.
      1.57232699e-003 3.14465398e-003 0. 0. 7.86163472e-003
      1.57232699e-003 0. 0. 3.14465398e-003 0. 0. 0. 0. 3.14465398e-003
      0. 0. 0. 0. 0. 0. 0. 0. 0. 0. 0. 4.71698120e-003 0. 0. 0.
      1.57232699e-003 0. 0. 1.57232699e-003 0. 0. 0. 0. 1.57232699e-003
      0. 4.71698120e-003 0. 0. 3.14465398e-003 0. 0. 0. 7.86163472e-003
      0. 0. 1.57232699e-003 0. 1.57232699e-003 1.57232699e-003
      3.14465398e-003 0. 0. 3.14465398e-003 0. 0. 6.28930796e-003
      1.57232699e-003 0. 6.28930796e-003 0. 1.57232699e-003 0. 0. 0. 0.
      0. 0. 0. 0. 4.71698120e-003 3.14465398e-003 1.57232699e-003
      1.57232699e-003 0. 0. 0. 1.57232699e-003 0. 0. 1.57232699e-003 0.
      0. 3.14465398e-003 0. 0. 0. 1.57232699e-003 0. 0. 0.
      6.28930796e-003 1.57232699e-003 1.57232699e-003 1.57232699e-003
      3.14465398e-003 3.14465398e-003 0. 0. 0. 3.14465398e-003
      1.57232699e-003 1.57232699e-003 0. 1.57232699e-003 0. 0. 0. 0. 0.
      1.57232699e-003 0. 1.57232699e-003 0. 0. 0. 0. 1.57232699e-003 0.
      0. 0. 9.43396240e-003 0. 0. 0. 0. 3.14465398e-003 1.57232699e-003
      1.57232699e-003 0. 3.14465398e-003 1.57232699e-003 0. 0. 0.
      3.14465398e-003 6.28930796e-003 0. 0. 0. 0. 1.57232699e-003 0.
      1.57232699e-003 0. 0. 0. 1.57232699e-003 0. 1.57232699e-003
      1.57232699e-003 3.14465398e-003 0. 0. 0. 1.57232699e-003 0. 0. 0.
      9.43396240e-003 0. 0. 4.71698120e-003 1.57232699e-003 0. 0. 0. 0.
      0. 0. 1.57232699e-003 0. 0. 1.57232699e-003 3.14465398e-003 0.
      1.57232699e-003 0. 1.10062892e-002 0. 1.57232699e-003 0.
      9.43396240e-003 0. 0. 1.57232699e-003 0. 0. 0. 0. 0. 0.
      1.57232699e-003 6.28930796e-003 7.86163472e-003 1.57232699e-003
      3.14465398e-003 3.14465398e-003 1.57232699e-003 0. 1.57232699e-003
      0. 0. 1.57232699e-003 0. 4.71698120e-003 1.57232699e-003
      1.57232699e-003 3.14465398e-003 3.14465398e-003 0. 0.
      1.25786159e-002 0. 0. 0. 1.57232699e-003 0. 0. 0. 3.14465398e-003
      3.14465398e-003 4.71698120e-003 0. 1.57232694e-002 0.
      3.14465398e-003 0. 0. 3.14465398e-003 0. 4.71698120e-003 0. 0. 0.
      0. 1.57232699e-003 0. 1.57232699e-003 0. 1.57232699e-003 0. 0. 0.
      0. 0. 0. 6.28930796e-003 3.14465398e-003 0. 0. 0. 0. 0.
      1.57232699e-003 0. 1.57232699e-003 1.57232699e-003 0. 0. 0. 0. 0.
      0. 0. 0. 0. 0. 3.14465398e-003 0. 0. 0. 0. 0. 0. 0. 0.
      3.14465398e-003 0. 0. 0. 0. 0. 1.57232699e-003 0. 0. 0.
      1.57232699e-003 0. 1.57232699e-003 0. 0. 0. 1.57232699e-003 0.
      1.57232699e-003 0. 0. 0. 0. 3.14465398e-003 1.57232699e-003
      1.57232699e-003 0. 0. 1.57232699e-003 0. 3.14465398e-003 0.
      1.57232699e-003 0. 1.57232699e-003 0. 0. 3.14465398e-003 0. 0.
      3.14465398e-003 6.28930796e-003 0. 0. 0. 1.57232699e-003 0. 0. 0.
      0. 0. 0. 0. 4.71698120e-003 0. 0. 0. 0. 1.57232699e-003 0.
      1.57232699e-003 1.57232699e-003 0. 1.57232699e-003 3.14465398e-003
      1.57232699e-003 1.57232699e-003 0. 4.71698120e-003 1.57232699e-003
      0. 0. 0. 0. 1.57232699e-003 0. 1.57232699e-003 1.57232699e-003 0.
      1.57232699e-003 0. 0. 0. 0. 0. 1.57232699e-003 0. 0. 0.
      1.57232699e-003 0. 0. 0. 0. 0. 1.57232699e-003 0. 0. 0. 0.
      3.14465398e-003 1.57232699e-003 0. 0. 0. 1.57232699e-003
      1.57232699e-003 3.14465398e-003 0. 0. 0. 1.57232699e-003 0. 0. 0.
      1.57232699e-003 0. 0. 0. 0. 1.57232699e-003 0. 0. 0. 0. 0. 0. 0.
      0. 1.57232699e-003 0. 0. 0. 3.14465398e-003 4.71698120e-003 0. 0.
      1.57232699e-003 9.43396240e-003 0. 0. 1.57232699e-003
      1.57232699e-003 0. 6.28930796e-003 0. 0. 0. 0. 3.14465398e-003 0.
      0. 0. 0. 0. 3.14465398e-003 0. 4.71698120e-003 0. 0. 0.
      1.57232699e-003 0. 1.57232699e-003 0. 0. 0. 1.57232699e-003
      1.57232699e-003 0. 0. 1.57232699e-003 0. 0. 7.86163472e-003 0. 0.
      0. 0. 0. 0. 0. 1.57232699e-003 0. 0. 0. 1.57232699e-003 0. 0.
      3.14465398e-003 0. 0. 0. 0. 1.57232699e-003 0. 0. 0.
      1.57232699e-003 0. 0. 1.57232699e-003 3.14465398e-003
      3.14465398e-003 0. 0. 0. 1.57232699e-003 0. 0. 0. 1.57232699e-003
      1.57232699e-003 0. 0. 0. 0. 0. 0. 1.57232699e-003 1.57232699e-003
      3.14465398e-003 0. 0. 6.28930796e-003 0. 1.57232699e-003
      1.57232699e-003 0. 1.57232699e-003 0. 0. 4.71698120e-003 0. 0.
      1.57232699e-003 4.71698120e-003 0. 0. 1.57232699e-003
      1.57232699e-003 1.57232699e-003 0. 0. 0. 0. 3.14465398e-003 0.
      3.14465398e-003 0. 1.57232699e-003 0. 0. 0. 0. 1.57232699e-003 0.
      0. 1.57232699e-003 0. 0. 3.14465398e-003 4.71698120e-003 0.
      3.14465398e-003 9.43396240e-003 0. 0. 0. 0. 0. 3.14465398e-003 0.
      0. 3.14465398e-003 3.14465398e-003 9.43396240e-003 1.57232699e-003
      4.71698120e-003 1.57232699e-003 0. 0. 0. 0. 0. 0. 4.71698120e-003
      0. 1.57232699e-003 1.57232699e-003 0. 0. 0. 1.57232699e-003 0. 0.
      3.14465398e-003 1.57232699e-003 1.57232699e-003 4.71698120e-003 0.
      0. 0. 0. 0. 3.14465398e-003 1.57232699e-003 3.14465398e-003 0.
      1.57232699e-003 0. 0. 0. 1.57232699e-003 0. 0. 0. 1.57232699e-003
      0. 0. 1.57232699e-003 0. 0. 0. 3.14465398e-003 1.57232699e-003 0.
      1.57232699e-003 0. 0. 1.57232699e-003 0. 0. 3.14465398e-003 0. 0.
      3.14465398e-003 4.71698120e-003 0. 3.14465398e-003 0.
      4.71698120e-003 0. 3.14465398e-003 0. 0. 0. 0. 0. 0. 0.
      3.14465398e-003 1.57232699e-003 1.57232699e-003 3.14465398e-003 0.
      0. 0. 0. 0. 0. 0. 0. 1.57232699e-003 0. 3.14465398e-003 0. 0.
      1.57232699e-003 1.57232699e-003 0. 3.14465398e-003 0. 0. 0.
      3.14465398e-003 0. 0. 0. 0. 0. 0. 1.57232699e-003 0. 0. 0. 0. 0.
      0. 3.14465398e-003 0. 0. 0. 0. 3.14465398e-003 0. 1.57232699e-003
      1.57232699e-003 0. 1.57232699e-003 0. 0. 0. 1.57232699e-003 0. 0.
      0. 0. 0. 1.57232699e-003 1.57232699e-003 0. 0. 1.57232699e-003 0.
      0. 0. 0. 0. 3.14465398e-003 0. 0. 3.14465398e-003 1.57232699e-003
      0. 0. 3.14465398e-003 0. 0. 0. 1.57232699e-003 1.57232699e-003
      1.57232699e-003 4.71698120e-003 3.14465398e-003 0. 3.14465398e-003
      0. 0. 1.57232699e-003 3.14465398e-003 0. 0. 0. 0. 0. 0. 0. 0.
      1.57232699e-003 0. 1.57232699e-003 0. 0. 0. 0. 0. 1.57232699e-003
      0. 0. 0. 0. 0. 0. 0. 0. 4.71698120e-003 0. 0. 0. 0. 0.
      3.14465398e-003 0. 0. 0. 0. 0. 1.57232699e-003 1.57232699e-003 0.
      1.57232699e-003 0. 0. 0. 0. 0. 0. 1.57232699e-003 0. 0.
      3.14465398e-003 0. 0. 3.14465398e-003 1.57232699e-003 0.
      1.57232699e-003 0. 0. 0. 1.57232699e-003 0. 1.57232699e-003 0. 0.
      0. 0. 0. 0. 0. 0. 1.57232699e-003 1.57232699e-003 0. 0. 0. 0. 0.
      0. 0. 0. 3.14465398e-003 0. 3.14465398e-003 0. 0. 0. 0. 0.
      1.57232699e-003 0. 1.57232699e-003 0. 1.57232699e-003 0. 0. 0.
      1.57232699e-003 3.14465398e-003 1.57232699e-003 0. 0. 0. 0. 0. 0.
      0. 1.57232699e-003</_>
    <_>
      3.63636366e-003 0. 1.21212122e-003 2.42424244e-003 1.21212117e-002
      0. 1.21212122e-003 1.21212122e-003 0. 3.63636366e-003 0.
      3.63636366e-003 0. 0. 0. 0. 0. 1.21212122e-003 0. 1.21212122e-003
      0. 0. 2.42424244e-003 2.42424244e-003 0. 0. 0. 0. 2.42424244e-003
      2.42424244e-003 0. 0. 2.42424244e-003 0. 2.42424244e-003 0.
      2.42424244e-003 2.42424244e-003 1.21212122e-003 0. 1.21212122e-003
      2.42424244e-003 0. 0. 2.42424244e-003 3.63636366e-003 0. 0. 0. 0.
      1.21212122e-003 1.21212122e-003 0. 2.42424244e-003 1.21212122e-003
      1.21212122e-003 0. 2.42424244e-003 6.06060587e-003 1.21212122e-003
      0. 0. 0. 0. 0. 0. 1.21212122e-003 1.21212122e-003 2.42424244e-003
      3.63636366e-003 1.21212122e-003 0. 4.84848488e-003 2.42424244e-003
      0. 0. 0. 1.21212122e-003 1.21212122e-003 0. 1.21212122e-003 0.
      1.21212122e-003 1.21212122e-003 0. 0. 0. 0. 0. 0. 1.21212122e-003
      0. 0. 0. 0. 1.21212122e-003 3.63636366e-003 0. 0. 2.42424244e-003
      1.21212122e-003 1.21212122e-003 3.63636366e-003 3.63636366e-003
      2.42424244e-003 1.21212122e-003 1.21212122e-003 3.63636366e-003
      3.63636366e-003 1.21212122e-003 0. 0. 0. 0. 1.21212122e-003 0.
      1.21212122e-003 4.84848488e-003 0. 0. 0. 0. 4.84848488e-003 0. 0.
      0. 1.21212122e-003 1.21212122e-003 0. 2.42424244e-003 0.
      2.42424244e-003 6.06060587e-003 1.21212122e-003 1.21212122e-003 0.
      1.21212122e-003 3.63636366e-003 0. 0. 8.48484877e-003
      2.42424244e-003 0. 0. 0. 1.21212122e-003 4.84848488e-003 0.
      3.63636366e-003 0. 0. 0. 0. 2.42424244e-003 1.21212122e-003 0. 0.
      1.21212122e-003 1.21212122e-003 0. 0. 0. 0. 0. 1.21212122e-003
      2.42424244e-003 0. 3.63636366e-003 0. 0. 0. 1.21212122e-003
      2.42424244e-003 0. 1.21212122e-003 4.84848488e-003 0.
      2.42424244e-003 1.21212122e-003 3.63636366e-003 0. 0. 0. 0.
      2.42424244e-003 0. 0. 0. 0. 1.21212122e-003 0. 0. 0. 0. 0. 0.
      2.42424244e-003 0. 1.21212122e-003 0. 0. 1.21212122e-003 0.
      1.21212122e-003 1.21212122e-003 0. 0. 0. 0. 0. 0. 0. 0. 0. 0.
      1.21212122e-003 0. 1.21212122e-003 0. 0. 3.63636366e-003 0.
      3.63636366e-003 1.21212122e-003 2.42424244e-003 2.42424244e-003 0.
      3.63636366e-003 1.21212122e-003 0. 2.42424244e-003 6.06060587e-003
      0. 4.84848488e-003 2.42424244e-003 1.21212122e-003 0. 0. 0. 0.
      2.42424244e-003 0. 0. 0. 1.21212122e-003 1.21212122e-003 0.
      2.42424244e-003 0. 0. 0. 2.42424244e-003 0. 0. 3.63636366e-003 0.
      3.63636366e-003 1.21212122e-003 3.63636366e-003 0. 0.
      1.21212122e-003 1.21212122e-003 0. 0. 4.84848488e-003
      1.21212122e-003 1.21212122e-003 3.63636366e-003 4.84848488e-003
      1.21212122e-003 4.84848488e-003 1.21212122e-003 0. 0.
      4.84848488e-003 0. 0. 0. 2.42424244e-003 0. 3.63636366e-003 0. 0.
      2.42424244e-003 0. 0. 0. 0. 1.21212122e-003 0. 0. 1.21212122e-003
      1.21212122e-003 0. 1.09090907e-002 0. 0. 0. 0. 0. 1.21212122e-003
      2.42424244e-003 0. 2.42424244e-003 0. 0. 0. 0. 3.63636366e-003
      2.42424244e-003 0. 0. 1.21212122e-003 0. 1.21212122e-003
      1.21212122e-003 1.21212122e-003 0. 0. 0. 0. 0. 1.21212122e-003
      1.21212122e-003 6.06060587e-003 0. 0. 0. 2.42424244e-003 0. 0.
      1.21212122e-003 3.63636366e-003 0. 1.21212122e-003 4.84848488e-003
      2.42424244e-003 2.42424244e-003 0. 0. 0. 0. 1.21212122e-003 0.
      2.42424244e-003 0. 1.21212122e-003 2.42424244e-003 0.
      2.42424244e-003 0. 2.42424244e-003 0. 1.21212122e-003 0.
      1.09090907e-002 1.21212122e-003 0. 0. 1.21212122e-003
      3.63636366e-003 1.21212122e-003 0. 0. 0. 3.63636366e-003 0.
      6.06060587e-003 6.06060587e-003 2.42424244e-003 2.42424244e-003
      2.42424244e-003 0. 2.42424244e-003 1.21212122e-003 0.
      1.21212122e-003 0. 4.84848488e-003 1.21212122e-003 0.
      4.84848488e-003 2.42424244e-003 1.21212122e-003 0. 4.84848488e-003
      2.42424244e-003 0. 0. 0. 1.21212122e-003 1.21212122e-003
      1.21212122e-003 0. 9.69696976e-003 2.42424244e-003 0.
      2.42424244e-003 0. 2.42424244e-003 0. 0. 2.42424244e-003 0.
      8.48484877e-003 0. 0. 0. 0. 3.63636366e-003 0. 2.42424244e-003 0.
      0. 1.21212122e-003 0. 0. 1.21212122e-003 0. 0. 2.42424244e-003
      3.63636366e-003 0. 0. 0. 2.42424244e-003 0. 3.63636366e-003 0.
      1.21212122e-003 0. 0. 0. 2.42424244e-003 0. 0. 1.21212122e-003 0.
      0. 0. 0. 0. 0. 1.21212122e-003 0. 0. 0. 1.21212122e-003 0. 0.
      2.42424244e-003 0. 1.21212122e-003 0. 0. 0. 2.42424244e-003
      1.21212122e-003 0. 0. 0. 4.84848488e-003 0. 1.21212122e-003 0. 0.
      0. 0. 2.42424244e-003 0. 1.21212122e-003 0. 1.21212122e-003
      3.63636366e-003 3.63636366e-003 0. 0. 0. 0. 0. 0. 0. 0. 0. 0. 0.
      1.21212122e-003 3.63636366e-003 0. 0. 1.21212122e-003
      3.63636366e-003 0. 0. 0. 2.42424244e-003 0. 0. 0. 0. 0. 0. 0.
      6.06060587e-003 0. 0. 0. 1.21212122e-003 1.21212122e-003 0.
      3.63636366e-003 0. 0. 1.21212122e-003 4.84848488e-003
      1.21212122e-003 1.21212122e-003 1.21212122e-003 3.63636366e-003
      1.21212122e-003 1.21212122e-003 2.42424244e-003 0. 0.
      1.21212122e-003 0. 1.21212122e-003 2.42424244e-003 0.
      2.42424244e-003 0. 1.21212122e-003 0. 1.21212122e-003 0. 0.
      2.42424244e-003 0. 0. 2.42424244e-003 2.42424244e-003 0.
      1.21212122e-003 0. 0. 1.21212122e-003 0. 0. 0. 1.21212122e-003
      1.21212122e-003 2.42424244e-003 0. 0. 0. 3.63636366e-003
      1.21212122e-003 1.21212122e-003 0. 2.42424244e-003 1.21212122e-003
      0. 0. 0. 0. 2.42424244e-003 0. 3.63636366e-003 2.42424244e-003 0.
      0. 1.21212122e-003 0. 0. 0. 0. 0. 1.21212122e-003 0.
      2.42424244e-003 1.21212122e-003 0. 0. 3.63636366e-003 0. 0. 0. 0.
      1.21212122e-003 0. 1.21212122e-003 1.21212122e-003 1.21212122e-003
      0. 2.42424244e-003 0. 0. 0. 0. 1.21212122e-003 0. 0. 0. 0. 0.
      2.42424244e-003 0. 4.84848488e-003 3.63636366e-003 0.
      1.21212122e-003 0. 0. 2.42424244e-003 1.21212122e-003 0.
      1.21212122e-003 0. 2.42424244e-003 0. 2.42424244e-003
      2.42424244e-003 2.42424244e-003 0. 1.21212122e-003 0. 0.
      1.21212122e-003 1.21212122e-003 0. 0. 1.21212122e-003
      1.21212122e-003 0. 1.21212122e-003 1.21212122e-003 1.21212122e-003
      0. 0. 2.42424244e-003 2.42424244e-003 0. 0. 0. 3.63636366e-003
      1.21212122e-003 1.21212122e-003 2.42424244e-003 1.21212122e-003 0.
      1.21212122e-003 0. 3.63636366e-003 2.42424244e-003 0. 0.
      1.21212122e-003 1.21212122e-003 0. 0. 1.21212122e-003
      1.21212122e-003 4.84848488e-003 0. 1.21212122e-003 0. 0. 0.
      1.21212122e-003 1.21212122e-003 0. 0. 0. 2.42424244e-003 0.
      1.21212122e-003 0. 1.21212122e-003 0. 0. 0. 1.21212122e-003
      6.06060587e-003 1.21212122e-003 2.42424244e-003 1.21212122e-003
      4.84848488e-003 0. 0. 1.21212122e-003 1.21212122e-003
      3.63636366e-003 3.63636366e-003 0. 1.21212122e-003 0.
      2.42424244e-003 0. 1.21212122e-003 1.21212122e-003 0. 0.
      1.21212122e-003 0. 0. 0. 0. 0. 2.42424244e-003 1.21212122e-003 0.
      2.42424244e-003 1.21212122e-003 0. 1.21212122e-003 8.48484877e-003
      0. 0. 0. 0. 0. 3.63636366e-003 0. 1.21212122e-003 4.84848488e-003
      2.42424244e-003 4.84848488e-003 0. 1.21212122e-003 2.42424244e-003
      1.21212122e-003 0. 0. 0. 0. 0. 0. 0. 0. 0. 2.42424244e-003 0. 0.
      1.21212122e-003 1.21212122e-003 1.21212122e-003 3.63636366e-003 0.
      0. 1.21212122e-003 1.21212122e-003 0. 0. 0. 2.42424244e-003
      1.21212122e-003 1.21212122e-003 1.21212122e-003 0. 1.21212122e-003
      0. 0. 0. 1.21212122e-003 2.42424244e-003 1.21212122e-003 0.
      4.84848488e-003 0. 0. 3.63636366e-003 0. 1.21212122e-003 0. 0.
      1.21212122e-003 1.21212122e-003 1.21212122e-003 0. 0.
      3.63636366e-003 0. 0. 7.27272732e-003 0. 0. 0. 2.42424244e-003 0.
      2.42424244e-003 0. 1.21212122e-003 0. 3.63636366e-003 0.
      1.21212122e-003 0. 1.21212122e-003 0. 0. 0. 2.42424244e-003
      2.42424244e-003 2.42424244e-003 6.06060587e-003 0. 0. 0. 0. 0. 0.
      0. 0. 1.21212122e-003 0. 1.21212122e-003 0. 0. 0. 2.42424244e-003
      1.21212122e-003 0. 1.21212122e-003 1.21212122e-003 0.
      4.84848488e-003 1.21212122e-003 0. 0. 0. 1.21212122e-003 0. 0. 0.
      0. 0. 0. 0. 0. 1.21212122e-003 0. 0. 0. 0. 3.63636366e-003 0. 0.
      1.21212122e-003 0. 1.21212122e-003 0. 0. 1.21212122e-003
      2.42424244e-003 1.21212122e-003 0. 0. 0. 0. 0. 0. 0.
      2.42424244e-003 1.21212122e-003 0. 0. 0. 0. 0. 1.21212122e-003
      1.21212122e-003 2.42424244e-003 4.84848488e-003 1.21212122e-003 0.
      0. 0. 0. 1.21212122e-003 0. 1.21212122e-003 0. 1.21212122e-003
      7.27272732e-003 1.21212122e-003 0. 2.42424244e-003 0. 0. 0.
      3.63636366e-003 0. 0. 0. 1.21212122e-003 0. 0. 0. 0.
      1.21212122e-003 0. 1.21212122e-003 0. 1.21212122e-003 0.
      1.21212122e-003 0. 0. 0. 2.42424244e-003 2.42424244e-003
      1.21212122e-003 0. 2.42424244e-003 0. 0. 1.21212122e-003 0.
      2.42424244e-003 1.21212122e-003 0. 0. 1.21212122e-003 0. 0. 0. 0.
      0. 1.21212122e-003 0. 0. 0. 1.21212122e-003 0. 0. 0. 0. 0. 0. 0.
      0. 0. 0. 0. 0. 1.21212122e-003 1.21212122e-003 3.63636366e-003
      2.42424244e-003 0. 0. 2.42424244e-003 0. 3.63636366e-003 0.
      1.21212122e-003 2.42424244e-003 0. 0. 0. 0. 1.21212122e-003 0. 0.
      0. 1.21212122e-003 1.21212122e-003 0. 1.21212122e-003 0. 0. 0.
      4.84848488e-003 0. 3.63636366e-003 0. 0. 0. 0. 0. 0. 0.
      1.21212122e-003 0. 0. 0. 1.21212122e-003 0. 1.21212122e-003
      3.63636366e-003 0. 0. 0. 0. 0. 0. 0. 0. 1.21212122e-003</_>
    <_>
      1.36425649e-003 0. 4.09276970e-003 0. 8.18553939e-003 0.
      1.36425649e-003 0. 0. 2.72851298e-003 2.72851298e-003
      2.72851298e-003 1.36425649e-003 1.36425649e-003 0. 0. 0.
      4.09276970e-003 1.36425649e-003 0. 0. 0. 2.72851298e-003 0.
      1.36425649e-003 0. 0. 0. 1.36425649e-003 1.36425649e-003
      1.36425649e-003 0. 0. 1.36425649e-003 2.72851298e-003 0.
      2.72851298e-003 2.72851298e-003 1.36425649e-003 1.36425649e-003 0.
      2.72851298e-003 0. 0. 0. 1.36425649e-003 0. 0. 0. 0. 0.
      1.36425649e-003 0. 1.36425649e-003 0. 1.36425649e-003 0.
      1.36425649e-003 4.09276970e-003 0. 0. 0. 2.72851298e-003
      1.36425649e-003 0. 0. 1.36425649e-003 0. 6.82128221e-003
      1.36425649e-003 4.09276970e-003 0. 0. 4.09276970e-003 0. 0.
      1.36425649e-003 0. 0. 0. 4.09276970e-003 1.36425649e-003
      1.36425649e-003 2.72851298e-003 0. 0. 0. 0. 0. 0. 0.
      4.09276970e-003 0. 1.36425649e-003 0. 2.72851298e-003
      1.36425649e-003 0. 0. 2.72851298e-003 0. 1.36425649e-003
      2.72851298e-003 4.09276970e-003 0. 4.09276970e-003 0. 0.
      2.72851298e-003 0. 0. 0. 2.72851298e-003 0. 0. 2.72851298e-003
      1.36425649e-003 5.45702595e-003 0. 0. 0. 0. 2.72851298e-003 0. 0.
      1.36425649e-003 1.36425649e-003 0. 0. 1.36425649e-003 0.
      1.36425649e-003 1.36425649e-003 4.09276970e-003 0. 2.72851298e-003
      1.36425649e-003 0. 0. 1.36425649e-003 6.82128221e-003 0. 0. 0. 0.
      1.36425649e-003 6.82128221e-003 0. 8.18553939e-003 0. 0.
      1.36425649e-003 0. 2.72851298e-003 0. 0. 0. 1.36425649e-003
      1.36425649e-003 1.36425649e-003 1.36425649e-003 2.72851298e-003 0.
      0. 2.72851298e-003 0. 0. 4.09276970e-003 0. 0. 0. 0. 0. 0. 0.
      4.09276970e-003 0. 0. 0. 2.72851298e-003 1.36425649e-003 0. 0. 0.
      8.18553939e-003 0. 0. 0. 2.72851298e-003 0. 0. 0. 1.36425649e-003
      0. 0. 0. 0. 0. 0. 0. 0. 1.36425649e-003 0. 1.36425649e-003 0. 0.
      0. 0. 1.36425649e-003 0. 1.36425649e-003 1.36425649e-003 0.
      1.36425649e-003 0. 0. 0. 5.45702595e-003 0. 0. 2.72851298e-003 0.
      2.72851298e-003 0. 4.09276970e-003 0. 1.36425649e-003
      4.09276970e-003 1.36425649e-003 0. 2.72851298e-003 2.72851298e-003
      2.72851298e-003 8.18553939e-003 2.72851298e-003 0. 0. 0. 0. 0. 0.
      0. 0. 0. 6.82128221e-003 1.36425649e-003 0. 1.36425649e-003 0. 0.
      0. 2.72851298e-003 0. 1.36425649e-003 5.45702595e-003 0.
      1.36425649e-003 1.36425649e-003 0. 0. 0. 1.36425649e-003
      2.72851298e-003 0. 0. 2.72851298e-003 4.09276970e-003
      2.72851298e-003 4.09276970e-003 4.09276970e-003 1.36425649e-003
      1.36425649e-003 0. 1.36425649e-003 2.72851298e-003 2.72851298e-003
      0. 0. 0. 1.36425649e-003 0. 2.72851298e-003 0. 0. 5.45702595e-003
      0. 0. 0. 1.36425649e-003 0. 0. 1.36425649e-003 0. 0. 0.
      6.82128221e-003 0. 0. 0. 0. 1.36425649e-003 1.36425649e-003
      2.72851298e-003 0. 2.72851298e-003 0. 0. 0. 0. 5.45702595e-003
      8.18553939e-003 0. 0. 0. 1.36425649e-003 1.36425649e-003 0.
      1.36425649e-003 1.36425649e-003 0. 0. 0. 0. 0. 0. 2.72851298e-003
      0. 0. 0. 2.72851298e-003 0. 0. 0. 4.09276970e-003 0. 0.
      6.82128221e-003 2.72851298e-003 2.72851298e-003 0. 0. 0. 0.
      1.36425649e-003 0. 0. 0. 1.36425649e-003 2.72851298e-003
      1.36425649e-003 2.72851298e-003 0. 1.63710788e-002 0. 0.
      1.36425649e-003 4.09276970e-003 1.36425649e-003 1.36425649e-003 0.
      0. 5.45702595e-003 0. 0. 2.72851298e-003 0. 2.72851298e-003
      2.72851298e-003 5.45702595e-003 2.72851298e-003 2.72851298e-003
      2.72851298e-003 1.36425649e-003 0. 1.36425649e-003 0. 0.
      4.09276970e-003 0. 1.09140519e-002 0. 0. 0. 0. 1.36425649e-003 0.
      2.72851298e-003 1.36425649e-003 0. 0. 1.36425649e-003 0. 0.
      4.09276970e-003 1.36425649e-003 1.36425649e-003 0. 0.
      5.45702595e-003 0. 1.36425649e-003 0. 0. 1.36425649e-003 0.
      6.82128221e-003 0. 0. 1.36425649e-003 2.72851298e-003
      4.09276970e-003 1.36425649e-003 2.72851298e-003 0. 2.72851298e-003
      0. 0. 0. 0. 0. 0. 2.72851298e-003 2.72851298e-003 0. 0. 0.
      2.72851298e-003 0. 4.09276970e-003 0. 0. 2.72851298e-003 0. 0.
      5.45702595e-003 0. 0. 2.72851298e-003 0. 0. 0. 0. 5.45702595e-003
      0. 0. 0. 0. 0. 0. 0. 0. 1.36425649e-003 0. 0. 0. 0. 0.
      5.45702595e-003 0. 0. 0. 0. 0. 0. 0. 0. 0. 1.36425649e-003
      1.36425649e-003 1.36425649e-003 1.36425649e-003 0. 0. 0.
      4.09276970e-003 1.36425649e-003 4.09276970e-003 1.36425649e-003 0.
      0. 0. 2.72851298e-003 0. 1.36425649e-003 0. 0. 0. 1.36425649e-003
      2.72851298e-003 0. 0. 1.36425649e-003 2.72851298e-003 0. 0. 0. 0.
      0. 0. 0. 0. 0. 0. 0. 1.36425649e-003 0. 1.36425649e-003 0. 0.
      1.36425649e-003 0. 4.09276970e-003 2.72851298e-003 0.
      2.72851298e-003 8.18553939e-003 4.09276970e-003 0. 0.
      2.72851298e-003 0. 0. 1.36425649e-003 0. 0. 0. 0. 0.
      1.36425649e-003 1.36425649e-003 2.72851298e-003 0. 0. 0. 0.
      1.36425649e-003 2.72851298e-003 1.36425649e-003 1.36425649e-003 0.
      0. 1.36425649e-003 1.36425649e-003 0. 0. 0. 1.36425649e-003 0. 0.
      0. 0. 1.36425649e-003 1.36425649e-003 0. 0. 0. 6.82128221e-003 0.
      2.72851298e-003 1.36425649e-003 0. 4.09276970e-003 0. 0. 0. 0.
      1.36425649e-003 0. 0. 4.09276970e-003 0. 0. 0. 0. 0. 0.
      1.36425649e-003 0. 0. 2.72851298e-003 1.36425649e-003
      1.36425649e-003 0. 0. 0. 1.36425649e-003 1.36425649e-003
      1.36425649e-003 1.36425649e-003 6.82128221e-003 0. 0.
      5.45702595e-003 1.36425649e-003 0. 2.72851298e-003 2.72851298e-003
      0. 0. 0. 0. 0. 2.72851298e-003 0. 0. 0. 0. 0. 5.45702595e-003
      2.72851298e-003 0. 0. 0. 0. 4.09276970e-003 0. 0. 0.
      2.72851298e-003 2.72851298e-003 0. 0. 2.72851298e-003 0. 0.
      1.36425649e-003 0. 0. 0. 1.36425649e-003 0. 0. 0. 1.36425649e-003
      0. 0. 2.72851298e-003 0. 0. 0. 1.36425649e-003 2.72851298e-003 0.
      0. 0. 1.36425649e-003 1.36425649e-003 0. 1.36425649e-003 0. 0. 0.
      0. 0. 1.36425649e-003 0. 0. 0. 0. 0. 0. 0. 2.72851298e-003
      4.09276970e-003 0. 0. 0. 0. 0. 0. 1.36425649e-003 1.36425649e-003
      1.36425649e-003 0. 0. 1.36425649e-003 1.36425649e-003
      2.72851298e-003 0. 0. 1.36425649e-003 0. 1.36425649e-003
      6.82128221e-003 1.36425649e-003 1.36425649e-003 1.36425649e-003
      6.82128221e-003 0. 0. 0. 4.09276970e-003 1.36425649e-003
      1.36425649e-003 0. 0. 0. 1.36425649e-003 0. 2.72851298e-003
      1.36425649e-003 1.36425649e-003 0. 0. 0. 1.36425649e-003
      2.72851298e-003 0. 0. 4.09276970e-003 0. 0. 1.36425649e-003
      2.72851298e-003 0. 1.36425649e-003 9.54979565e-003 0.
      1.36425649e-003 1.36425649e-003 0. 0. 0. 0. 0. 2.72851298e-003
      5.45702595e-003 4.09276970e-003 0. 2.72851298e-003 0.
      2.72851298e-003 0. 0. 0. 0. 0. 1.36425649e-003 0. 1.36425649e-003
      0. 1.36425649e-003 1.36425649e-003 0. 1.36425649e-003 0. 0.
      1.36425649e-003 2.72851298e-003 0. 1.36425649e-003 0. 0.
      1.36425649e-003 1.36425649e-003 1.36425649e-003 2.72851298e-003 0.
      4.09276970e-003 0. 1.36425649e-003 0. 0. 1.36425649e-003
      1.36425649e-003 1.36425649e-003 0. 0. 5.45702595e-003 0. 0. 0.
      1.36425649e-003 0. 0. 0. 0. 0. 1.36425649e-003 0. 0.
      2.72851298e-003 0. 0. 2.72851298e-003 0. 0. 0. 2.72851298e-003 0.
      4.09276970e-003 0. 1.36425649e-003 4.09276970e-003 1.36425649e-003
      0. 0. 0. 1.36425649e-003 0. 0. 0. 1.36425649e-003 4.09276970e-003
      2.72851298e-003 5.45702595e-003 0. 0. 0. 0. 0. 2.72851298e-003 0.
      0. 0. 1.36425649e-003 1.36425649e-003 0. 1.36425649e-003 0.
      2.72851298e-003 1.36425649e-003 0. 1.36425649e-003 1.36425649e-003
      0. 4.09276970e-003 0. 0. 0. 0. 0. 0. 0. 0. 0. 0. 0. 0. 0.
      1.36425649e-003 0. 0. 0. 0. 4.09276970e-003 0. 1.36425649e-003 0.
      0. 0. 0. 0. 1.36425649e-003 1.36425649e-003 2.72851298e-003 0. 0.
      0. 0. 0. 0. 0. 2.72851298e-003 1.36425649e-003 0. 0. 0. 0. 0.
      1.36425649e-003 0. 0. 2.72851298e-003 0. 0. 0. 1.36425649e-003 0.
      0. 0. 2.72851298e-003 1.36425649e-003 5.45702595e-003
      2.72851298e-003 4.09276970e-003 0. 0. 0. 0. 0. 2.72851298e-003
      1.36425649e-003 1.36425649e-003 1.36425649e-003 2.72851298e-003 0.
      2.72851298e-003 0. 0. 0. 1.36425649e-003 2.72851298e-003 0.
      1.36425649e-003 0. 0. 0. 1.36425649e-003 0. 0. 1.36425649e-003 0.
      0. 2.72851298e-003 0. 0. 0. 0. 2.72851298e-003 0. 0.
      1.36425649e-003 1.36425649e-003 0. 1.36425649e-003 0. 0. 0.
      2.72851298e-003 4.09276970e-003 0. 0. 0. 0. 0. 0. 0. 0. 0. 0. 0.
      1.36425649e-003 1.36425649e-003 0. 1.36425649e-003 1.36425649e-003
      1.36425649e-003 0. 0. 0. 0. 0. 0. 0. 0. 0. 2.72851298e-003 0. 0.
      0. 0. 0. 0. 1.36425649e-003 0. 0. 0. 0. 0. 0. 0. 0.
      4.09276970e-003 0. 1.36425649e-003 0. 0. 0. 0. 0. 0. 0.
      1.36425649e-003 0. 0. 0. 0. 0. 1.36425649e-003 1.36425649e-003
      2.72851298e-003 0. 0. 0. 0. 0. 0. 1.36425649e-003 0.</_>
    <_>
      0. 0. 0. 2.17864919e-003 4.35729837e-003 0. 2.17864919e-003 0. 0.
      2.17864919e-003 0. 0. 0. 6.53594732e-003 0. 0. 2.17864919e-003
      4.35729837e-003 4.35729837e-003 2.17864919e-003 2.17864919e-003 0.
      4.35729837e-003 4.35729837e-003 0. 2.17864919e-003 4.35729837e-003
      0. 2.17864919e-003 0. 6.53594732e-003 0. 4.35729837e-003
      4.35729837e-003 2.17864919e-003 0. 0. 2.17864919e-003 0. 0. 0. 0.
      0. 2.17864919e-003 0. 6.53594732e-003 0. 0. 0. 2.17864919e-003 0.
      0. 0. 0. 0. 2.17864919e-003 2.17864919e-003 2.17864919e-003
      4.35729837e-003 0. 0. 4.35729837e-003 2.17864919e-003 0. 0. 0.
      4.35729837e-003 2.17864919e-003 0. 4.35729837e-003 0. 0. 0.
      2.17864919e-003 2.17864919e-003 0. 2.17864919e-003 0. 0. 0.
      4.35729837e-003 2.17864919e-003 0. 0. 0. 0. 0. 0. 0. 0.
      2.17864919e-003 0. 0. 2.17864919e-003 0. 0. 4.35729837e-003
      2.17864919e-003 0. 2.17864919e-003 2.17864919e-003 0.
      2.17864919e-003 2.17864919e-003 2.17864919e-003 2.17864919e-003
      2.17864919e-003 0. 0. 0. 0. 2.17864919e-003 2.17864919e-003 0.
      2.17864919e-003 0. 0. 0. 0. 0. 0. 0. 8.71459674e-003
      2.17864919e-003 0. 0. 0. 4.35729837e-003 0. 0. 2.17864919e-003 0.
      4.35729837e-003 0. 0. 0. 2.17864919e-003 2.17864919e-003 0. 0.
      2.17864919e-003 2.17864919e-003 0. 2.17864919e-003 0. 0.
      2.17864919e-003 0. 0. 0. 0. 0. 0. 0. 0. 0. 0. 0. 4.35729837e-003
      0. 2.17864919e-003 0. 2.17864919e-003 0. 0. 0. 0. 0. 0. 0.
      4.35729837e-003 0. 6.53594732e-003 0. 2.17864919e-003 0. 0.
      2.17864919e-003 2.17864919e-003 2.17864919e-003 2.17864919e-003
      2.17864919e-003 0. 0. 8.71459674e-003 2.17864919e-003 0. 0. 0. 0.
      4.35729837e-003 0. 0. 6.53594732e-003 0. 4.35729837e-003
      2.17864919e-003 2.17864919e-003 0. 2.17864919e-003 0.
      4.35729837e-003 0. 4.35729837e-003 0. 0. 0. 0. 2.17864919e-003 0.
      0. 0. 0. 0. 0. 0. 0. 0. 0. 0. 2.17864919e-003 0. 0. 0. 0. 0. 0.
      2.17864919e-003 0. 0. 4.35729837e-003 0. 2.17864919e-003
      2.17864919e-003 2.17864919e-003 0. 0. 0. 0. 0. 8.71459674e-003 0.
      0. 0. 0. 0. 0. 8.71459674e-003 0. 0. 2.17864919e-003 0. 0. 0.
      6.53594732e-003 0. 4.35729837e-003 0. 0. 0. 0. 0. 4.35729837e-003
      0. 0. 0. 2.17864919e-003 2.17864919e-003 0. 0. 2.17864919e-003 0.
      0. 0. 0. 0. 0. 0. 0. 2.17864919e-003 0. 2.17864919e-003 0.
      4.35729837e-003 2.17864919e-003 2.17864919e-003 0. 0. 0. 0. 0. 0.
      0. 0. 2.17864919e-003 4.35729837e-003 0. 0. 0. 2.17864919e-003 0.
      2.17864919e-003 0. 0. 6.53594732e-003 6.53594732e-003 0.
      2.17864919e-003 0. 2.17864919e-003 6.53594732e-003 0. 0. 0. 0. 0.
      0. 2.17864919e-003 0. 0. 0. 0. 0. 0. 0. 0. 0. 0. 0. 0. 0. 0. 0.
      2.17864919e-003 0. 0. 8.71459674e-003 0. 2.17864919e-003
      2.17864919e-003 0. 0. 0. 0. 4.35729837e-003 0. 0. 4.35729837e-003
      0. 0. 0. 0. 4.35729837e-003 0. 0. 2.17864919e-003 4.35729837e-003
      0. 0. 0. 0. 2.17864919e-003 0. 2.17864919e-003 0. 0.
      4.35729837e-003 0. 0. 2.17864919e-003 2.17864919e-003 0.
      4.35729837e-003 0. 0. 2.17864919e-003 0. 0. 0. 2.17864919e-003 0.
      2.17864919e-003 0. 0. 4.35729837e-003 0. 4.35729837e-003 0. 0. 0.
      2.17864919e-003 2.17864919e-003 2.17864919e-003 3.70370373e-002
      2.17864919e-003 6.53594732e-003 0. 0. 0. 0. 2.17864919e-003 0. 0.
      2.17864919e-003 0. 4.35729837e-003 0. 0. 0. 2.17864919e-003 0.
      2.17864919e-003 4.35729837e-003 0. 2.17864919e-003 4.35729837e-003
      0. 0. 0. 0. 0. 0. 2.17864919e-003 0. 0. 2.17864919e-003
      6.53594732e-003 0. 4.35729837e-003 0. 2.17864919e-003
      2.17864919e-003 0. 0. 0. 0. 2.17864919e-003 0. 0. 0. 0. 0. 0. 0.
      0. 0. 0. 0. 0. 4.35729837e-003 2.17864919e-003 0. 0. 0. 0. 0. 0.
      0. 0. 0. 0. 2.17864919e-003 0. 0. 0. 0. 0. 0. 2.17864919e-003
      2.17864919e-003 0. 2.17864919e-003 0. 0. 2.17864919e-003
      1.30718946e-002 0. 0. 0. 0. 2.17864919e-003 0. 0. 0. 0. 0.
      2.17864919e-003 0. 2.17864919e-003 0. 0. 0. 0. 2.17864919e-003 0.
      2.17864919e-003 0. 4.35729837e-003 0. 0. 0. 0. 0. 0. 0. 0. 0. 0.
      2.17864919e-003 0. 2.17864919e-003 2.17864919e-003 2.17864919e-003
      0. 0. 2.17864919e-003 4.35729837e-003 2.17864919e-003 0. 0.
      4.35729837e-003 0. 2.17864919e-003 0. 0. 0. 0. 0. 0. 0. 0. 0. 0.
      0. 0. 6.53594732e-003 0. 2.17864919e-003 6.53594732e-003 0. 0. 0.
      0. 0. 0. 0. 0. 4.35729837e-003 0. 2.17864919e-003 0. 0.
      2.17864919e-003 2.17864919e-003 0. 4.35729837e-003 0. 0.
      2.17864919e-003 0. 0. 0. 0. 0. 0. 0. 0. 0. 2.17864919e-003
      2.17864919e-003 0. 4.35729837e-003 0. 0. 0. 0. 0. 0.
      2.17864919e-003 0. 0. 4.35729837e-003 0. 0. 0. 0. 0. 0.
      2.17864919e-003 0. 0. 2.17864919e-003 2.17864919e-003 0. 0.
      4.35729837e-003 0. 0. 0. 0. 0. 0. 0. 2.17864919e-003 0. 0. 0. 0.
      4.35729837e-003 0. 0. 0. 0. 0. 0. 0. 0. 0. 0. 0. 0. 0.
      2.17864919e-003 0. 0. 2.17864919e-003 0. 0. 0. 2.17864919e-003
      2.17864919e-003 0. 2.17864919e-003 0. 0. 0. 0. 0. 0. 0. 0. 0. 0.
      0. 0. 2.17864919e-003 4.35729837e-003 0. 4.35729837e-003
      4.35729837e-003 0. 0. 4.35729837e-003 2.17864919e-003
      2.17864919e-003 0. 2.17864919e-003 0. 0. 0. 0. 0. 0.
      1.08932462e-002 0. 2.17864919e-003 0. 0. 2.17864919e-003 0. 0.
      6.53594732e-003 0. 0. 0. 2.17864919e-003 0. 4.35729837e-003 0. 0.
      4.35729837e-003 0. 0. 0. 2.17864919e-003 0. 6.53594732e-003
      6.53594732e-003 2.17864919e-003 0. 0. 2.17864919e-003 0. 0. 0.
      2.17864919e-003 2.17864919e-003 0. 2.17864919e-003 0.
      4.35729837e-003 2.17864919e-003 0. 0. 0. 0. 0. 0. 2.17864919e-003
      0. 0. 0. 2.17864919e-003 0. 2.17864919e-003 0. 2.17864919e-003
      6.53594732e-003 0. 0. 0. 0. 0. 0. 2.17864919e-003 2.17864919e-003
      0. 4.35729837e-003 0. 0. 0. 0. 0. 0. 0. 0. 0. 0. 2.17864919e-003
      0. 0. 0. 4.35729837e-003 0. 2.17864919e-003 2.17864919e-003 0.
      2.17864919e-003 0. 0. 0. 0. 0. 0. 4.35729837e-003 0. 0. 0. 0. 0.
      2.17864919e-003 0. 0. 0. 0. 2.17864919e-003 0. 0. 0. 0.
      2.17864919e-003 2.17864919e-003 2.17864919e-003 2.17864919e-003 0.
      0. 0. 0. 0. 0. 2.17864919e-003 4.35729837e-003 0. 0. 0. 0. 0. 0.
      0. 0. 0. 0. 0. 0. 2.17864919e-003 0. 0. 0. 4.35729837e-003 0. 0.
      0. 0. 0. 2.17864919e-003 0. 0. 0. 0. 0. 0. 2.17864919e-003 0. 0.
      2.17864919e-003 0. 0. 0. 2.17864919e-003 0. 0. 0. 4.35729837e-003
      2.17864919e-003 0. 0. 0. 0. 0. 2.17864919e-003 0. 2.17864919e-003
      0. 4.35729837e-003 0. 0. 0. 0. 0. 0. 6.53594732e-003 0. 0. 0. 0.
      4.35729837e-003 0. 0. 0. 0. 2.17864919e-003 4.35729837e-003
      2.17864919e-003 0. 0. 0. 0. 0. 0. 2.17864919e-003 0. 0. 0.
      2.17864919e-003 0. 0. 2.17864919e-003 0. 0. 0. 0. 2.17864919e-003
      2.17864919e-003 0. 0. 0. 2.17864919e-003 0. 0. 0. 4.35729837e-003
      0. 0. 4.35729837e-003 2.17864919e-003 0. 0. 2.17864919e-003 0. 0.
      0. 0. 0. 0. 0. 0. 0. 0. 0. 0. 0. 0. 2.17864919e-003 0.
      6.53594732e-003 0. 0. 0. 0. 2.17864919e-003 0. 0. 2.17864919e-003
      2.17864919e-003 4.35729837e-003 0. 0. 0. 0. 0. 0. 2.17864919e-003
      0. 2.17864919e-003 2.17864919e-003 0. 2.17864919e-003 0. 0. 0.
      2.17864919e-003 0. 2.17864919e-003 0. 0. 0. 0. 2.17864919e-003 0.
      0. 2.17864919e-003 0. 2.17864919e-003 2.17864919e-003 0. 0. 0.
      6.53594732e-003 0. 2.17864919e-003 0. 0. 2.17864919e-003 0.
      4.35729837e-003 0. 0. 0. 2.17864919e-003 0. 0. 0. 0. 0. 0.
      2.17864919e-003 2.17864919e-003 0. 0. 0. 0. 0. 0. 4.35729837e-003
      0. 2.17864919e-003 0. 2.17864919e-003 0. 0. 6.53594732e-003
      2.17864919e-003 0. 4.35729837e-003 0. 0. 0. 0. 0. 0. 0. 0.
      2.17864919e-003 0. 0. 0. 0. 0. 0. 0.</_>
    <_>
      0. 0. 0. 0. 4.55580885e-003 0. 2.27790442e-003 0. 0. 0.
      2.27790442e-003 0. 2.27790442e-003 4.55580885e-003 0. 0. 0.
      2.27790442e-003 2.27790442e-003 0. 2.27790442e-003 0. 0. 0.
      2.27790442e-003 0. 4.55580885e-003 2.27790442e-003 0. 0. 0. 0.
      4.55580885e-003 2.27790442e-003 2.27790442e-003 0. 0.
      4.55580885e-003 0. 2.27790442e-003 0. 2.27790442e-003 0. 0. 0.
      1.36674270e-002 0. 0. 0. 0. 0. 0. 0. 4.55580885e-003 0.
      4.55580885e-003 0. 6.83371350e-003 0. 0. 0. 0. 0. 0. 0.
      2.27790442e-003 2.27790442e-003 0. 4.55580885e-003 1.36674270e-002
      0. 0. 2.27790442e-003 0. 0. 0. 0. 0. 2.27790442e-003 0.
      2.27790442e-003 0. 6.83371350e-003 0. 0. 0. 0. 0. 9.11161769e-003
      0. 0. 2.27790442e-003 0. 0. 2.27790442e-003 0. 2.27790442e-003 0.
      0. 0. 0. 0. 2.27790442e-003 0. 0. 2.27790442e-003 0. 0.
      6.83371350e-003 2.96127573e-002 2.27790442e-003 0. 0. 0.
      4.55580885e-003 0. 0. 0. 0. 0. 0. 4.55580885e-003 6.83371350e-003
      6.83371350e-003 2.27790442e-003 0. 2.27790442e-003 0.
      2.27790442e-003 0. 0. 2.27790442e-003 4.55580885e-003
      4.55580885e-003 2.27790442e-003 0. 4.55580885e-003 2.27790442e-003
      2.27790442e-003 0. 4.55580885e-003 0. 0. 0. 0. 0. 0.
      2.27790442e-003 2.27790442e-003 2.27790442e-003 0. 0. 0. 0.
      2.27790442e-003 2.27790442e-003 0. 0. 2.27790442e-003 0. 0. 0. 0.
      0. 2.27790442e-003 0. 0. 2.27790442e-003 0. 2.27790442e-003
      4.55580885e-003 0. 0. 0. 6.83371350e-003 0. 0. 0. 0.
      2.27790442e-003 2.27790442e-003 0. 0. 0. 0. 4.55580885e-003 0.
      2.27790442e-003 2.27790442e-003 0. 2.27790442e-003 0. 0.
      4.55580885e-003 0. 0. 2.27790442e-003 0. 0. 0. 0. 4.55580885e-003
      2.27790442e-003 2.27790442e-003 0. 2.27790442e-003 0. 0.
      2.27790442e-003 0. 0. 0. 0. 0. 2.27790442e-003 0. 0. 0. 0. 0.
      4.55580885e-003 0. 0. 0. 2.27790442e-003 0. 0. 2.27790442e-003 0.
      0. 2.27790442e-003 2.27790442e-003 4.55580885e-003 0. 0.
      2.27790442e-003 0. 4.55580885e-003 0. 0. 2.27790442e-003
      2.27790442e-003 0. 0. 2.27790442e-003 0. 2.27790442e-003
      2.27790442e-003 1.13895219e-002 0. 0. 2.27790442e-003 0. 0.
      2.27790442e-003 0. 4.55580885e-003 2.27790442e-003 2.27790442e-003
      2.27790442e-003 2.27790442e-003 0. 0. 0. 0. 0. 0. 0.
      2.27790442e-003 2.27790442e-003 2.27790442e-003 0. 2.27790442e-003
      4.55580885e-003 0. 2.27790442e-003 0. 0. 0. 2.27790442e-003 0.
      4.55580885e-003 2.27790442e-003 0. 0. 0. 0. 0. 4.55580885e-003 0.
      0. 0. 0. 0. 0. 6.83371350e-003 0. 0. 2.27790442e-003 0. 0.
      4.55580885e-003 2.27790442e-003 0. 0. 0. 0. 2.27790442e-003 0. 0.
      0. 0. 0. 2.27790442e-003 2.27790442e-003 0. 6.83371350e-003
      2.27790442e-003 0. 0. 6.83371350e-003 0. 0. 0. 2.27790442e-003 0.
      0. 0. 0. 0. 0. 0. 0. 0. 0. 0. 4.55580885e-003 4.55580885e-003 0.
      2.27790442e-003 0. 0. 2.27790442e-003 0. 2.27790442e-003 0. 0. 0.
      0. 0. 0. 2.27790442e-003 0. 0. 0. 0. 6.83371350e-003 0. 0. 0. 0.
      0. 0. 0. 2.27790442e-003 0. 6.83371350e-003 0. 4.55580885e-003 0.
      0. 0. 6.83371350e-003 0. 0. 2.27790442e-003 0. 4.55580885e-003 0.
      6.83371350e-003 0. 0. 0. 2.27790442e-003 4.55580885e-003 0.
      4.55580885e-003 0. 0. 0. 0. 0. 0. 1.59453303e-002 2.27790442e-003
      2.27790442e-003 0. 0. 0. 0. 0. 0. 0. 2.27790442e-003 0.
      2.27790442e-003 0. 0. 0. 0. 0. 0. 0. 2.27790442e-003 0.
      2.27790442e-003 0. 0. 2.27790442e-003 0. 2.27790442e-003
      2.27790442e-003 0. 0. 0. 0. 0. 0. 4.55580885e-003 0. 0.
      4.55580885e-003 0. 0. 0. 0. 0. 0. 0. 0. 0. 0. 4.55580885e-003 0.
      0. 0. 0. 0. 0. 4.55580885e-003 4.55580885e-003 4.55580885e-003 0.
      0. 0. 0. 0. 0. 0. 2.27790442e-003 0. 4.55580885e-003 0.
      2.27790442e-003 2.27790442e-003 0. 0. 0. 0. 4.55580885e-003 0. 0.
      0. 2.27790442e-003 4.55580885e-003 9.11161769e-003 0. 0.
      2.27790442e-003 0. 0. 0. 0. 0. 0. 0. 0. 2.27790442e-003 0. 0. 0.
      0. 0. 2.27790442e-003 2.27790442e-003 0. 0. 0. 0. 0. 0. 0. 0. 0.
      0. 0. 0. 0. 0. 0. 2.27790442e-003 0. 0. 0. 4.55580885e-003
      2.27790442e-003 0. 0. 0. 0. 2.27790442e-003 0. 2.27790442e-003 0.
      0. 0. 0. 0. 0. 0. 2.27790442e-003 0. 0. 0. 0. 2.27790442e-003
      4.55580885e-003 2.27790442e-003 2.27790442e-003 0. 0.
      2.27790442e-003 0. 0. 0. 0. 0. 0. 0. 2.27790442e-003 0. 0. 0. 0.
      0. 0. 0. 0. 0. 0. 0. 0. 0. 0. 0. 0. 2.27790442e-003 0. 0. 0. 0. 0.
      0. 0. 0. 2.27790442e-003 0. 2.27790442e-003 4.55580885e-003 0.
      2.27790442e-003 0. 2.27790442e-003 2.27790442e-003 0.
      2.27790442e-003 0. 0. 0. 2.27790442e-003 0. 2.27790442e-003 0. 0.
      0. 0. 2.27790442e-003 0. 0. 2.27790442e-003 2.27790442e-003 0. 0.
      4.55580885e-003 0. 0. 2.27790442e-003 0. 0. 0. 0. 2.27790442e-003
      0. 0. 0. 0. 0. 0. 0. 2.27790442e-003 0. 0. 4.55580885e-003
      2.27790442e-003 0. 0. 0. 0. 0. 0. 0. 0. 0. 0. 0. 0. 0. 0. 0. 0.
      4.55580885e-003 0. 0. 0. 0. 4.55580885e-003 0. 0. 0.
      4.55580885e-003 0. 0. 0. 2.27790442e-003 0. 0. 0. 0.
      2.27790442e-003 0. 0. 0. 0. 2.05011405e-002 0. 0. 0. 0. 0. 0. 0.
      2.27790442e-003 0. 2.27790442e-003 0. 0. 0. 0. 0. 0.
      2.27790442e-003 0. 0. 6.83371350e-003 2.27790442e-003
      4.55580885e-003 0. 0. 0. 0. 0. 0. 0. 0. 0. 2.27790442e-003
      2.27790442e-003 1.13895219e-002 2.27790442e-003 2.27790442e-003
      4.55580885e-003 2.27790442e-003 0. 0. 0. 0. 2.27790442e-003 0. 0.
      0. 0. 0. 2.27790442e-003 0. 2.27790442e-003 4.55580885e-003 0.
      9.11161769e-003 0. 0. 0. 0. 0. 0. 2.27790442e-003 2.27790442e-003
      2.27790442e-003 2.27790442e-003 0. 0. 2.27790442e-003 0. 0. 0. 0.
      0. 0. 0. 2.27790442e-003 0. 0. 0. 0. 0. 2.27790442e-003 0. 0. 0.
      0. 0. 0. 0. 0. 0. 2.27790442e-003 0. 0. 0. 2.27790442e-003 0. 0.
      0. 0. 0. 0. 0. 0. 0. 0. 2.27790442e-003 0. 2.27790442e-003 0.
      2.27790442e-003 0. 0. 0. 0. 0. 0. 2.27790442e-003 2.27790442e-003
      0. 0. 2.27790442e-003 0. 0. 2.27790442e-003 4.55580885e-003 0.
      4.55580885e-003 0. 2.27790442e-003 0. 6.83371350e-003 0. 0. 0. 0.
      0. 0. 0. 0. 0. 0. 2.27790442e-003 0. 0. 0. 0. 0. 0. 0. 0. 0. 0. 0.
      0. 2.27790442e-003 0. 0. 0. 0. 2.27790442e-003 0. 0. 0.
      2.27790442e-003 0. 0. 0. 0. 0. 2.27790442e-003 0. 0. 0. 0. 0. 0.
      2.27790442e-003 0. 0. 0. 0. 0. 2.27790442e-003 0. 0. 0.
      6.83371350e-003 2.27790442e-003 0. 0. 0. 2.27790442e-003 0. 0. 0.
      0. 0. 0. 2.27790442e-003 2.27790442e-003 0. 2.27790442e-003 0. 0.
      0. 0. 0. 0. 2.27790442e-003 4.55580885e-003 0. 0. 0. 0. 0. 0. 0.
      0. 0. 0. 2.27790442e-003 0. 0. 2.27790442e-003 0. 0. 0.
      2.27790442e-003 0. 0. 0. 0. 0. 1.13895219e-002 0. 0.
      2.27790442e-003 0. 2.27790442e-003 0. 4.55580885e-003 0. 0. 0. 0.
      0. 0. 0. 0. 0. 0. 0. 0. 0. 0. 0. 0. 0. 0. 2.27790442e-003 0.
      2.27790442e-003 0. 0. 0. 0. 2.27790442e-003 0. 0. 0. 0. 0. 0.
      4.55580885e-003 0. 0. 0. 0. 0. 2.27790442e-003 0. 0. 0.
      6.83371350e-003 0. 0. 0. 2.27790442e-003 0. 0. 6.83371350e-003 0.
      2.50569489e-002 0. 0. 0. 0. 0. 0. 2.27790442e-003 0. 0.
      2.27790442e-003 0. 0. 0. 0. 0. 0. 2.27790442e-003 0.
      4.55580885e-003 0. 0. 0. 0. 0. 4.55580885e-003 0. 2.27790442e-003
      0. 0. 0. 0. 0. 0. 0. 0. 0. 0. 0. 0. 0. 0. 0. 0.</_>
    <_>
      0. 0. 0. 0. 7.53768813e-003 0. 0. 0. 0. 0. 0. 0. 0. 0. 0. 0. 0.
      5.02512557e-003 7.53768813e-003 2.51256279e-003 2.51256279e-003 0.
      2.51256279e-003 2.51256279e-003 0. 0. 5.02512557e-003 0. 0.
      2.51256279e-003 7.53768813e-003 2.51256279e-003 7.53768813e-003
      7.53768813e-003 0. 2.51256279e-003 0. 0. 0. 0. 0. 2.51256279e-003
      2.51256279e-003 0. 5.02512557e-003 5.02512557e-003 0. 0. 0. 0. 0.
      2.51256279e-003 0. 2.51256279e-003 2.51256279e-003 2.51256279e-003
      0. 1.00502511e-002 5.02512557e-003 2.51256279e-003 0. 0.
      2.51256279e-003 0. 0. 0. 0. 2.51256279e-003 2.51256279e-003
      2.51256279e-003 5.02512557e-003 0. 0. 0. 2.51256279e-003 0. 0. 0.
      0. 0. 0. 5.02512557e-003 7.53768813e-003 0. 0. 0. 0. 0. 0. 0. 0.
      5.02512557e-003 0. 0. 0. 0. 0. 0. 0. 0. 2.51256279e-003
      5.02512557e-003 5.02512557e-003 2.51256279e-003 0. 2.51256279e-003
      0. 0. 2.51256279e-003 0. 2.51256279e-003 0. 2.51256279e-003 0.
      2.51256279e-003 0. 2.51256279e-003 0. 0. 0. 0. 2.51256279e-003 0.
      0. 0. 0. 5.02512557e-003 0. 0. 0. 0. 2.51256279e-003
      2.51256279e-003 0. 0. 0. 2.51256279e-003 5.02512557e-003 0. 0.
      2.51256279e-003 2.51256279e-003 0. 2.51256279e-003 0. 0.
      2.51256279e-003 0. 0. 2.51256279e-003 0. 0. 0. 0. 0. 0. 0. 0.
      5.02512557e-003 0. 0. 0. 0. 5.02512557e-003 0. 0. 0. 0. 0. 0.
      7.53768813e-003 0. 2.51256279e-003 0. 5.02512557e-003 0. 0.
      5.02512557e-003 0. 2.51256279e-003 0. 5.02512557e-003 0. 0.
      7.53768813e-003 2.51256279e-003 2.51256279e-003 2.51256279e-003
      2.51256279e-003 2.51256279e-003 7.53768813e-003 0. 0. 0. 0. 0. 0.
      2.51256279e-003 0. 0. 0. 5.02512557e-003 0. 2.51256279e-003
      2.51256279e-003 5.02512557e-003 0. 0. 0. 0. 2.51256279e-003 0. 0.
      2.51256279e-003 0. 0. 2.51256279e-003 0. 0. 5.02512557e-003 0.
      2.51256279e-003 0. 2.51256279e-003 0. 0. 0. 5.02512557e-003 0. 0.
      0. 0. 0. 2.51256279e-003 5.02512557e-003 0. 0. 0. 0. 0.
      7.53768813e-003 0. 0. 2.51256279e-003 0. 0. 1.00502511e-002 0. 0.
      0. 2.51256279e-003 5.02512557e-003 0. 0. 5.02512557e-003 0.
      5.02512557e-003 0. 2.51256279e-003 0. 0. 0. 2.51256279e-003 0. 0.
      0. 5.02512557e-003 2.51256279e-003 0. 0. 2.51256279e-003
      2.51256279e-003 0. 0. 0. 2.51256279e-003 0. 0. 0. 2.51256279e-003
      0. 0. 0. 0. 0. 0. 2.51256279e-003 0. 2.51256279e-003 0. 0. 0.
      2.51256279e-003 0. 5.02512557e-003 5.02512557e-003 0. 0. 0.
      2.51256279e-003 2.51256279e-003 2.51256279e-003 2.51256279e-003 0.
      0. 0. 0. 5.02512557e-003 0. 0. 7.53768813e-003 2.51256279e-003 0.
      0. 0. 0. 2.51256279e-003 0. 0. 0. 2.51256279e-003 0. 0.
      2.51256279e-003 0. 0. 0. 0. 0. 0. 0. 0. 0. 0. 0. 0.
      2.51256279e-003 2.51256279e-003 2.51256279e-003 2.51256279e-003 0.
      0. 0. 0. 5.02512557e-003 0. 0. 2.51256279e-003 2.51256279e-003 0.
      0. 0. 2.51256279e-003 0. 0. 2.51256279e-003 5.02512557e-003 0. 0.
      0. 0. 2.51256279e-003 0. 2.51256279e-003 0. 0. 5.02512557e-003 0.
      2.51256279e-003 0. 0. 0. 0. 0. 0. 7.53768813e-003 0. 0. 0.
      7.53768813e-003 2.51256279e-003 2.51256279e-003 0. 2.51256279e-003
      2.51256279e-003 0. 2.51256279e-003 2.51256279e-003 0. 0.
      2.51256279e-003 0. 0. 2.26130653e-002 7.53768813e-003
      2.51256279e-003 5.02512557e-003 0. 0. 0. 0. 2.51256279e-003 0. 0.
      2.51256279e-003 1.00502511e-002 0. 0. 5.02512557e-003 0. 0. 0. 0.
      0. 0. 0. 2.51256279e-003 0. 0. 0. 0. 0. 0. 0. 0. 5.02512557e-003
      2.51256279e-003 0. 0. 0. 0. 2.51256279e-003 0. 0. 0. 0. 0. 0. 0.
      0. 0. 0. 0. 0. 0. 0. 0. 0. 0. 2.51256279e-003 7.53768813e-003
      2.51256279e-003 0. 0. 0. 0. 0. 0. 0. 0. 0. 2.51256279e-003 0.
      5.02512557e-003 5.02512557e-003 0. 0. 0. 2.51256279e-003
      2.51256279e-003 0. 2.51256279e-003 0. 0. 2.51256279e-003
      1.00502511e-002 0. 0. 2.51256279e-003 0. 0. 0. 0. 0. 0. 0. 0. 0.
      5.02512557e-003 0. 0. 0. 0. 0. 0. 0. 2.51256279e-003 0. 0. 0. 0.
      0. 0. 0. 0. 2.51256279e-003 0. 0. 7.53768813e-003 0. 0. 0.
      2.51256279e-003 2.51256279e-003 7.53768813e-003 0. 0.
      2.51256279e-003 0. 0. 0. 2.51256279e-003 0. 0. 0. 0. 0. 0. 0. 0.
      0. 0. 0. 0. 2.51256279e-003 2.51256279e-003 1.00502511e-002
      2.51256279e-003 5.02512557e-003 0. 0. 0. 2.51256279e-003 0.
      2.51256279e-003 0. 0. 2.51256279e-003 0. 0. 0. 0. 2.51256279e-003
      0. 0. 0. 0. 0. 2.51256279e-003 0. 0. 0. 0. 0. 0. 0. 0.
      5.02512557e-003 2.51256279e-003 0. 0. 2.51256279e-003 0. 0. 0. 0.
      0. 0. 5.02512557e-003 0. 0. 2.51256279e-003 0. 2.51256279e-003 0.
      0. 0. 0. 0. 2.51256279e-003 0. 0. 2.51256279e-003 0. 0.
      5.02512557e-003 0. 0. 2.51256279e-003 0. 0. 0. 0. 0. 0. 0. 0. 0.
      0. 0. 0. 2.51256279e-003 0. 0. 0. 0. 0. 7.53768813e-003 0. 0. 0.
      0. 0. 2.51256279e-003 0. 2.51256279e-003 0. 0. 0. 0.
      2.51256279e-003 0. 2.51256279e-003 0. 0. 2.51256279e-003 0. 0. 0.
      0. 0. 0. 0. 0. 0. 2.51256279e-003 0. 0. 0. 5.02512557e-003 0. 0.
      0. 0. 0. 0. 0. 0. 0. 0. 0. 0. 2.51256279e-003 2.51256279e-003 0.
      0. 0. 0. 0. 0. 0. 5.02512557e-003 0. 2.51256279e-003 0.
      2.51256279e-003 0. 2.51256279e-003 0. 0. 5.02512557e-003 0.
      5.02512557e-003 7.53768813e-003 2.51256279e-003 0. 5.02512557e-003
      0. 0. 0. 2.51256279e-003 0. 0. 0. 0. 0. 0. 2.51256279e-003
      2.51256279e-003 0. 0. 2.51256279e-003 0. 0. 0. 0. 0. 0.
      2.51256279e-003 0. 0. 0. 0. 0. 0. 2.51256279e-003 2.51256279e-003
      7.53768813e-003 0. 0. 2.51256279e-003 0. 0. 0. 0. 2.51256279e-003
      0. 0. 0. 0. 2.51256279e-003 0. 0. 0. 0. 0. 0. 5.02512557e-003 0.
      0. 0. 0. 0. 0. 0. 2.51256279e-003 0. 0. 0. 0. 2.51256279e-003 0.
      0. 0. 1.00502511e-002 2.51256279e-003 0. 0. 0. 0. 0.
      2.51256279e-003 5.02512557e-003 0. 0. 0. 0. 0. 0. 0. 0.
      5.02512557e-003 0. 5.02512557e-003 0. 2.51256279e-003 0. 0. 0. 0.
      5.02512557e-003 2.51256279e-003 0. 0. 0. 0. 0. 0. 0. 0. 0. 0. 0.
      0. 0. 0. 0. 0. 5.02512557e-003 0. 0. 0. 0. 0. 0. 0. 0. 0.
      5.02512557e-003 0. 0. 0. 0. 2.51256279e-003 0. 0. 0. 0. 0. 0. 0.
      0. 0. 0. 0. 0. 0. 0. 0. 2.51256279e-003 0. 2.51256279e-003 0.
      2.51256279e-003 0. 0. 0. 0. 0. 0. 2.51256279e-003 0. 0. 0. 0.
      2.51256279e-003 0. 2.51256279e-003 2.51256279e-003 0.
      5.02512557e-003 2.51256279e-003 0. 0. 0. 0. 0. 0. 2.51256279e-003
      0. 0. 0. 0. 0. 2.51256279e-003 2.51256279e-003 0. 0. 0. 0. 0. 0.
      0. 0. 0. 2.51256279e-003 5.02512557e-003 2.51256279e-003 0. 0. 0.
      0. 0. 0. 0. 0. 0. 2.51256279e-003 0. 2.51256279e-003 0. 0.
      2.51256279e-003 2.51256279e-003 0. 0. 2.51256279e-003
      5.02512557e-003 0. 0. 0. 0. 0. 0. 0. 0. 2.51256279e-003 0. 0. 0.
      0. 0. 0. 0. 0. 0. 0. 0. 0. 2.51256279e-003 0. 0. 0. 0. 0. 0.
      2.51256279e-003 0. 0. 0. 0. 0. 0. 0. 0. 0. 0. 0. 0. 0.
      2.51256279e-003 0. 5.02512557e-003 0. 0. 0. 0. 0. 0. 0. 0. 0. 0.
      0. 2.51256279e-003 0. 0. 0. 0. 5.02512557e-003 0. 0. 0. 0. 0. 0.
      7.53768813e-003 0. 0. 0. 0. 0. 0. 0. 0. 2.51256279e-003 0. 0. 0.
      0. 0. 2.51256279e-003 0. 5.02512557e-003 0. 0. 0. 0.
      2.51256279e-003 0. 0. 0. 0. 0. 0. 0. 0. 0. 2.51256279e-003 0.</_>
    <_>
      0. 0. 1.58730161e-003 0. 6.34920644e-003 0. 0. 0. 0. 0. 0.
      1.58730161e-003 0. 0. 3.17460322e-003 0. 0. 1.58730161e-003
      3.17460322e-003 3.17460322e-003 1.58730161e-003 0. 1.58730161e-003
      0. 0. 0. 0. 0. 0. 1.58730161e-003 1.58730161e-003 0.
      1.58730161e-003 1.58730161e-003 1.58730161e-003 0. 1.58730161e-003
      3.17460322e-003 0. 0. 0. 3.17460322e-003 0. 0. 3.17460322e-003
      9.52380989e-003 0. 0. 0. 1.58730161e-003 0. 4.76190494e-003
      1.58730161e-003 0. 0. 0. 1.58730161e-003 9.52380989e-003 0.
      1.58730161e-003 0. 0. 0. 3.17460322e-003 4.76190494e-003
      4.76190494e-003 1.58730161e-003 1.58730161e-003 1.58730161e-003
      1.26984129e-002 0. 0. 1.58730161e-003 1.58730161e-003 0.
      4.76190494e-003 4.76190494e-003 0. 0. 0. 4.76190494e-003
      1.58730161e-003 1.58730161e-003 0. 0. 0. 0. 0. 0. 0. 0. 0. 0. 0.
      1.58730161e-003 1.58730161e-003 0. 0. 0. 0. 0. 4.76190494e-003
      3.17460322e-003 1.58730161e-003 3.17460322e-003 1.58730161e-003 0.
      3.17460322e-003 7.93650839e-003 1.58730161e-003 0. 0. 0. 0.
      1.58730161e-003 0. 1.58730161e-003 1.58730161e-003 1.58730161e-003
      0. 1.74603183e-002 0. 6.34920644e-003 0. 0. 0. 0. 0.
      1.58730161e-003 0. 0. 0. 0. 1.58730161e-003 4.76190494e-003 0.
      1.58730161e-003 0. 0. 0. 4.76190494e-003 0. 0. 0. 0.
      1.58730161e-003 0. 0. 0. 1.58730161e-003 0. 0. 3.17460322e-003
      4.76190494e-003 0. 0. 0. 0. 0. 6.34920644e-003 0. 0. 0. 0.
      1.58730161e-003 0. 0. 1.58730161e-003 0. 0. 0. 0. 1.58730161e-003
      1.58730161e-003 0. 4.76190494e-003 0. 1.58730161e-003 0.
      1.58730161e-003 4.76190494e-003 0. 0. 0. 6.34920644e-003
      3.17460322e-003 0. 1.58730161e-003 0. 1.58730161e-003 0. 0. 0. 0.
      0. 0. 6.34920644e-003 0. 3.17460322e-003 0. 0. 0. 4.76190494e-003
      1.58730161e-003 0. 0. 0. 0. 0. 0. 4.76190494e-003 0.
      1.58730161e-003 0. 0. 0. 0. 1.58730161e-003 0. 0. 0. 0. 0.
      1.58730161e-003 1.58730161e-003 1.58730161e-003 0. 0. 0. 0. 0.
      1.58730161e-003 4.76190494e-003 4.76190494e-003 0. 0. 0.
      1.58730161e-003 0. 0. 0. 0. 0. 0. 0. 0. 0. 0. 3.17460322e-003 0.
      0. 0. 0. 0. 9.52380989e-003 0. 0. 0. 0. 0. 0. 0. 0.
      7.93650839e-003 0. 0. 0. 3.17460322e-003 1.58730161e-003
      1.58730161e-003 0. 3.17460322e-003 0. 1.58730161e-003 0. 0. 0. 0.
      0. 3.17460322e-003 0. 1.58730161e-003 0. 0. 3.17460322e-003 0. 0.
      0. 4.76190494e-003 1.58730161e-003 0. 1.58730161e-003 0. 0. 0.
      1.58730161e-003 0. 0. 0. 0. 0. 3.17460322e-003 1.58730161e-003 0.
      1.58730161e-003 0. 1.58730161e-003 3.17460322e-003 0.
      1.58730161e-003 1.58730161e-003 0. 3.17460322e-003 1.58730161e-003
      3.17460322e-003 0. 0. 0. 0. 0. 1.58730161e-003 0. 3.17460322e-003
      0. 1.58730161e-003 3.17460322e-003 0. 0. 0. 1.58730161e-003 0. 0.
      0. 0. 0. 1.58730161e-003 0. 3.17460322e-003 4.76190494e-003
      1.58730161e-003 0. 0. 1.58730161e-003 0. 6.34920644e-003
      1.58730161e-003 4.76190494e-003 1.58730161e-003 1.58730161e-003
      3.17460322e-003 0. 0. 1.58730161e-003 0. 0. 4.76190494e-003
      3.17460322e-003 0. 9.52380989e-003 0. 4.76190494e-003 0.
      3.17460322e-003 0. 0. 0. 0. 0. 1.58730161e-003 0. 0. 0.
      1.58730161e-003 0. 0. 0. 0. 0. 0. 3.17460322e-003 0. 0. 0.
      3.17460322e-003 0. 0. 0. 0. 0. 0. 4.76190494e-003 3.17460322e-003
      0. 1.58730161e-003 0. 4.76190494e-003 0. 4.76190494e-003
      4.76190494e-003 1.58730161e-003 0. 0. 6.34920644e-003 0.
      1.58730161e-003 0. 6.34920644e-003 0. 0. 0. 1.58730161e-003 0. 0.
      0. 0. 0. 0. 0. 0. 0. 7.93650839e-003 1.58730161e-003 0.
      1.58730161e-003 0. 6.34920644e-003 1.58730161e-003 0.
      1.58730161e-003 0. 0. 1.58730161e-003 0. 0. 0. 0. 0. 0. 0. 0. 0.
      0. 1.58730161e-003 4.76190494e-003 0. 0. 0. 0. 0. 1.58730161e-003
      1.58730161e-003 0. 0. 0. 0. 1.58730161e-003 0. 0. 0. 0. 0. 0.
      1.58730161e-003 0. 0. 0. 0. 0. 0. 1.58730161e-003 0. 0.
      7.93650839e-003 0. 0. 4.76190494e-003 1.58730161e-003 0.
      3.17460322e-003 1.58730161e-003 0. 1.58730161e-003 1.58730161e-003
      0. 0. 0. 0. 0. 0. 0. 0. 0. 0. 1.58730161e-003 3.17460322e-003 0.
      0. 0. 0. 0. 0. 0. 0. 0. 0. 0. 3.17460322e-003 0. 1.58730161e-003
      1.58730161e-003 1.58730161e-003 0. 0. 0. 0. 3.17460322e-003 0. 0.
      0. 4.76190494e-003 0. 1.58730161e-003 0. 0. 0. 0. 0. 0. 0. 0.
      3.17460322e-003 3.17460322e-003 0. 0. 0. 0. 1.58730161e-003
      1.58730161e-003 0. 1.58730161e-003 0. 0. 0. 0. 0. 0. 0.
      3.17460322e-003 0. 0. 0. 1.58730161e-003 1.58730161e-003 0.
      1.58730161e-003 0. 0. 0. 0. 9.52380989e-003 0. 1.58730161e-003 0.
      0. 4.76190494e-003 0. 1.58730161e-003 0. 3.17460322e-003 0. 0. 0.
      1.58730161e-003 0. 3.17460322e-003 0. 0. 1.58730161e-003 0.
      1.58730161e-003 0. 0. 0. 0. 3.17460322e-003 0. 0. 0. 0. 0.
      6.34920644e-003 0. 0. 0. 0. 0. 0. 1.58730161e-003 0. 0. 0.
      1.58730161e-003 0. 0. 0. 0. 1.58730161e-003 0. 0. 0. 0.
      1.58730161e-003 0. 1.58730161e-003 0. 0. 1.58730161e-003 0.
      1.58730161e-003 1.58730161e-003 0. 0. 0. 0. 0. 0. 0. 0. 0. 0. 0.
      0. 0. 0. 0. 0. 1.58730161e-003 3.17460322e-003 0. 4.76190494e-003
      1.58730161e-003 1.58730161e-003 0. 0. 0. 0. 0. 0. 0. 0.
      6.34920644e-003 0. 0. 0. 0. 0. 0. 0. 3.17460322e-003
      3.17460322e-003 0. 0. 0. 0. 0. 1.58730161e-003 0. 0. 0. 0. 0.
      1.58730161e-003 0. 0. 3.17460322e-003 1.58730161e-003 0.
      1.58730161e-003 1.58730161e-003 1.58730161e-003 0. 0.
      6.34920644e-003 1.58730161e-003 0. 1.58730161e-003 1.58730161e-003
      1.58730161e-003 0. 0. 1.58730161e-003 0. 6.34920644e-003 0. 0.
      3.17460322e-003 1.58730161e-003 0. 1.58730161e-003 0.
      1.58730161e-003 0. 0. 0. 0. 3.17460322e-003 4.76190494e-003 0. 0.
      1.58730161e-003 0. 1.58730161e-003 0. 0. 1.58730161e-003 0.
      1.58730161e-003 0. 0. 0. 0. 3.17460322e-003 0. 0. 0. 0.
      1.58730161e-003 1.58730161e-003 0. 0. 0. 0. 0. 3.17460322e-003
      1.58730161e-003 0. 0. 1.58730161e-003 0. 1.58730161e-003
      3.17460322e-003 0. 0. 0. 7.93650839e-003 0. 0. 0. 3.17460322e-003
      0. 0. 0. 4.76190494e-003 0. 0. 1.58730161e-003 0. 0.
      1.58730161e-003 0. 0. 0. 0. 0. 0. 1.58730161e-003 1.58730161e-003
      0. 0. 0. 0. 1.58730161e-003 3.17460322e-003 0. 1.58730161e-003 0.
      0. 0. 0. 0. 0. 1.58730161e-003 0. 0. 1.58730161e-003
      3.17460322e-003 0. 1.58730161e-003 3.17460322e-003 0.
      1.58730161e-003 1.58730161e-003 4.76190494e-003 0. 0. 0.
      4.76190494e-003 0. 4.76190494e-003 0. 0. 0. 0. 1.58730161e-003 0.
      0. 0. 6.34920644e-003 1.58730161e-003 0. 0. 0. 0. 0. 0.
      1.58730161e-003 0. 0. 7.93650839e-003 0. 0. 0. 0. 1.58730161e-003
      0. 0. 0. 3.17460322e-003 3.17460322e-003 0. 0. 0. 1.58730161e-003
      1.58730161e-003 0. 3.17460322e-003 0. 0. 0. 0. 0. 0. 0. 0. 0. 0.
      0. 0. 1.58730161e-003 0. 1.58730161e-003 0. 1.58730161e-003 0.
      1.58730161e-003 0. 1.58730161e-003 0. 0. 0. 0. 1.58730161e-003
      1.58730161e-003 0. 0. 1.58730161e-003 1.58730161e-003 0.
      1.58730161e-003 0. 3.17460322e-003 0. 1.58730161e-003 0.
      1.58730161e-003 0. 0. 7.93650839e-003 1.58730161e-003 0. 0.
      3.17460322e-003 0. 0. 1.58730161e-003 0. 0. 0. 0. 0.
      1.58730161e-003 3.17460322e-003 0. 1.58730161e-003 0.
      1.58730161e-003 0. 1.58730161e-003 0. 0. 0. 0. 1.11111114e-002
      1.58730161e-003 1.58730161e-003 0. 1.58730161e-003 0.
      1.11111114e-002 0. 1.58730161e-003 1.58730161e-003 3.17460322e-003
      6.34920644e-003 1.58730161e-003 0. 0. 0. 0. 1.58730161e-003 0. 0.
      0. 3.17460322e-003 0. 0. 0. 3.17460322e-003 1.58730161e-003
      3.17460322e-003 7.93650839e-003 0. 0. 0. 0. 0. 1.58730161e-003
      1.58730161e-003 1.58730161e-003 0. 0. 0. 0. 0. 3.17460322e-003 0.
      0. 0. 0. 1.58730161e-003 1.58730161e-003 1.58730161e-003 0. 0. 0.
      0. 0. 0. 1.58730161e-003 1.58730161e-003 0. 0. 0. 0.
      6.34920644e-003 0. 3.17460322e-003 0. 0. 0. 0. 3.17460322e-003
      9.52380989e-003 1.58730161e-003 1.58730161e-003 0. 0. 0. 0.
      1.58730161e-003 0. 1.58730161e-003 0. 0. 0. 1.58730161e-003 0. 0.
      0. 0. 3.17460322e-003 0. 1.58730161e-003 0. 1.58730161e-003 0. 0.
      0. 1.58730161e-003 1.74603183e-002</_>
    <_>
      0. 0. 2.15517241e-003 0. 2.15517241e-003 0. 0. 0. 0. 0. 0. 0. 0.
      0. 1.07758623e-002 0. 0. 0. 2.15517241e-003 4.31034481e-003
      6.46551698e-003 0. 2.15517241e-003 0. 0. 0. 0. 0. 0.
      4.31034481e-003 8.62068962e-003 2.15517241e-003 2.15517241e-003 0.
      2.15517241e-003 0. 8.62068962e-003 0. 0. 0. 0. 2.15517241e-003 0.
      0. 4.31034481e-003 3.01724132e-002 0. 0. 0. 0. 0. 6.46551698e-003
      0. 0. 0. 0. 0. 6.46551698e-003 0. 0. 0. 0. 0. 4.31034481e-003
      8.62068962e-003 0. 0. 2.15517241e-003 0. 1.07758623e-002
      2.15517241e-003 2.15517241e-003 0. 2.15517241e-003 0.
      2.15517241e-003 0. 0. 0. 0. 4.31034481e-003 0. 6.46551698e-003 0.
      0. 0. 0. 0. 0. 0. 0. 0. 0. 0. 0. 0. 0. 0. 0. 0. 0. 2.15517241e-003
      4.31034481e-003 0. 2.15517241e-003 0. 0. 4.31034481e-003 0. 0. 0.
      2.15517241e-003 0. 0. 4.31034481e-003 2.15517241e-003
      2.15517241e-003 0. 0. 0. 4.31034481e-003 0. 1.50862066e-002 0.
      2.15517241e-003 0. 0. 0. 2.15517241e-003 0. 2.15517241e-003
      4.31034481e-003 0. 0. 2.15517241e-003 0. 0. 2.15517241e-003 0. 0.
      0. 0. 0. 0. 2.15517241e-003 0. 2.15517241e-003 0. 2.15517241e-003
      2.15517241e-003 0. 0. 8.62068962e-003 0. 2.15517241e-003 0. 0. 0.
      0. 8.62068962e-003 2.15517241e-003 2.15517241e-003 0. 0.
      2.15517241e-003 0. 0. 2.15517241e-003 0. 0. 0. 0. 0. 0. 0.
      6.46551698e-003 0. 2.15517241e-003 0. 2.15517241e-003
      8.62068962e-003 0. 0. 0. 8.62068962e-003 0. 0. 0. 0.
      4.31034481e-003 0. 0. 0. 0. 0. 0. 0. 0. 0. 0. 0. 0.
      4.31034481e-003 0. 0. 0. 0. 0. 0. 0. 4.31034481e-003
      2.15517241e-003 2.15517241e-003 0. 0. 0. 0. 2.15517241e-003 0. 0.
      0. 0. 0. 0. 2.15517241e-003 0. 0. 0. 0. 0. 0. 0. 4.31034481e-003
      8.62068962e-003 6.46551698e-003 0. 0. 2.15517241e-003 0. 0. 0. 0.
      0. 0. 0. 0. 0. 2.15517241e-003 2.15517241e-003 0. 0.
      2.15517241e-003 0. 0. 8.62068962e-003 0. 0. 2.15517241e-003 0. 0.
      0. 0. 0. 2.15517241e-003 0. 0. 0. 0. 2.15517241e-003
      2.15517241e-003 0. 2.15517241e-003 4.31034481e-003 2.15517241e-003
      0. 0. 0. 0. 0. 2.15517241e-003 0. 4.31034481e-003 0. 0.
      2.15517241e-003 0. 0. 0. 0. 8.62068962e-003 0. 0. 0. 0. 0.
      4.31034481e-003 0. 0. 0. 2.15517241e-003 0. 0. 4.31034481e-003 0.
      0. 0. 0. 0. 0. 4.31034481e-003 4.31034481e-003 0. 0. 0. 0. 0. 0.
      0. 0. 0. 2.15517241e-003 0. 2.15517241e-003 0. 0. 0. 0. 0. 0. 0.
      0. 0. 0. 0. 0. 0. 2.15517241e-003 0. 4.31034481e-003 0. 0. 0. 0.
      0. 6.46551698e-003 2.15517241e-003 8.62068962e-003 2.15517241e-003
      2.15517241e-003 4.31034481e-003 2.15517241e-003 0. 0. 0. 0.
      2.15517241e-003 4.31034481e-003 0. 0. 0. 2.15517241e-003 0.
      2.15517241e-003 0. 0. 0. 2.15517241e-003 2.15517241e-003
      2.15517241e-003 2.15517241e-003 0. 0. 4.31034481e-003
      2.15517241e-003 0. 2.15517241e-003 0. 0. 0. 2.15517241e-003 0. 0.
      0. 2.15517241e-003 0. 2.15517241e-003 4.31034481e-003 0.
      1.07758623e-002 0. 0. 0. 2.15517241e-003 1.07758623e-002 0.
      2.15517241e-003 0. 6.46551698e-003 2.15517241e-003 2.15517241e-003
      0. 0. 6.46551698e-003 2.15517241e-003 0. 2.15517241e-003 0. 0. 0.
      0. 6.46551698e-003 0. 0. 0. 0. 0. 0. 0. 0. 0. 1.07758623e-002 0.
      0. 4.31034481e-003 0. 2.15517241e-003 2.15517241e-003
      6.46551698e-003 4.31034481e-003 0. 0. 0. 0. 0. 0. 0. 0. 0. 0. 0.
      0. 0. 0. 6.46551698e-003 0. 0. 0. 0. 0. 6.46551698e-003 0. 0. 0.
      2.15517241e-003 0. 0. 0. 0. 0. 0. 0. 2.15517241e-003 0. 0. 0. 0.
      0. 0. 0. 2.15517241e-003 0. 0. 4.31034481e-003 0. 4.31034481e-003
      2.15517241e-003 4.31034481e-003 0. 0. 2.15517241e-003 0. 0. 0. 0.
      0. 0. 0. 0. 0. 0. 0. 0. 0. 2.15517241e-003 2.15517241e-003 0. 0.
      0. 0. 0. 0. 0. 0. 0. 0. 0. 0. 0. 4.31034481e-003 0. 0. 0. 0. 0. 0.
      4.31034481e-003 0. 0. 0. 0. 2.15517241e-003 0. 2.15517241e-003 0.
      0. 0. 0. 0. 0. 0. 2.15517241e-003 0. 0. 0. 0. 0. 4.31034481e-003
      0. 0. 0. 0. 0. 0. 0. 0. 0. 0. 2.15517241e-003 0. 0. 0. 0.
      2.15517241e-003 2.15517241e-003 0. 2.15517241e-003 0. 0. 0.
      2.15517241e-003 0. 2.15517241e-003 0. 0. 4.31034481e-003 0. 0. 0.
      0. 0. 0. 0. 0. 0. 0. 0. 0. 4.31034481e-003 4.31034481e-003 0. 0.
      0. 0. 0. 0. 0. 0. 0. 0. 0. 8.62068962e-003 0. 0. 0. 0. 0. 0. 0. 0.
      0. 0. 0. 0. 0. 0. 2.15517241e-003 0. 0. 0. 0. 0. 0. 0. 0. 0.
      2.15517241e-003 0. 0. 2.15517241e-003 2.15517241e-003 0. 0.
      2.15517241e-003 0. 0. 0. 2.15517241e-003 0. 0. 0. 0. 0. 0. 0. 0.
      0. 0. 0. 0. 2.15517241e-003 4.31034481e-003 0. 0. 0. 0. 0. 0. 0.
      2.15517241e-003 2.15517241e-003 8.62068962e-003 0. 0.
      2.15517241e-003 0. 0. 0. 0. 0. 0. 0. 0. 0. 0. 0. 0.
      2.15517241e-003 0. 0. 2.15517241e-003 0. 0. 0. 0. 0.
      2.15517241e-003 2.15517241e-003 4.31034481e-003 0. 0. 0. 0.
      2.15517241e-003 2.15517241e-003 2.15517241e-003 0. 0.
      4.31034481e-003 0. 0. 0. 0. 0. 2.15517241e-003 0. 0.
      2.15517241e-003 0. 0. 0. 0. 0. 0. 0. 0. 0. 0. 0. 0. 0. 0.
      2.15517241e-003 0. 0. 0. 4.31034481e-003 2.15517241e-003 0. 0. 0.
      0. 0. 0. 0. 0. 0. 4.31034481e-003 2.15517241e-003 0. 0. 0. 0. 0.
      6.46551698e-003 0. 0. 0. 2.15517241e-003 0. 4.31034481e-003
      4.31034481e-003 0. 0. 0. 8.62068962e-003 0. 0. 4.31034481e-003
      2.15517241e-003 0. 0. 0. 6.46551698e-003 4.31034481e-003 0. 0. 0.
      0. 0. 0. 2.15517241e-003 2.15517241e-003 0. 0. 2.15517241e-003 0.
      0. 0. 0. 0. 0. 8.62068962e-003 4.31034481e-003 0. 0. 0. 0.
      2.15517241e-003 0. 0. 0. 0. 0. 0. 2.15517241e-003 4.31034481e-003
      0. 0. 0. 0. 8.62068962e-003 0. 4.31034481e-003 0. 0. 0.
      4.31034481e-003 0. 2.15517241e-003 0. 0. 0. 0. 2.15517241e-003
      2.15517241e-003 6.46551698e-003 0. 2.15517241e-003 0. 0. 0. 0. 0.
      0. 0. 0. 0. 0. 2.15517241e-003 0. 0. 0. 0. 0. 0. 0. 0.
      2.15517241e-003 0. 0. 0. 0. 0. 0. 0. 6.46551698e-003 0. 0. 0.
      2.15517241e-003 0. 0. 0. 0. 0. 0. 0. 2.15517241e-003 0. 0.
      2.15517241e-003 0. 2.15517241e-003 0. 0. 0. 0. 0. 0.
      2.15517241e-003 0. 0. 0. 0. 0. 2.15517241e-003 0. 0. 0.
      2.15517241e-003 2.15517241e-003 0. 0. 0. 2.15517241e-003 0. 0.
