<?xml version="1.0"?>
<opencv_storage>
<my_svm type_id="opencv-ml-svm">
  <svm_type>C_SVC</svm_type>
  <kernel><type>RBF</type>
    <gamma>5.0625000000000009e-001</gamma></kernel>
  <C>3.1250000000000000e+002</C>
  <term_criteria><epsilon>2.2204460492503131e-016</epsilon>
    <iterations>100</iterations></term_criteria>
  <var_all>1000</var_all>
  <var_count>1000</var_count>
  <class_count>2</class_count>
  <class_labels type_id="opencv-matrix">
    <rows>1</rows>
    <cols>2</cols>
    <dt>i</dt>
    <data>
      0 1</data></class_labels>
  <sv_total>24</sv_total>
  <support_vectors>
    <_>
      0. 0. 1.28865975e-003 1.28865975e-003 6.44329889e-003 0. 0. 0. 0.
      0. 0. 3.86597915e-003 3.86597915e-003 0. 0. 1.28865975e-003 0.
      2.57731951e-003 0. 1.28865975e-003 0. 2.57731951e-003 0. 0.
      1.28865975e-003 0. 1.03092780e-002 0. 0. 1.28865975e-003
      3.86597915e-003 2.57731951e-003 6.44329889e-003 2.57731951e-003
      1.28865975e-003 1.28865975e-003 0. 0. 0. 0. 0. 1.28865975e-003 0.
      2.57731951e-003 0. 7.73195829e-003 3.86597915e-003 0. 0. 0. 0.
      2.57731951e-003 0. 2.57731951e-003 0. 2.57731951e-003 0. 0.
      2.57731951e-003 5.15463902e-003 0. 0. 1.28865975e-003 0.
      3.86597915e-003 3.86597915e-003 1.28865975e-003 1.28865975e-003
      2.57731951e-003 1.28865975e-003 1.28865975e-003 0. 2.57731951e-003
      6.44329889e-003 0. 0. 0. 1.28865975e-003 2.57731951e-003 0.
      1.28865975e-003 0. 1.28865975e-003 0. 0. 1.28865975e-003 0. 0. 0.
      0. 0. 1.28865975e-003 0. 0. 2.57731951e-003 0. 0. 1.28865975e-003
      0. 0. 0. 0. 0. 1.28865975e-003 1.28865975e-003 0. 0.
      2.57731951e-003 1.28865975e-003 0. 0. 0. 1.28865975e-003 0. 0.
      2.57731951e-003 0. 0. 2.57731951e-003 0. 2.57731951e-003 0.
      1.28865975e-003 2.57731951e-003 2.57731951e-003 0. 1.28865975e-003
      1.28865975e-003 0. 1.28865975e-003 0. 0. 2.57731951e-003 0. 0.
      1.28865975e-003 1.28865975e-003 3.86597915e-003 0. 0.
      3.86597915e-003 0. 7.73195829e-003 0. 0. 1.28865975e-003
      3.86597915e-003 0. 0. 0. 0. 1.28865975e-003 0. 1.28865975e-003 0.
      1.28865975e-003 1.28865975e-003 0. 2.57731951e-003 1.28865975e-003
      1.28865975e-003 0. 0. 3.86597915e-003 2.57731951e-003 0. 0.
      2.57731951e-003 1.28865975e-003 0. 2.57731951e-003 0.
      2.57731951e-003 0. 0. 0. 2.57731951e-003 0. 1.28865975e-003
      2.57731951e-003 0. 1.28865975e-003 1.28865975e-003 0. 0.
      1.28865975e-003 0. 0. 1.28865975e-003 0. 0. 1.28865975e-003
      1.28865975e-003 1.28865975e-003 0. 0. 1.28865975e-003 0. 0. 0. 0.
      1.28865975e-003 0. 1.28865975e-003 1.28865975e-003 1.28865975e-003
      0. 0. 0. 1.28865975e-003 3.86597915e-003 0. 1.28865975e-003 0.
      1.28865975e-003 0. 0. 0. 0. 1.28865975e-003 3.86597915e-003 0. 0.
      0. 2.57731951e-003 0. 0. 0. 0. 0. 0. 2.57731951e-003
      1.28865975e-003 0. 0. 0. 0. 0. 0. 0. 0. 0. 1.28865975e-003
      7.73195829e-003 0. 1.28865975e-003 1.28865975e-003 1.28865975e-003
      1.28865975e-003 1.28865975e-003 0. 3.86597915e-003 0. 0.
      2.57731951e-003 0. 3.86597915e-003 0. 0. 1.28865975e-003
      3.86597915e-003 1.28865975e-003 3.86597915e-003 0. 0.
      1.28865975e-003 0. 0. 0. 1.28865975e-003 0. 2.57731951e-003
      1.28865975e-003 1.28865975e-003 1.28865975e-003 0. 0. 0.
      5.15463902e-003 1.28865975e-003 0. 1.28865975e-003 0. 0.
      2.57731951e-003 0. 0. 0. 0. 0. 0. 3.86597915e-003 0.
      2.57731951e-003 0. 5.15463902e-003 0. 0. 0. 7.73195829e-003 0.
      1.28865975e-003 2.57731951e-003 0. 0. 0. 0. 2.57731951e-003 0. 0.
      1.28865975e-003 2.57731951e-003 0. 0. 0. 1.28865975e-003 0.
      1.28865975e-003 0. 0. 2.57731951e-003 0. 0. 0. 0. 1.28865975e-003
      1.28865975e-003 0. 2.57731951e-003 1.28865975e-003 0. 0. 0. 0.
      1.28865975e-003 0. 3.86597915e-003 1.28865975e-003 2.57731951e-003
      0. 1.28865975e-003 1.28865975e-003 0. 0. 1.28865975e-003 0.
      1.28865975e-003 1.28865975e-003 5.15463902e-003 0. 1.28865975e-003
      0. 1.28865975e-003 2.57731951e-003 0. 3.86597915e-003
      5.15463902e-003 1.28865975e-003 0. 0. 0. 0. 6.44329889e-003 0.
      2.57731951e-003 0. 0. 0. 0. 0. 1.28865975e-003 1.28865975e-003 0.
      2.57731951e-003 0. 3.86597915e-003 0. 0. 3.86597915e-003 0.
      2.57731951e-003 0. 0. 1.28865975e-003 3.86597915e-003
      1.28865975e-003 1.28865975e-003 3.86597915e-003 1.28865975e-003 0.
      0. 0. 0. 1.93298962e-002 0. 0. 1.28865975e-003 0. 5.15463902e-003
      2.57731951e-003 0. 1.28865975e-003 0. 1.28865975e-003
      2.57731951e-003 2.57731951e-003 3.86597915e-003 0. 2.57731951e-003
      0. 0. 7.73195829e-003 3.86597915e-003 0. 5.15463902e-003 0. 0.
      3.86597915e-003 0. 0. 1.28865975e-003 0. 2.57731951e-003
      1.28865975e-003 0. 0. 0. 3.86597915e-003 2.57731951e-003
      1.28865975e-003 1.28865975e-003 2.57731951e-003 0. 0.
      6.44329889e-003 0. 2.57731951e-003 2.57731951e-003 0. 0.
      1.28865975e-003 0. 2.57731951e-003 1.28865975e-003 1.28865975e-003
      0. 0. 0. 2.57731951e-003 0. 1.28865975e-003 1.28865975e-003 0.
      2.57731951e-003 1.28865975e-003 0. 0. 0. 5.15463902e-003
      1.28865975e-003 0. 1.28865975e-003 0. 1.28865975e-003
      1.28865975e-003 0. 0. 1.28865975e-003 0. 2.57731951e-003 0. 0. 0.
      2.57731951e-003 2.57731951e-003 0. 0. 1.28865975e-003 0. 0. 0.
      1.28865975e-003 0. 1.28865975e-003 0. 1.28865975e-003 0.
      1.28865975e-003 2.57731951e-003 0. 2.57731951e-003 2.57731951e-003
      5.15463902e-003 2.57731951e-003 1.28865975e-003 0. 0. 0.
      2.57731951e-003 0. 0. 0. 0. 0. 1.28865975e-003 0. 0.
      1.28865975e-003 3.86597915e-003 1.28865975e-003 1.28865975e-003 0.
      1.28865975e-003 0. 1.28865975e-003 0. 1.28865975e-003
      1.28865975e-003 0. 0. 1.28865975e-003 0. 3.86597915e-003 0.
      1.28865975e-003 0. 0. 1.28865975e-003 5.15463902e-003 0. 0. 0. 0.
      0. 5.15463902e-003 0. 0. 1.28865975e-003 2.57731951e-003
      2.57731951e-003 0. 2.57731951e-003 0. 0. 0. 0. 0. 0. 0. 0. 0. 0.
      0. 1.28865975e-003 1.28865975e-003 0. 1.28865975e-003
      1.28865975e-003 0. 2.57731951e-003 0. 0. 0. 0. 1.28865975e-003 0.
      0. 0. 0. 2.57731951e-003 0. 1.28865975e-003 0. 0. 0.
      1.28865975e-003 0. 0. 1.28865975e-003 0. 0. 0. 0. 0. 0. 0. 0.
      2.57731951e-003 1.28865975e-003 1.28865975e-003 1.28865975e-003
      2.57731951e-003 2.57731951e-003 0. 0. 2.57731951e-003
      1.28865975e-003 1.28865975e-003 0. 2.57731951e-003 0.
      3.86597915e-003 0. 0. 0. 0. 0. 0. 3.86597915e-003 2.57731951e-003
      0. 1.28865975e-003 0. 0. 0. 0. 0. 2.57731951e-003 0. 0. 0. 0.
      1.28865975e-003 1.28865975e-003 0. 0. 0. 0. 1.28865975e-003 0. 0.
      0. 0. 0. 2.57731951e-003 0. 1.28865975e-003 0. 0. 2.57731951e-003
      0. 0. 0. 0. 0. 0. 2.57731951e-003 6.44329889e-003 1.28865975e-003
      1.28865975e-003 1.28865975e-003 0. 2.57731951e-003 0.
      1.28865975e-003 0. 1.28865975e-003 0. 1.28865975e-003
      2.57731951e-003 1.28865975e-003 1.28865975e-003 3.86597915e-003
      3.86597915e-003 0. 1.28865975e-003 0. 0. 0. 1.03092780e-002 0. 0.
      0. 0. 1.28865975e-003 1.28865975e-003 0. 0. 0. 0. 1.28865975e-003
      0. 2.57731951e-003 2.57731951e-003 1.28865975e-003 1.28865975e-003
      2.57731951e-003 5.15463902e-003 0. 0. 0. 1.28865975e-003 0.
      1.28865975e-003 0. 0. 1.28865975e-003 1.28865975e-003
      1.28865975e-003 1.28865975e-003 2.57731951e-003 3.86597915e-003 0.
      0. 0. 0. 1.28865975e-003 1.28865975e-003 0. 0. 0. 1.28865975e-003
      1.28865975e-003 0. 0. 0. 3.86597915e-003 6.44329889e-003 0. 0. 0.
      0. 3.86597915e-003 1.28865975e-003 0. 0. 0. 0. 0. 1.28865975e-003
      2.57731951e-003 1.28865975e-003 1.15979379e-002 0. 0. 0.
      1.28865975e-003 0. 0. 0. 0. 2.57731951e-003 1.28865975e-003
      1.28865975e-003 1.28865975e-003 1.28865975e-003 0. 1.28865975e-003
      1.28865975e-003 2.57731951e-003 5.15463902e-003 0. 1.28865975e-003
      0. 2.57731951e-003 2.57731951e-003 1.28865975e-003 0.
      1.28865975e-003 0. 0. 2.57731951e-003 2.57731951e-003 0. 0.
      2.57731951e-003 0. 0. 0. 1.28865975e-003 1.28865975e-003
      2.57731951e-003 0. 0. 1.28865975e-003 0. 1.28865975e-003 0.
      2.57731951e-003 0. 1.28865975e-003 1.28865975e-003 0. 0. 0. 0. 0.
      0. 1.28865975e-003 0. 7.73195829e-003 2.57731951e-003
      2.57731951e-003 0. 1.28865975e-003 1.28865975e-003 0. 0.
      1.28865975e-003 0. 0. 1.28865975e-003 0. 0. 1.28865975e-003
      2.57731951e-003 0. 0. 1.28865975e-003 0. 1.28865975e-003 0.
      1.28865975e-003 1.28865975e-003 0. 0. 0. 0. 1.28865975e-003 0. 0.
      0. 0. 2.57731951e-003 0. 0. 0. 0. 0. 1.28865975e-003 0. 0. 0.
      2.57731951e-003 0. 0. 0. 1.28865975e-003 0. 0. 0. 2.57731951e-003
      0. 0. 0. 0. 1.28865975e-003 0. 0. 0. 0. 1.28865975e-003 0.
      1.28865975e-003 1.28865975e-003 1.28865975e-003 1.28865975e-003 0.
      0. 0. 0. 0. 0. 0. 0. 1.28865975e-003 0. 0. 1.28865975e-003
      1.28865975e-003 0. 0. 0. 1.28865975e-003 0. 1.28865975e-003
      1.28865975e-003 2.57731951e-003 0. 0. 0. 0. 0. 1.28865975e-003
      1.28865975e-003 0. 0. 0. 0. 2.57731951e-003 0. 0. 0.
      1.15979379e-002 1.28865975e-003 0. 3.86597915e-003 0. 0.
      2.57731951e-003 0. 0. 1.28865975e-003 0. 1.28865975e-003 0. 0. 0.
      2.57731951e-003 0. 5.15463902e-003 0. 0. 1.28865975e-003
      2.57731951e-003 0. 0. 2.57731951e-003 0. 5.15463902e-003 0.
      1.28865975e-003 1.28865975e-003 1.28865975e-003 0. 1.28865975e-003
      0. 2.57731951e-003 1.03092780e-002 0. 2.57731951e-003 0.
      2.57731951e-003 0. 0. 0. 0. 0. 0. 0. 0. 0. 2.57731951e-003
      1.28865975e-003 1.28865975e-003 0. 0. 0. 1.28865975e-003
      1.28865975e-003 0. 0. 1.28865975e-003 0. 1.28865975e-003
      1.28865975e-003 6.44329889e-003 0. 1.28865975e-003 1.28865975e-003
      0. 0. 0. 0. 0. 0. 3.86597915e-003 0. 0. 0. 0. 0. 0.
      2.57731951e-003 0. 0. 0. 1.28865975e-003 0. 1.28865975e-003 0.
      3.86597915e-003 0. 1.28865975e-003 0. 2.57731951e-003
      1.28865975e-003 0. 0. 0. 0. 0. 1.28865975e-003 0. 0. 0. 0. 0.
      1.28865975e-003 1.28865975e-003</_>
    <_>
      3.63636366e-003 0. 1.21212122e-003 2.42424244e-003 1.21212117e-002
      0. 1.21212122e-003 1.21212122e-003 0. 3.63636366e-003 0.
      3.63636366e-003 0. 0. 0. 0. 0. 1.21212122e-003 0. 1.21212122e-003
      0. 0. 2.42424244e-003 2.42424244e-003 0. 0. 0. 0. 2.42424244e-003
      2.42424244e-003 0. 0. 2.42424244e-003 0. 2.42424244e-003 0.
      2.42424244e-003 2.42424244e-003 1.21212122e-003 0. 1.21212122e-003
      2.42424244e-003 0. 0. 2.42424244e-003 3.63636366e-003 0. 0. 0. 0.
      1.21212122e-003 1.21212122e-003 0. 2.42424244e-003 1.21212122e-003
      1.21212122e-003 0. 2.42424244e-003 6.06060587e-003 1.21212122e-003
      0. 0. 0. 0. 0. 0. 1.21212122e-003 1.21212122e-003 2.42424244e-003
      3.63636366e-003 1.21212122e-003 0. 4.84848488e-003 2.42424244e-003
      0. 0. 0. 1.21212122e-003 1.21212122e-003 0. 1.21212122e-003 0.
      1.21212122e-003 1.21212122e-003 0. 0. 0. 0. 0. 0. 1.21212122e-003
      0. 0. 0. 0. 1.21212122e-003 3.63636366e-003 0. 0. 2.42424244e-003
      1.21212122e-003 1.21212122e-003 3.63636366e-003 3.63636366e-003
      2.42424244e-003 1.21212122e-003 1.21212122e-003 3.63636366e-003
      3.63636366e-003 1.21212122e-003 0. 0. 0. 0. 1.21212122e-003 0.
      1.21212122e-003 4.84848488e-003 0. 0. 0. 0. 4.84848488e-003 0. 0.
      0. 1.21212122e-003 1.21212122e-003 0. 2.42424244e-003 0.
      2.42424244e-003 6.06060587e-003 1.21212122e-003 1.21212122e-003 0.
      1.21212122e-003 3.63636366e-003 0. 0. 8.48484877e-003
      2.42424244e-003 0. 0. 0. 1.21212122e-003 4.84848488e-003 0.
      3.63636366e-003 0. 0. 0. 0. 2.42424244e-003 1.21212122e-003 0. 0.
      1.21212122e-003 1.21212122e-003 0. 0. 0. 0. 0. 1.21212122e-003
      2.42424244e-003 0. 3.63636366e-003 0. 0. 0. 1.21212122e-003
      2.42424244e-003 0. 1.21212122e-003 4.84848488e-003 0.
      2.42424244e-003 1.21212122e-003 3.63636366e-003 0. 0. 0. 0.
      2.42424244e-003 0. 0. 0. 0. 1.21212122e-003 0. 0. 0. 0. 0. 0.
      2.42424244e-003 0. 1.21212122e-003 0. 0. 1.21212122e-003 0.
      1.21212122e-003 1.21212122e-003 0. 0. 0. 0. 0. 0. 0. 0. 0. 0.
      1.21212122e-003 0. 1.21212122e-003 0. 0. 3.63636366e-003 0.
      3.63636366e-003 1.21212122e-003 2.42424244e-003 2.42424244e-003 0.
      3.63636366e-003 1.21212122e-003 0. 2.42424244e-003 6.06060587e-003
      0. 4.84848488e-003 2.42424244e-003 1.21212122e-003 0. 0. 0. 0.
      2.42424244e-003 0. 0. 0. 1.21212122e-003 1.21212122e-003 0.
      2.42424244e-003 0. 0. 0. 2.42424244e-003 0. 0. 3.63636366e-003 0.
      3.63636366e-003 1.21212122e-003 3.63636366e-003 0. 0.
      1.21212122e-003 1.21212122e-003 0. 0. 4.84848488e-003
      1.21212122e-003 1.21212122e-003 3.63636366e-003 4.84848488e-003
      1.21212122e-003 4.84848488e-003 1.21212122e-003 0. 0.
      4.84848488e-003 0. 0. 0. 2.42424244e-003 0. 3.63636366e-003 0. 0.
      2.42424244e-003 0. 0. 0. 0. 1.21212122e-003 0. 0. 1.21212122e-003
      1.21212122e-003 0. 1.09090907e-002 0. 0. 0. 0. 0. 1.21212122e-003
      2.42424244e-003 0. 2.42424244e-003 0. 0. 0. 0. 3.63636366e-003
      2.42424244e-003 0. 0. 1.21212122e-003 0. 1.21212122e-003
      1.21212122e-003 1.21212122e-003 0. 0. 0. 0. 0. 1.21212122e-003
      1.21212122e-003 6.06060587e-003 0. 0. 0. 2.42424244e-003 0. 0.
      1.21212122e-003 3.63636366e-003 0. 1.21212122e-003 4.84848488e-003
      2.42424244e-003 2.42424244e-003 0. 0. 0. 0. 1.21212122e-003 0.
      2.42424244e-003 0. 1.21212122e-003 2.42424244e-003 0.
      2.42424244e-003 0. 2.42424244e-003 0. 1.21212122e-003 0.
      1.09090907e-002 1.21212122e-003 0. 0. 1.21212122e-003
      3.63636366e-003 1.21212122e-003 0. 0. 0. 3.63636366e-003 0.
      6.06060587e-003 6.06060587e-003 2.42424244e-003 2.42424244e-003
      2.42424244e-003 0. 2.42424244e-003 1.21212122e-003 0.
      1.21212122e-003 0. 4.84848488e-003 1.21212122e-003 0.
      4.84848488e-003 2.42424244e-003 1.21212122e-003 0. 4.84848488e-003
      2.42424244e-003 0. 0. 0. 1.21212122e-003 1.21212122e-003
      1.21212122e-003 0. 9.69696976e-003 2.42424244e-003 0.
      2.42424244e-003 0. 2.42424244e-003 0. 0. 2.42424244e-003 0.
      8.48484877e-003 0. 0. 0. 0. 3.63636366e-003 0. 2.42424244e-003 0.
      0. 1.21212122e-003 0. 0. 1.21212122e-003 0. 0. 2.42424244e-003
      3.63636366e-003 0. 0. 0. 2.42424244e-003 0. 3.63636366e-003 0.
      1.21212122e-003 0. 0. 0. 2.42424244e-003 0. 0. 1.21212122e-003 0.
      0. 0. 0. 0. 0. 1.21212122e-003 0. 0. 0. 1.21212122e-003 0. 0.
      2.42424244e-003 0. 1.21212122e-003 0. 0. 0. 2.42424244e-003
      1.21212122e-003 0. 0. 0. 4.84848488e-003 0. 1.21212122e-003 0. 0.
      0. 0. 2.42424244e-003 0. 1.21212122e-003 0. 1.21212122e-003
      3.63636366e-003 3.63636366e-003 0. 0. 0. 0. 0. 0. 0. 0. 0. 0. 0.
      1.21212122e-003 3.63636366e-003 0. 0. 1.21212122e-003
      3.63636366e-003 0. 0. 0. 2.42424244e-003 0. 0. 0. 0. 0. 0. 0.
      6.06060587e-003 0. 0. 0. 1.21212122e-003 1.21212122e-003 0.
      3.63636366e-003 0. 0. 1.21212122e-003 4.84848488e-003
      1.21212122e-003 1.21212122e-003 1.21212122e-003 3.63636366e-003
      1.21212122e-003 1.21212122e-003 2.42424244e-003 0. 0.
      1.21212122e-003 0. 1.21212122e-003 2.42424244e-003 0.
      2.42424244e-003 0. 1.21212122e-003 0. 1.21212122e-003 0. 0.
      2.42424244e-003 0. 0. 2.42424244e-003 2.42424244e-003 0.
      1.21212122e-003 0. 0. 1.21212122e-003 0. 0. 0. 1.21212122e-003
      1.21212122e-003 2.42424244e-003 0. 0. 0. 3.63636366e-003
      1.21212122e-003 1.21212122e-003 0. 2.42424244e-003 1.21212122e-003
      0. 0. 0. 0. 2.42424244e-003 0. 3.63636366e-003 2.42424244e-003 0.
      0. 1.21212122e-003 0. 0. 0. 0. 0. 1.21212122e-003 0.
      2.42424244e-003 1.21212122e-003 0. 0. 3.63636366e-003 0. 0. 0. 0.
      1.21212122e-003 0. 1.21212122e-003 1.21212122e-003 1.21212122e-003
      0. 2.42424244e-003 0. 0. 0. 0. 1.21212122e-003 0. 0. 0. 0. 0.
      2.42424244e-003 0. 4.84848488e-003 3.63636366e-003 0.
      1.21212122e-003 0. 0. 2.42424244e-003 1.21212122e-003 0.
      1.21212122e-003 0. 2.42424244e-003 0. 2.42424244e-003
      2.42424244e-003 2.42424244e-003 0. 1.21212122e-003 0. 0.
      1.21212122e-003 1.21212122e-003 0. 0. 1.21212122e-003
      1.21212122e-003 0. 1.21212122e-003 1.21212122e-003 1.21212122e-003
      0. 0. 2.42424244e-003 2.42424244e-003 0. 0. 0. 3.63636366e-003
      1.21212122e-003 1.21212122e-003 2.42424244e-003 1.21212122e-003 0.
      1.21212122e-003 0. 3.63636366e-003 2.42424244e-003 0. 0.
      1.21212122e-003 1.21212122e-003 0. 0. 1.21212122e-003
      1.21212122e-003 4.84848488e-003 0. 1.21212122e-003 0. 0. 0.
      1.21212122e-003 1.21212122e-003 0. 0. 0. 2.42424244e-003 0.
      1.21212122e-003 0. 1.21212122e-003 0. 0. 0. 1.21212122e-003
      6.06060587e-003 1.21212122e-003 2.42424244e-003 1.21212122e-003
      4.84848488e-003 0. 0. 1.21212122e-003 1.21212122e-003
      3.63636366e-003 3.63636366e-003 0. 1.21212122e-003 0.
      2.42424244e-003 0. 1.21212122e-003 1.21212122e-003 0. 0.
      1.21212122e-003 0. 0. 0. 0. 0. 2.42424244e-003 1.21212122e-003 0.
      2.42424244e-003 1.21212122e-003 0. 1.21212122e-003 8.48484877e-003
      0. 0. 0. 0. 0. 3.63636366e-003 0. 1.21212122e-003 4.84848488e-003
      2.42424244e-003 4.84848488e-003 0. 1.21212122e-003 2.42424244e-003
      1.21212122e-003 0. 0. 0. 0. 0. 0. 0. 0. 0. 2.42424244e-003 0. 0.
      1.21212122e-003 1.21212122e-003 1.21212122e-003 3.63636366e-003 0.
      0. 1.21212122e-003 1.21212122e-003 0. 0. 0. 2.42424244e-003
      1.21212122e-003 1.21212122e-003 1.21212122e-003 0. 1.21212122e-003
      0. 0. 0. 1.21212122e-003 2.42424244e-003 1.21212122e-003 0.
      4.84848488e-003 0. 0. 3.63636366e-003 0. 1.21212122e-003 0. 0.
      1.21212122e-003 1.21212122e-003 1.21212122e-003 0. 0.
      3.63636366e-003 0. 0. 7.27272732e-003 0. 0. 0. 2.42424244e-003 0.
      2.42424244e-003 0. 1.21212122e-003 0. 3.63636366e-003 0.
      1.21212122e-003 0. 1.21212122e-003 0. 0. 0. 2.42424244e-003
      2.42424244e-003 2.42424244e-003 6.06060587e-003 0. 0. 0. 0. 0. 0.
      0. 0. 1.21212122e-003 0. 1.21212122e-003 0. 0. 0. 2.42424244e-003
      1.21212122e-003 0. 1.21212122e-003 1.21212122e-003 0.
      4.84848488e-003 1.21212122e-003 0. 0. 0. 1.21212122e-003 0. 0. 0.
      0. 0. 0. 0. 0. 1.21212122e-003 0. 0. 0. 0. 3.63636366e-003 0. 0.
      1.21212122e-003 0. 1.21212122e-003 0. 0. 1.21212122e-003
      2.42424244e-003 1.21212122e-003 0. 0. 0. 0. 0. 0. 0.
      2.42424244e-003 1.21212122e-003 0. 0. 0. 0. 0. 1.21212122e-003
      1.21212122e-003 2.42424244e-003 4.84848488e-003 1.21212122e-003 0.
      0. 0. 0. 1.21212122e-003 0. 1.21212122e-003 0. 1.21212122e-003
      7.27272732e-003 1.21212122e-003 0. 2.42424244e-003 0. 0. 0.
      3.63636366e-003 0. 0. 0. 1.21212122e-003 0. 0. 0. 0.
      1.21212122e-003 0. 1.21212122e-003 0. 1.21212122e-003 0.
      1.21212122e-003 0. 0. 0. 2.42424244e-003 2.42424244e-003
      1.21212122e-003 0. 2.42424244e-003 0. 0. 1.21212122e-003 0.
      2.42424244e-003 1.21212122e-003 0. 0. 1.21212122e-003 0. 0. 0. 0.
      0. 1.21212122e-003 0. 0. 0. 1.21212122e-003 0. 0. 0. 0. 0. 0. 0.
      0. 0. 0. 0. 0. 1.21212122e-003 1.21212122e-003 3.63636366e-003
      2.42424244e-003 0. 0. 2.42424244e-003 0. 3.63636366e-003 0.
      1.21212122e-003 2.42424244e-003 0. 0. 0. 0. 1.21212122e-003 0. 0.
      0. 1.21212122e-003 1.21212122e-003 0. 1.21212122e-003 0. 0. 0.
      4.84848488e-003 0. 3.63636366e-003 0. 0. 0. 0. 0. 0. 0.
      1.21212122e-003 0. 0. 0. 1.21212122e-003 0. 1.21212122e-003
      3.63636366e-003 0. 0. 0. 0. 0. 0. 0. 0. 1.21212122e-003</_>
    <_>
      1.36425649e-003 0. 4.09276970e-003 0. 8.18553939e-003 0.
      1.36425649e-003 0. 0. 2.72851298e-003 2.72851298e-003
      2.72851298e-003 1.36425649e-003 1.36425649e-003 0. 0. 0.
      4.09276970e-003 1.36425649e-003 0. 0. 0. 2.72851298e-003 0.
      1.36425649e-003 0. 0. 0. 1.36425649e-003 1.36425649e-003
      1.36425649e-003 0. 0. 1.36425649e-003 2.72851298e-003 0.
      2.72851298e-003 2.72851298e-003 1.36425649e-003 1.36425649e-003 0.
      2.72851298e-003 0. 0. 0. 1.36425649e-003 0. 0. 0. 0. 0.
      1.36425649e-003 0. 1.36425649e-003 0. 1.36425649e-003 0.
      1.36425649e-003 4.09276970e-003 0. 0. 0. 2.72851298e-003
      1.36425649e-003 0. 0. 1.36425649e-003 0. 6.82128221e-003
      1.36425649e-003 4.09276970e-003 0. 0. 4.09276970e-003 0. 0.
      1.36425649e-003 0. 0. 0. 4.09276970e-003 1.36425649e-003
      1.36425649e-003 2.72851298e-003 0. 0. 0. 0. 0. 0. 0.
      4.09276970e-003 0. 1.36425649e-003 0. 2.72851298e-003
      1.36425649e-003 0. 0. 2.72851298e-003 0. 1.36425649e-003
      2.72851298e-003 4.09276970e-003 0. 4.09276970e-003 0. 0.
      2.72851298e-003 0. 0. 0. 2.72851298e-003 0. 0. 2.72851298e-003
      1.36425649e-003 5.45702595e-003 0. 0. 0. 0. 2.72851298e-003 0. 0.
      1.36425649e-003 1.36425649e-003 0. 0. 1.36425649e-003 0.
      1.36425649e-003 1.36425649e-003 4.09276970e-003 0. 2.72851298e-003
      1.36425649e-003 0. 0. 1.36425649e-003 6.82128221e-003 0. 0. 0. 0.
      1.36425649e-003 6.82128221e-003 0. 8.18553939e-003 0. 0.
      1.36425649e-003 0. 2.72851298e-003 0. 0. 0. 1.36425649e-003
      1.36425649e-003 1.36425649e-003 1.36425649e-003 2.72851298e-003 0.
      0. 2.72851298e-003 0. 0. 4.09276970e-003 0. 0. 0. 0. 0. 0. 0.
      4.09276970e-003 0. 0. 0. 2.72851298e-003 1.36425649e-003 0. 0. 0.
      8.18553939e-003 0. 0. 0. 2.72851298e-003 0. 0. 0. 1.36425649e-003
      0. 0. 0. 0. 0. 0. 0. 0. 1.36425649e-003 0. 1.36425649e-003 0. 0.
      0. 0. 1.36425649e-003 0. 1.36425649e-003 1.36425649e-003 0.
      1.36425649e-003 0. 0. 0. 5.45702595e-003 0. 0. 2.72851298e-003 0.
      2.72851298e-003 0. 4.09276970e-003 0. 1.36425649e-003
      4.09276970e-003 1.36425649e-003 0. 2.72851298e-003 2.72851298e-003
      2.72851298e-003 8.18553939e-003 2.72851298e-003 0. 0. 0. 0. 0. 0.
      0. 0. 0. 6.82128221e-003 1.36425649e-003 0. 1.36425649e-003 0. 0.
      0. 2.72851298e-003 0. 1.36425649e-003 5.45702595e-003 0.
      1.36425649e-003 1.36425649e-003 0. 0. 0. 1.36425649e-003
      2.72851298e-003 0. 0. 2.72851298e-003 4.09276970e-003
      2.72851298e-003 4.09276970e-003 4.09276970e-003 1.36425649e-003
      1.36425649e-003 0. 1.36425649e-003 2.72851298e-003 2.72851298e-003
      0. 0. 0. 1.36425649e-003 0. 2.72851298e-003 0. 0. 5.45702595e-003
      0. 0. 0. 1.36425649e-003 0. 0. 1.36425649e-003 0. 0. 0.
      6.82128221e-003 0. 0. 0. 0. 1.36425649e-003 1.36425649e-003
      2.72851298e-003 0. 2.72851298e-003 0. 0. 0. 0. 5.45702595e-003
      8.18553939e-003 0. 0. 0. 1.36425649e-003 1.36425649e-003 0.
      1.36425649e-003 1.36425649e-003 0. 0. 0. 0. 0. 0. 2.72851298e-003
      0. 0. 0. 2.72851298e-003 0. 0. 0. 4.09276970e-003 0. 0.
      6.82128221e-003 2.72851298e-003 2.72851298e-003 0. 0. 0. 0.
      1.36425649e-003 0. 0. 0. 1.36425649e-003 2.72851298e-003
      1.36425649e-003 2.72851298e-003 0. 1.63710788e-002 0. 0.
      1.36425649e-003 4.09276970e-003 1.36425649e-003 1.36425649e-003 0.
      0. 5.45702595e-003 0. 0. 2.72851298e-003 0. 2.72851298e-003
      2.72851298e-003 5.45702595e-003 2.72851298e-003 2.72851298e-003
      2.72851298e-003 1.36425649e-003 0. 1.36425649e-003 0. 0.
      4.09276970e-003 0. 1.09140519e-002 0. 0. 0. 0. 1.36425649e-003 0.
      2.72851298e-003 1.36425649e-003 0. 0. 1.36425649e-003 0. 0.
      4.09276970e-003 1.36425649e-003 1.36425649e-003 0. 0.
      5.45702595e-003 0. 1.36425649e-003 0. 0. 1.36425649e-003 0.
      6.82128221e-003 0. 0. 1.36425649e-003 2.72851298e-003
      4.09276970e-003 1.36425649e-003 2.72851298e-003 0. 2.72851298e-003
      0. 0. 0. 0. 0. 0. 2.72851298e-003 2.72851298e-003 0. 0. 0.
      2.72851298e-003 0. 4.09276970e-003 0. 0. 2.72851298e-003 0. 0.
      5.45702595e-003 0. 0. 2.72851298e-003 0. 0. 0. 0. 5.45702595e-003
      0. 0. 0. 0. 0. 0. 0. 0. 1.36425649e-003 0. 0. 0. 0. 0.
      5.45702595e-003 0. 0. 0. 0. 0. 0. 0. 0. 0. 1.36425649e-003
      1.36425649e-003 1.36425649e-003 1.36425649e-003 0. 0. 0.
      4.09276970e-003 1.36425649e-003 4.09276970e-003 1.36425649e-003 0.
      0. 0. 2.72851298e-003 0. 1.36425649e-003 0. 0. 0. 1.36425649e-003
      2.72851298e-003 0. 0. 1.36425649e-003 2.72851298e-003 0. 0. 0. 0.
      0. 0. 0. 0. 0. 0. 0. 1.36425649e-003 0. 1.36425649e-003 0. 0.
      1.36425649e-003 0. 4.09276970e-003 2.72851298e-003 0.
      2.72851298e-003 8.18553939e-003 4.09276970e-003 0. 0.
      2.72851298e-003 0. 0. 1.36425649e-003 0. 0. 0. 0. 0.
      1.36425649e-003 1.36425649e-003 2.72851298e-003 0. 0. 0. 0.
      1.36425649e-003 2.72851298e-003 1.36425649e-003 1.36425649e-003 0.
      0. 1.36425649e-003 1.36425649e-003 0. 0. 0. 1.36425649e-003 0. 0.
      0. 0. 1.36425649e-003 1.36425649e-003 0. 0. 0. 6.82128221e-003 0.
      2.72851298e-003 1.36425649e-003 0. 4.09276970e-003 0. 0. 0. 0.
      1.36425649e-003 0. 0. 4.09276970e-003 0. 0. 0. 0. 0. 0.
      1.36425649e-003 0. 0. 2.72851298e-003 1.36425649e-003
      1.36425649e-003 0. 0. 0. 1.36425649e-003 1.36425649e-003
      1.36425649e-003 1.36425649e-003 6.82128221e-003 0. 0.
      5.45702595e-003 1.36425649e-003 0. 2.72851298e-003 2.72851298e-003
      0. 0. 0. 0. 0. 2.72851298e-003 0. 0. 0. 0. 0. 5.45702595e-003
      2.72851298e-003 0. 0. 0. 0. 4.09276970e-003 0. 0. 0.
      2.72851298e-003 2.72851298e-003 0. 0. 2.72851298e-003 0. 0.
      1.36425649e-003 0. 0. 0. 1.36425649e-003 0. 0. 0. 1.36425649e-003
      0. 0. 2.72851298e-003 0. 0. 0. 1.36425649e-003 2.72851298e-003 0.
      0. 0. 1.36425649e-003 1.36425649e-003 0. 1.36425649e-003 0. 0. 0.
      0. 0. 1.36425649e-003 0. 0. 0. 0. 0. 0. 0. 2.72851298e-003
      4.09276970e-003 0. 0. 0. 0. 0. 0. 1.36425649e-003 1.36425649e-003
      1.36425649e-003 0. 0. 1.36425649e-003 1.36425649e-003
      2.72851298e-003 0. 0. 1.36425649e-003 0. 1.36425649e-003
      6.82128221e-003 1.36425649e-003 1.36425649e-003 1.36425649e-003
      6.82128221e-003 0. 0. 0. 4.09276970e-003 1.36425649e-003
      1.36425649e-003 0. 0. 0. 1.36425649e-003 0. 2.72851298e-003
      1.36425649e-003 1.36425649e-003 0. 0. 0. 1.36425649e-003
      2.72851298e-003 0. 0. 4.09276970e-003 0. 0. 1.36425649e-003
      2.72851298e-003 0. 1.36425649e-003 9.54979565e-003 0.
      1.36425649e-003 1.36425649e-003 0. 0. 0. 0. 0. 2.72851298e-003
      5.45702595e-003 4.09276970e-003 0. 2.72851298e-003 0.
      2.72851298e-003 0. 0. 0. 0. 0. 1.36425649e-003 0. 1.36425649e-003
      0. 1.36425649e-003 1.36425649e-003 0. 1.36425649e-003 0. 0.
      1.36425649e-003 2.72851298e-003 0. 1.36425649e-003 0. 0.
      1.36425649e-003 1.36425649e-003 1.36425649e-003 2.72851298e-003 0.
      4.09276970e-003 0. 1.36425649e-003 0. 0. 1.36425649e-003
      1.36425649e-003 1.36425649e-003 0. 0. 5.45702595e-003 0. 0. 0.
      1.36425649e-003 0. 0. 0. 0. 0. 1.36425649e-003 0. 0.
      2.72851298e-003 0. 0. 2.72851298e-003 0. 0. 0. 2.72851298e-003 0.
      4.09276970e-003 0. 1.36425649e-003 4.09276970e-003 1.36425649e-003
      0. 0. 0. 1.36425649e-003 0. 0. 0. 1.36425649e-003 4.09276970e-003
      2.72851298e-003 5.45702595e-003 0. 0. 0. 0. 0. 2.72851298e-003 0.
      0. 0. 1.36425649e-003 1.36425649e-003 0. 1.36425649e-003 0.
      2.72851298e-003 1.36425649e-003 0. 1.36425649e-003 1.36425649e-003
      0. 4.09276970e-003 0. 0. 0. 0. 0. 0. 0. 0. 0. 0. 0. 0. 0.
      1.36425649e-003 0. 0. 0. 0. 4.09276970e-003 0. 1.36425649e-003 0.
      0. 0. 0. 0. 1.36425649e-003 1.36425649e-003 2.72851298e-003 0. 0.
      0. 0. 0. 0. 0. 2.72851298e-003 1.36425649e-003 0. 0. 0. 0. 0.
      1.36425649e-003 0. 0. 2.72851298e-003 0. 0. 0. 1.36425649e-003 0.
      0. 0. 2.72851298e-003 1.36425649e-003 5.45702595e-003
      2.72851298e-003 4.09276970e-003 0. 0. 0. 0. 0. 2.72851298e-003
      1.36425649e-003 1.36425649e-003 1.36425649e-003 2.72851298e-003 0.
      2.72851298e-003 0. 0. 0. 1.36425649e-003 2.72851298e-003 0.
      1.36425649e-003 0. 0. 0. 1.36425649e-003 0. 0. 1.36425649e-003 0.
      0. 2.72851298e-003 0. 0. 0. 0. 2.72851298e-003 0. 0.
      1.36425649e-003 1.36425649e-003 0. 1.36425649e-003 0. 0. 0.
      2.72851298e-003 4.09276970e-003 0. 0. 0. 0. 0. 0. 0. 0. 0. 0. 0.
      1.36425649e-003 1.36425649e-003 0. 1.36425649e-003 1.36425649e-003
      1.36425649e-003 0. 0. 0. 0. 0. 0. 0. 0. 0. 2.72851298e-003 0. 0.
      0. 0. 0. 0. 1.36425649e-003 0. 0. 0. 0. 0. 0. 0. 0.
      4.09276970e-003 0. 1.36425649e-003 0. 0. 0. 0. 0. 0. 0.
      1.36425649e-003 0. 0. 0. 0. 0. 1.36425649e-003 1.36425649e-003
      2.72851298e-003 0. 0. 0. 0. 0. 0. 1.36425649e-003 0.</_>
    <_>
      2.60078022e-003 1.30039011e-003 1.30039011e-003 1.30039011e-003
      1.17035108e-002 0. 0. 3.90117033e-003 0. 3.90117033e-003 0.
      1.30039011e-003 0. 0. 0. 0. 0. 7.80234067e-003 1.30039011e-003
      5.20156045e-003 0. 0. 0. 1.30039011e-003 0. 0. 0. 0.
      3.90117033e-003 0. 0. 1.30039011e-003 0. 2.60078022e-003
      2.60078022e-003 2.60078022e-003 0. 6.50195032e-003 1.30039011e-003
      0. 1.30039011e-003 1.30039011e-003 0. 0. 0. 0. 0. 0. 0. 0.
      1.30039011e-003 1.30039011e-003 0. 0. 2.60078022e-003
      9.10273101e-003 1.30039011e-003 0. 0. 1.30039011e-003 0.
      1.30039011e-003 1.30039011e-003 0. 0. 1.30039011e-003 0. 0.
      5.20156045e-003 2.60078022e-003 1.30039011e-003 0. 2.60078022e-003
      5.20156045e-003 1.30039011e-003 0. 0. 2.60078022e-003 0. 0.
      7.80234067e-003 1.30039011e-003 2.60078022e-003 2.60078022e-003 0.
      0. 0. 0. 0. 1.30039011e-003 0. 0. 0. 1.30039011e-003 0.
      1.30039011e-003 1.30039011e-003 0. 0. 2.60078022e-003 0.
      1.30039011e-003 5.20156045e-003 3.90117033e-003 2.60078022e-003
      3.90117033e-003 1.30039011e-003 1.30039011e-003 0. 0. 0.
      1.30039011e-003 0. 0. 0. 0. 0. 3.90117033e-003 0. 0. 0. 0.
      1.30039011e-003 0. 0. 1.30039011e-003 3.90117033e-003 0. 0.
      1.30039011e-003 0. 0. 1.30039011e-003 0. 2.60078022e-003 0.
      1.30039011e-003 2.60078022e-003 0. 0. 7.80234067e-003
      2.60078022e-003 0. 0. 0. 2.60078022e-003 5.20156045e-003 0.
      5.20156045e-003 0. 0. 1.30039011e-003 1.30039011e-003
      2.60078022e-003 0. 0. 0. 1.30039011e-003 0. 2.60078022e-003 0. 0.
      0. 0. 2.60078022e-003 0. 0. 5.20156045e-003 0. 0. 0. 0.
      1.30039011e-003 0. 1.30039011e-003 5.20156045e-003 0. 0. 0.
      1.30039011e-003 0. 0. 0. 0. 2.60078022e-003 1.30039011e-003 0. 0.
      0. 1.30039011e-003 0. 0. 0. 0. 0. 0. 5.20156045e-003 0. 0. 0.
      1.30039011e-003 2.60078022e-003 0. 0. 2.60078022e-003
      1.30039011e-003 0. 0. 0. 0. 3.90117033e-003 1.30039011e-003 0. 0.
      0. 2.60078022e-003 0. 1.17035108e-002 0. 0. 2.60078022e-003 0.
      1.30039011e-003 0. 1.30039011e-003 0. 0. 1.30039011e-003 0. 0.
      2.60078022e-003 1.30039011e-003 1.30039011e-003 1.17035108e-002 0.
      2.60078022e-003 0. 0. 0. 0. 0. 1.30039011e-003 0. 0.
      2.60078022e-003 1.30039011e-003 0. 1.30039011e-003 0. 0. 0.
      3.90117033e-003 0. 1.30039011e-003 2.60078022e-003 0.
      1.30039011e-003 1.30039011e-003 0. 0. 0. 0. 0. 0. 0.
      2.60078022e-003 2.60078022e-003 1.30039011e-003 2.60078022e-003
      2.60078022e-003 0. 2.60078022e-003 0. 0. 1.30039011e-003
      6.50195032e-003 0. 0. 0. 0. 0. 0. 0. 0. 0. 0. 0. 0. 0. 0. 0.
      1.30039011e-003 1.30039011e-003 0. 0. 7.80234067e-003 0. 0. 0.
      1.30039011e-003 0. 0. 1.30039011e-003 0. 1.30039011e-003 0. 0. 0.
      0. 2.60078022e-003 5.20156045e-003 0. 0. 1.30039011e-003
      1.30039011e-003 1.30039011e-003 0. 2.60078022e-003 0. 0. 0.
      2.60078022e-003 0. 0. 0. 3.90117033e-003 0. 0. 0. 3.90117033e-003
      0. 0. 0. 5.20156045e-003 0. 1.30039011e-003 2.60078022e-003
      2.60078022e-003 3.90117033e-003 0. 0. 1.30039011e-003 0.
      1.30039011e-003 0. 1.30039011e-003 0. 2.60078022e-003
      2.60078022e-003 2.60078022e-003 1.30039011e-003 0. 1.04031209e-002
      0. 0. 0. 5.20156045e-003 0. 0. 0. 1.30039011e-003 5.20156045e-003
      0. 0. 0. 0. 3.90117033e-003 1.30039011e-003 6.50195032e-003
      5.20156045e-003 2.60078022e-003 0. 2.60078022e-003 0.
      2.60078022e-003 0. 0. 2.60078022e-003 0. 5.20156045e-003
      1.30039011e-003 0. 7.80234067e-003 2.60078022e-003 0.
      1.30039011e-003 5.20156045e-003 3.90117033e-003 0. 0.
      1.30039011e-003 1.30039011e-003 1.30039011e-003 0. 0.
      3.90117033e-003 5.20156045e-003 1.30039011e-003 9.10273101e-003 0.
      5.20156045e-003 0. 0. 6.50195032e-003 0. 1.17035108e-002 0. 0.
      1.30039011e-003 0. 1.30039011e-003 0. 0. 1.30039011e-003
      3.90117033e-003 0. 0. 0. 0. 0. 0. 3.90117033e-003 5.20156045e-003
      0. 0. 0. 2.60078022e-003 0. 0. 0. 0. 0. 0. 0. 3.90117033e-003 0.
      0. 1.30039011e-003 0. 0. 0. 0. 1.30039011e-003 0. 0. 0. 0. 0. 0.
      0. 0. 1.30039011e-003 0. 0. 0. 0. 0. 5.20156045e-003 0.
      1.30039011e-003 0. 0. 1.30039011e-003 0. 0. 0. 0. 1.30039011e-003
      0. 0. 1.30039011e-003 0. 1.30039011e-003 0. 6.50195032e-003
      1.30039011e-003 3.90117033e-003 0. 0. 1.30039011e-003 0.
      1.30039011e-003 0. 0. 0. 0. 0. 0. 1.30039011e-003 0. 0.
      2.60078022e-003 3.90117033e-003 1.30039011e-003 1.30039011e-003 0.
      0. 0. 0. 0. 0. 0. 0. 0. 1.30039011e-003 1.30039011e-003 0. 0. 0.
      1.30039011e-003 0. 2.60078022e-003 3.90117033e-003 0.
      3.90117033e-003 6.50195032e-003 5.20156045e-003 0. 0.
      1.30039011e-003 0. 0. 2.60078022e-003 0. 0. 3.90117033e-003 0. 0.
      0. 0. 2.60078022e-003 0. 2.60078022e-003 0. 0. 1.30039011e-003 0.
      0. 2.60078022e-003 1.30039011e-003 1.30039011e-003 2.60078022e-003
      0. 0. 0. 0. 1.30039011e-003 0. 0. 0. 0. 1.30039011e-003
      1.30039011e-003 0. 0. 0. 3.90117033e-003 3.90117033e-003 0.
      3.90117033e-003 1.30039011e-003 0. 0. 0. 0. 0. 0. 0.
      2.60078022e-003 3.90117033e-003 0. 0. 0. 0. 0. 0. 0. 0. 0.
      1.30039011e-003 1.30039011e-003 0. 0. 0. 2.60078022e-003 0. 0.
      1.30039011e-003 0. 2.60078022e-003 0. 0. 1.30039011e-003
      1.30039011e-003 0. 1.30039011e-003 0. 0. 0. 0. 1.30039011e-003
      1.30039011e-003 0. 0. 0. 0. 1.30039011e-003 0. 2.60078022e-003
      2.60078022e-003 0. 1.30039011e-003 2.60078022e-003 0.
      1.30039011e-003 0. 0. 1.30039011e-003 1.30039011e-003
      2.60078022e-003 0. 0. 2.60078022e-003 0. 0. 5.20156045e-003 0. 0.
      0. 0. 0. 0. 0. 1.30039011e-003 0. 1.30039011e-003 1.30039011e-003
      1.30039011e-003 0. 0. 1.30039011e-003 1.30039011e-003 0. 0. 0.
      1.30039011e-003 1.30039011e-003 1.30039011e-003 0. 1.30039011e-003
      1.30039011e-003 0. 1.30039011e-003 1.30039011e-003 2.60078022e-003
      0. 0. 0. 2.60078022e-003 0. 0. 0. 2.60078022e-003 3.90117033e-003
      0. 0. 0. 0. 0. 0. 1.30039011e-003 1.30039011e-003 0. 0. 0.
      3.90117033e-003 1.30039011e-003 2.60078022e-003 0. 0.
      1.30039011e-003 0. 0. 5.20156045e-003 2.60078022e-003
      1.30039011e-003 1.30039011e-003 3.90117033e-003 0. 0.
      1.30039011e-003 5.20156045e-003 1.30039011e-003 1.30039011e-003 0.
      1.30039011e-003 0. 3.90117033e-003 1.30039011e-003 0.
      1.30039011e-003 0. 0. 0. 0. 2.60078022e-003 1.30039011e-003 0. 0.
      2.60078022e-003 0. 0. 3.90117033e-003 2.60078022e-003 0.
      1.04031209e-002 3.90117033e-003 0. 0. 0. 0. 0. 0. 0. 0.
      2.60078022e-003 0. 1.17035108e-002 0. 5.20156045e-003 0. 0.
      1.30039011e-003 0. 0. 0. 0. 1.30039011e-003 0. 0. 0.
      1.30039011e-003 1.30039011e-003 0. 2.60078022e-003 1.30039011e-003
      0. 2.60078022e-003 2.60078022e-003 0. 1.30039011e-003 0. 0.
      2.60078022e-003 0. 2.60078022e-003 1.30039011e-003 0.
      2.60078022e-003 0. 0. 0. 1.30039011e-003 0. 2.60078022e-003
      1.30039011e-003 1.30039011e-003 0. 1.30039011e-003 0. 0.
      2.60078022e-003 1.30039011e-003 0. 0. 0. 1.30039011e-003 0.
      1.30039011e-003 0. 0. 3.90117033e-003 0. 0. 2.60078022e-003 0. 0.
      1.30039011e-003 2.60078022e-003 0. 1.30039011e-003 0.
      2.60078022e-003 0. 6.50195032e-003 0. 1.30039011e-003 0. 0. 0. 0.
      0. 0. 2.60078022e-003 1.30039011e-003 6.50195032e-003 0. 0. 0. 0.
      0. 2.60078022e-003 0. 0. 0. 1.30039011e-003 1.30039011e-003 0. 0.
      1.30039011e-003 3.90117033e-003 1.30039011e-003 0. 1.30039011e-003
      0. 0. 3.90117033e-003 0. 0. 0. 1.30039011e-003 1.30039011e-003 0.
      0. 0. 0. 1.30039011e-003 1.30039011e-003 0. 0. 0. 0. 0. 0. 0.
      2.60078022e-003 0. 0. 0. 0. 0. 0. 0. 0. 2.60078022e-003 0. 0. 0.
      0. 0. 1.30039011e-003 0. 0. 0. 1.30039011e-003 2.60078022e-003 0.
      0. 0. 0. 2.60078022e-003 0. 0. 3.90117033e-003 2.60078022e-003 0.
      0. 1.30039011e-003 0. 0. 0. 1.30039011e-003 1.30039011e-003
      3.90117033e-003 2.60078022e-003 2.60078022e-003 0. 1.30039011e-003
      0. 0. 0. 1.30039011e-003 0. 0. 0. 1.30039011e-003 0.
      1.30039011e-003 0. 1.30039011e-003 0. 0. 3.90117033e-003 0.
      3.90117033e-003 0. 0. 0. 0. 0. 0. 0. 2.60078022e-003 0. 0. 0. 0.
      1.30039011e-003 0. 1.30039011e-003 3.90117033e-003 0. 0.
      1.30039011e-003 0. 0. 0. 0. 0. 2.60078022e-003 1.30039011e-003 0.
      0. 1.30039011e-003 0. 0. 0. 0. 0. 0. 0. 0. 1.30039011e-003
      1.30039011e-003 0. 1.30039011e-003 0. 1.30039011e-003
      1.30039011e-003 2.60078022e-003 1.30039011e-003 0. 0. 0.
      1.30039011e-003 0. 1.30039011e-003 0. 0. 0. 0. 0. 2.60078022e-003
      1.30039011e-003 6.50195032e-003 0. 2.60078022e-003 0. 0. 0. 0. 0.
      0. 2.60078022e-003 0. 2.60078022e-003 0. 0. 0. 0. 0. 0. 0.
      1.30039011e-003 0. 0. 0. 0. 0. 1.30039011e-003 2.60078022e-003 0.
      0. 0. 0. 0. 0. 0. 0. 0.</_>
    <_>
      2.38379021e-003 1.19189511e-003 1.19189511e-003 1.19189511e-003
      1.31108463e-002 0. 1.19189511e-003 1.19189511e-003 0.
      2.38379021e-003 0. 3.57568543e-003 0. 0. 0. 0. 0. 4.76758042e-003
      1.19189511e-003 2.38379021e-003 1.19189511e-003 0. 1.19189511e-003
      0. 1.19189511e-003 0. 0. 0. 3.57568543e-003 0. 0. 0. 0.
      1.19189511e-003 0. 1.19189511e-003 5.95947541e-003 2.38379021e-003
      1.19189511e-003 0. 0. 1.19189511e-003 0. 0. 1.19189511e-003
      4.76758042e-003 0. 0. 0. 0. 1.19189511e-003 4.76758042e-003 0.
      2.38379021e-003 0. 2.38379021e-003 0. 2.38379021e-003
      2.38379021e-003 2.38379021e-003 0. 0. 0. 1.19189511e-003
      1.19189511e-003 0. 1.19189511e-003 0. 5.95947541e-003
      3.57568543e-003 2.38379021e-003 1.19189511e-003 0. 3.57568543e-003
      0. 0. 0. 1.19189511e-003 0. 0. 5.95947541e-003 1.19189511e-003
      3.57568543e-003 0. 1.19189511e-003 1.19189511e-003 0.
      1.19189511e-003 0. 0. 0. 0. 0. 1.19189511e-003 0. 1.19189511e-003
      1.19189511e-003 0. 0. 2.38379021e-003 1.19189511e-003
      1.19189511e-003 1.19189511e-003 5.95947541e-003 2.38379021e-003
      4.76758042e-003 0. 2.38379021e-003 3.57568543e-003 0. 0. 0.
      2.38379021e-003 0. 0. 1.19189511e-003 1.19189511e-003
      7.15137087e-003 0. 0. 1.19189511e-003 0. 3.57568543e-003 0. 0.
      2.38379021e-003 2.38379021e-003 0. 2.38379021e-003 2.38379021e-003
      0. 0. 2.38379021e-003 1.19189511e-003 2.38379021e-003
      1.19189511e-003 0. 4.76758042e-003 0. 0. 4.76758042e-003
      1.19189511e-003 0. 0. 0. 0. 3.57568543e-003 0. 3.57568543e-003 0.
      0. 1.19189511e-003 0. 4.76758042e-003 0. 0. 0. 1.19189511e-003
      4.76758042e-003 1.19189511e-003 1.19189511e-003 1.19189511e-003 0.
      0. 2.38379021e-003 1.19189511e-003 0. 4.76758042e-003 0. 0. 0. 0.
      2.38379021e-003 2.38379021e-003 0. 5.95947541e-003 0.
      4.76758042e-003 0. 2.38379021e-003 1.19189511e-003 0. 0.
      1.19189511e-003 1.19189511e-003 0. 0. 0. 2.38379021e-003
      3.57568543e-003 0. 0. 0. 0. 0. 0. 8.34326539e-003 0.
      2.38379021e-003 0. 2.38379021e-003 1.19189511e-003 0. 0. 0.
      1.19189511e-003 0. 0. 1.19189511e-003 0. 3.57568543e-003
      1.19189511e-003 0. 1.19189511e-003 0. 2.38379021e-003 0.
      1.66865308e-002 0. 0. 3.57568543e-003 0. 1.19189511e-003
      1.19189511e-003 3.57568543e-003 3.57568543e-003 1.19189511e-003
      2.38379021e-003 2.38379021e-003 0. 3.57568543e-003 3.57568543e-003
      1.19189511e-003 1.19189508e-002 0. 2.38379021e-003 0. 0. 0. 0.
      1.19189511e-003 0. 0. 0. 5.95947541e-003 1.19189511e-003 0.
      2.38379021e-003 0. 0. 0. 4.76758042e-003 0. 0. 5.95947541e-003 0.
      0. 1.19189511e-003 1.19189511e-003 0. 0. 0. 0. 0. 0.
      2.38379021e-003 2.38379021e-003 2.38379021e-003 3.57568543e-003
      7.15137087e-003 0. 2.38379021e-003 0. 1.19189511e-003
      1.19189511e-003 5.95947541e-003 0. 0. 2.38379021e-003 0. 0.
      2.38379021e-003 0. 0. 2.38379021e-003 0. 0. 0. 0. 0. 0.
      1.19189511e-003 0. 0. 0. 5.95947541e-003 0. 0. 0. 0. 0. 0.
      1.19189511e-003 0. 1.19189511e-003 0. 0. 0. 0. 1.19189511e-003
      8.34326539e-003 0. 0. 0. 1.19189511e-003 1.19189511e-003
      1.19189511e-003 1.19189511e-003 1.19189511e-003 0. 0.
      1.19189511e-003 0. 0. 1.19189511e-003 1.19189511e-003 0. 0. 0.
      2.38379021e-003 0. 0. 0. 7.15137087e-003 0. 0. 3.57568543e-003 0.
      1.19189511e-003 0. 0. 0. 0. 1.19189511e-003 0. 1.19189511e-003
      1.19189511e-003 1.19189511e-003 1.19189511e-003 1.19189511e-003
      2.38379021e-003 0. 1.43027417e-002 0. 0. 0. 3.57568543e-003
      1.19189511e-003 0. 0. 0. 3.57568543e-003 0. 0. 1.19189511e-003 0.
      1.19189511e-003 2.38379021e-003 3.57568543e-003 2.38379021e-003 0.
      7.15137087e-003 1.19189511e-003 0. 2.38379021e-003 0. 0.
      3.57568543e-003 0. 1.07270563e-002 0. 0. 2.38379021e-003
      1.19189511e-003 0. 1.19189511e-003 5.95947541e-003 0. 0. 0.
      2.38379021e-003 1.19189511e-003 0. 0. 0. 2.38379021e-003
      2.38379021e-003 0. 8.34326539e-003 0. 3.57568543e-003 0. 0. 0. 0.
      2.38379021e-003 1.19189511e-003 0. 0. 0. 3.57568543e-003 0.
      2.38379021e-003 0. 3.57568543e-003 0. 0. 0. 0. 0. 0.
      2.38379021e-003 1.19189511e-003 0. 0. 0. 3.57568543e-003 0.
      2.38379021e-003 0. 0. 0. 0. 0. 1.19189511e-003 0. 0.
      3.57568543e-003 0. 0. 0. 0. 2.38379021e-003 0. 1.19189511e-003 0.
      0. 0. 0. 1.19189511e-003 0. 2.38379021e-003 0. 1.19189511e-003 0.
      0. 0. 4.76758042e-003 0. 1.19189511e-003 0. 0. 4.76758042e-003 0.
      0. 0. 0. 1.19189511e-003 0. 2.38379021e-003 1.19189511e-003
      1.19189511e-003 0. 0. 3.57568543e-003 4.76758042e-003
      1.19189511e-003 0. 0. 1.19189511e-003 0. 0. 0. 1.19189511e-003 0.
      0. 0. 1.19189511e-003 2.38379021e-003 0. 0. 1.19189511e-003
      1.19189511e-003 1.19189511e-003 0. 0. 2.38379021e-003 0. 0. 0. 0.
      0. 0. 0. 2.38379021e-003 0. 0. 0. 2.38379021e-003 1.19189511e-003
      0. 4.76758042e-003 2.38379021e-003 0. 3.57568543e-003
      2.38379021e-003 4.76758042e-003 1.19189511e-003 1.19189511e-003
      3.57568543e-003 0. 0. 1.19189511e-003 0. 0. 0. 0. 0.
      3.57568543e-003 0. 1.19189511e-003 0. 0. 0. 0. 0. 1.19189511e-003
      0. 2.38379021e-003 0. 2.38379021e-003 1.19189511e-003 0. 0. 0. 0.
      1.19189511e-003 0. 0. 0. 0. 2.38379021e-003 0. 0. 0. 0.
      2.38379021e-003 1.19189511e-003 0. 2.38379021e-003 0.
      1.19189511e-003 0. 0. 0. 0. 1.19189511e-003 0. 2.38379021e-003
      2.38379021e-003 0. 0. 0. 0. 0. 0. 0. 0. 1.19189511e-003
      1.19189511e-003 1.19189511e-003 0. 0. 0. 1.19189511e-003
      1.19189511e-003 0. 0. 1.19189511e-003 4.76758042e-003 0. 0. 0. 0.
      0. 2.38379021e-003 0. 0. 1.19189511e-003 0. 3.57568543e-003 0. 0.
      0. 1.19189511e-003 0. 3.57568543e-003 0. 3.57568543e-003
      1.19189511e-003 0. 1.19189511e-003 0. 0. 3.57568543e-003
      1.19189511e-003 0. 1.19189511e-003 0. 1.19189511e-003 0.
      1.19189511e-003 1.19189511e-003 0. 0. 2.38379021e-003 0. 0. 0. 0.
      0. 1.19189511e-003 0. 0. 1.19189511e-003 0. 1.19189511e-003
      1.19189511e-003 0. 0. 2.38379021e-003 0. 0. 0. 0. 1.19189511e-003
      0. 0. 1.19189511e-003 0. 0. 1.19189511e-003 0. 2.38379021e-003
      1.19189511e-003 0. 0. 0. 2.38379021e-003 0. 0. 0. 1.19189511e-003
      3.57568543e-003 0. 1.19189511e-003 0. 0. 0. 2.38379021e-003
      1.19189511e-003 3.57568543e-003 0. 0. 2.38379021e-003
      2.38379021e-003 0. 1.19189511e-003 0. 0. 0. 0. 0. 3.57568543e-003
      0. 2.38379021e-003 1.19189511e-003 7.15137087e-003 0. 0.
      1.19189511e-003 2.38379021e-003 1.19189511e-003 0. 0. 0. 0.
      3.57568543e-003 0. 2.38379021e-003 0. 2.38379021e-003 0. 0. 0.
      2.38379021e-003 2.38379021e-003 0. 0. 1.19189511e-003 0. 0.
      3.57568543e-003 3.57568543e-003 0. 4.76758042e-003 7.15137087e-003
      0. 0. 0. 0. 0. 1.19189511e-003 0. 1.19189511e-003 4.76758042e-003
      1.19189511e-003 5.95947541e-003 0. 2.38379021e-003 0. 0. 0. 0. 0.
      0. 0. 2.38379021e-003 0. 0. 0. 0. 1.19189511e-003 0. 0. 0.
      1.19189511e-003 1.19189511e-003 2.38379021e-003 0. 1.19189511e-003
      0. 0. 2.38379021e-003 0. 2.38379021e-003 1.19189511e-003 0.
      1.19189511e-003 0. 1.19189511e-003 0. 2.38379021e-003
      1.19189511e-003 0. 2.38379021e-003 0. 0. 4.76758042e-003 0. 0. 0.
      0. 0. 1.19189511e-003 0. 2.38379021e-003 0. 0. 0. 0.
      3.57568543e-003 0. 0. 2.38379021e-003 2.38379021e-003 0.
      2.38379021e-003 1.19189511e-003 0. 2.38379021e-003 0. 0.
      2.38379021e-003 2.38379021e-003 1.19189511e-003 0. 0. 0. 0. 0. 0.
      0. 0. 2.38379021e-003 4.76758042e-003 0. 1.19189511e-003 0. 0. 0.
      1.19189511e-003 0. 1.19189511e-003 0. 1.19189511e-003
      1.19189511e-003 0. 1.19189511e-003 0. 0. 2.38379021e-003 0.
      1.19189511e-003 1.19189511e-003 1.19189511e-003 5.95947541e-003
      2.38379021e-003 0. 1.19189511e-003 0. 0. 0. 1.19189511e-003 0. 0.
      0. 0. 0. 0. 1.19189511e-003 0. 0. 0. 0. 1.19189511e-003 0.
      1.19189511e-003 0. 0. 0. 0. 0. 1.19189511e-003 2.38379021e-003
      1.19189511e-003 0. 0. 0. 0. 0. 0. 0. 0. 1.19189511e-003 0. 0. 0.
      0. 0. 2.38379021e-003 0. 1.19189511e-003 3.57568543e-003
      2.38379021e-003 0. 0. 2.38379021e-003 0. 0. 0. 3.57568543e-003 0.
      5.95947541e-003 8.34326539e-003 3.57568543e-003 0. 0. 0. 0.
      1.19189511e-003 3.57568543e-003 1.19189511e-003 0. 0.
      2.38379021e-003 0. 0. 0. 1.19189511e-003 0. 0. 3.57568543e-003 0.
      0. 0. 1.19189511e-003 1.19189511e-003 2.38379021e-003
      2.38379021e-003 1.19189511e-003 0. 0. 0. 0. 0. 0. 2.38379021e-003
      0. 2.38379021e-003 1.19189511e-003 0. 0. 2.38379021e-003 0. 0. 0.
      0. 0. 2.38379021e-003 1.19189511e-003 0. 0. 1.19189511e-003 0. 0.
      0. 0. 0. 0. 0. 0. 1.19189511e-003 1.19189511e-003 0.
      2.38379021e-003 2.38379021e-003 1.19189511e-003 0. 0. 0. 0. 0. 0.
      1.19189511e-003 0. 1.19189511e-003 0. 0. 0. 0. 0. 0. 0. 0. 0. 0.
      0. 0. 0. 1.19189511e-003 0. 1.19189511e-003 2.38379021e-003 0.
      2.38379021e-003 0. 1.19189511e-003 1.19189511e-003 0. 0. 0. 0.
      2.38379021e-003 0. 0. 0. 0. 0. 1.19189511e-003 1.19189511e-003
      1.19189511e-003 1.19189511e-003 0. 0. 0. 0. 0. 0. 0.</_>
    <_>
      0. 0. 0. 0. 2.60416674e-003 0. 0. 0. 0. 0. 2.60416674e-003 0. 0.
      5.20833349e-003 0. 0. 0. 2.60416674e-003 5.20833349e-003 0. 0. 0.
      0. 0. 2.60416674e-003 2.60416674e-003 7.81250000e-003 0. 0. 0.
      5.20833349e-003 0. 5.20833349e-003 5.20833349e-003 2.60416674e-003
      0. 0. 2.60416674e-003 0. 0. 0. 5.20833349e-003 2.60416674e-003 0.
      0. 7.81250000e-003 0. 0. 0. 0. 2.60416674e-003 0. 0. 0. 0. 0.
      2.60416674e-003 0. 2.60416674e-003 2.60416674e-003 0. 0. 0. 0. 0.
      2.60416674e-003 2.60416674e-003 0. 2.60416674e-003 7.81250000e-003
      1.30208340e-002 2.60416674e-003 0. 0. 2.60416674e-003 0. 0. 0. 0.
      0. 2.60416674e-003 5.20833349e-003 2.60416674e-003 0. 0. 0. 0. 0.
      0. 0. 0. 0. 0. 0. 0. 0. 0. 0. 0. 0. 2.60416674e-003
      2.60416674e-003 0. 0. 5.20833349e-003 2.60416674e-003 0.
      5.20833349e-003 0. 0. 0. 0. 0. 0. 2.60416674e-003 0. 0.
      2.60416674e-003 0. 0. 0. 0. 5.20833349e-003 0. 0. 2.60416674e-003
      2.60416674e-003 2.60416674e-003 0. 0. 2.60416674e-003 0.
      2.60416674e-003 2.60416674e-003 0. 0. 2.60416674e-003 0. 0. 0. 0.
      2.60416674e-003 0. 0. 0. 0. 5.20833349e-003 0. 0. 0. 0. 0. 0. 0.
      0. 0. 0. 0. 5.20833349e-003 0. 0. 0. 2.60416674e-003
      2.60416674e-003 0. 0. 0. 0. 0. 0. 0. 0. 2.60416674e-003 0.
      2.60416674e-003 0. 0. 0. 0. 0. 2.60416674e-003 2.60416674e-003 0.
      0. 7.81250000e-003 2.60416674e-003 0. 0. 0. 2.60416674e-003
      2.60416674e-003 0. 0. 2.60416674e-003 0. 0. 2.60416674e-003
      2.60416674e-003 0. 0. 0. 2.60416674e-003 0. 0. 0. 2.60416674e-003
      0. 0. 0. 0. 0. 0. 0. 0. 0. 0. 0. 0. 0. 0. 0. 0. 0. 0. 0. 0. 0.
      2.60416674e-003 0. 0. 2.60416674e-003 2.60416674e-003
      2.60416674e-003 2.60416674e-003 0. 0. 0. 0. 0. 0. 1.30208340e-002
      0. 0. 0. 2.60416674e-003 0. 2.60416674e-003 5.20833349e-003 0. 0.
      2.60416674e-003 2.60416674e-003 0. 0. 0. 0. 1.04166670e-002 0. 0.
      0. 0. 2.60416674e-003 2.60416674e-003 0. 0. 0. 2.60416674e-003 0.
      2.60416674e-003 2.60416674e-003 2.60416674e-003 5.20833349e-003 0.
      0. 0. 0. 0. 0. 2.60416674e-003 0. 0. 0. 0. 0. 0. 2.60416674e-003
      0. 0. 2.60416674e-003 0. 0. 0. 0. 0. 5.20833349e-003
      5.20833349e-003 0. 0. 2.60416674e-003 2.60416674e-003
      2.60416674e-003 2.60416674e-003 0. 0. 0. 0. 0. 5.20833349e-003 0.
      0. 0. 0. 0. 0. 0. 0. 5.20833349e-003 0. 0. 0. 0. 0. 0.
      2.60416674e-003 2.60416674e-003 0. 0. 0. 0. 0. 0. 2.60416674e-003
      0. 0. 0. 2.60416674e-003 1.04166670e-002 5.20833349e-003 0.
      5.20833349e-003 0. 0. 0. 0. 2.60416674e-003 0. 2.60416674e-003
      2.60416674e-003 0. 0. 0. 0. 0. 0. 0. 0. 5.20833349e-003 0. 0. 0.
      2.60416674e-003 0. 2.60416674e-003 0. 0. 0. 5.20833349e-003 0.
      2.60416674e-003 0. 0. 2.60416674e-003 5.20833349e-003
      2.60416674e-003 0. 2.60416674e-003 0. 0. 0. 5.20833349e-003 0. 0.
      0. 0. 5.20833349e-003 0. 2.60416674e-003 0. 0. 0. 2.60416674e-003
      0. 2.60416674e-003 2.86458340e-002 0. 2.60416674e-003 0. 0. 0. 0.
      0. 0. 0. 2.60416674e-003 0. 5.20833349e-003 0. 0. 0. 0. 0.
      2.60416674e-003 0. 2.60416674e-003 0. 0. 0. 0. 0. 0.
      2.60416674e-003 0. 1.04166670e-002 0. 0. 5.20833349e-003
      5.20833349e-003 0. 2.60416674e-003 0. 0. 1.04166670e-002 0. 0. 0.
      0. 0. 0. 2.60416674e-003 0. 0. 0. 0. 0. 0. 0. 0. 0. 0.
      5.20833349e-003 2.60416674e-003 2.60416674e-003 2.60416674e-003 0.
      0. 0. 0. 0. 0. 0. 0. 5.20833349e-003 0. 0. 0. 0. 0. 0. 0.
      5.20833349e-003 0. 2.60416674e-003 0. 7.81250000e-003 0.
      1.82291679e-002 0. 0. 2.60416674e-003 0. 2.60416674e-003 0. 0. 0.
      0. 0. 0. 0. 2.60416674e-003 0. 0. 0. 0. 0. 0. 0. 0. 0. 0. 0. 0. 0.
      0. 0. 0. 7.81250000e-003 0. 0. 5.20833349e-003 0. 0. 0.
      2.60416674e-003 0. 2.60416674e-003 2.60416674e-003 5.20833349e-003
      2.60416674e-003 2.60416674e-003 2.60416674e-003 0. 0.
      5.20833349e-003 0. 0. 0. 0. 2.60416674e-003 0. 0. 0. 0. 0. 0. 0.
      5.20833349e-003 7.81250000e-003 0. 0. 2.60416674e-003 0.
      2.60416674e-003 0. 0. 2.60416674e-003 0. 0. 2.60416674e-003
      2.60416674e-003 0. 0. 0. 0. 2.60416674e-003 0. 0. 0.
      2.60416674e-003 2.60416674e-003 0. 0. 0. 0. 0. 0. 0. 0. 0. 0. 0.
      0. 2.60416674e-003 0. 0. 0. 0. 0. 2.60416674e-003 5.20833349e-003
      0. 0. 0. 0. 0. 0. 5.20833349e-003 7.81250000e-003 0. 0.
      7.81250000e-003 0. 0. 0. 0. 0. 5.20833349e-003 0. 2.60416674e-003
      0. 0. 0. 0. 0. 2.60416674e-003 0. 0. 0. 0. 0. 0. 0.
      2.60416674e-003 0. 0. 0. 2.60416674e-003 0. 2.60416674e-003
      2.60416674e-003 0. 0. 0. 2.60416674e-003 0. 0. 0. 0. 0. 0.
      2.60416674e-003 2.60416674e-003 0. 2.60416674e-003 0. 0.
      2.60416674e-003 0. 0. 0. 2.60416674e-003 0. 0. 2.60416674e-003 0.
      0. 5.20833349e-003 0. 0. 2.60416674e-003 0. 0. 2.60416674e-003
      5.20833349e-003 2.60416674e-003 0. 0. 0. 0. 2.60416674e-003 0. 0.
      0. 0. 0. 0. 0. 0. 0. 0. 0. 0. 5.20833349e-003 0. 5.20833349e-003
      2.60416674e-003 2.60416674e-003 0. 0. 2.60416674e-003
      5.20833349e-003 2.60416674e-003 2.60416674e-003 2.60416674e-003
      2.60416674e-003 5.20833349e-003 2.60416674e-003 2.60416674e-003
      5.20833349e-003 0. 0. 0. 0. 0. 0. 0. 2.60416674e-003
      2.60416674e-003 0. 0. 0. 7.81250000e-003 2.60416674e-003 0. 0. 0.
      0. 0. 0. 0. 0. 2.60416674e-003 0. 5.20833349e-003 0. 0. 0. 0.
      7.81250000e-003 0. 0. 0. 0. 0. 0. 0. 2.60416674e-003 0.
      2.60416674e-003 0. 0. 2.60416674e-003 0. 0. 0. 0. 0. 0.
      2.60416674e-003 0. 0. 0. 0. 0. 0. 0. 0. 0. 2.60416674e-003 0. 0.
      2.60416674e-003 0. 0. 0. 2.60416674e-003 2.60416674e-003 0. 0. 0.
      0. 0. 0. 0. 0. 0. 0. 0. 0. 0. 0. 2.60416674e-003 5.20833349e-003
      0. 2.60416674e-003 0. 0. 0. 0. 0. 0. 2.60416674e-003 0. 0. 0.
      2.60416674e-003 0. 0. 0. 0. 0. 0. 0. 2.60416674e-003 0. 0. 0. 0.
      0. 5.20833349e-003 0. 0. 0. 0. 0. 0. 0. 0. 0. 0. 2.60416674e-003
      0. 0. 0. 0. 0. 0. 0. 0. 0. 0. 0. 0. 0. 5.20833349e-003 0. 0. 0. 0.
      0. 2.60416674e-003 0. 0. 0. 2.60416674e-003 0. 0. 0. 0. 0. 0. 0.
      0. 0. 0. 0. 0. 0. 0. 0. 0. 2.60416674e-003 5.20833349e-003
      2.60416674e-003 0. 0. 0. 0. 0. 0. 2.60416674e-003 0. 0. 0.
      2.60416674e-003 5.20833349e-003 0. 0. 0. 0. 2.60416674e-003 0.
      2.60416674e-003 2.60416674e-003 0. 0. 0. 2.60416674e-003 0. 0. 0.
      0. 2.60416674e-003 2.60416674e-003 7.81250000e-003 2.60416674e-003
      0. 0. 0. 0. 0. 0. 0. 0. 2.60416674e-003 0. 0. 0. 0.
      2.60416674e-003 0. 0. 0. 2.60416674e-003 0. 0. 0. 0. 0.
      2.60416674e-003 0. 0. 0. 5.20833349e-003 0. 5.20833349e-003 0. 0.
      0. 0. 2.60416674e-003 0. 0. 0. 0. 0. 0. 2.60416674e-003 0.
      2.60416674e-003 5.20833349e-003 0. 0. 0. 0. 0. 0. 0.
      2.60416674e-003 0. 0. 2.60416674e-003 0. 0. 0. 0. 0. 0.
      5.20833349e-003 0. 0. 2.60416674e-003 0. 2.60416674e-003 0.
      5.20833349e-003 0. 0. 0. 5.20833349e-003 0. 0. 0. 0.
      2.60416674e-003 0. 0. 0. 0. 0. 0. 0. 0. 0. 0. 0. 0. 0. 0. 0. 0. 0.
      2.60416674e-003 0. 7.81250000e-003 2.60416674e-003 0. 0. 0.
      2.60416674e-003 0. 0. 0. 0. 0. 0. 0. 0. 0. 0. 0.</_>
    <_>
      0. 0. 0. 0. 4.55580885e-003 0. 2.27790442e-003 0. 0. 0.
      2.27790442e-003 0. 2.27790442e-003 4.55580885e-003 0. 0. 0.
      2.27790442e-003 2.27790442e-003 0. 2.27790442e-003 0. 0. 0.
      2.27790442e-003 0. 4.55580885e-003 2.27790442e-003 0. 0. 0. 0.
      4.55580885e-003 2.27790442e-003 2.27790442e-003 0. 0.
      4.55580885e-003 0. 2.27790442e-003 0. 2.27790442e-003 0. 0. 0.
      1.36674270e-002 0. 0. 0. 0. 0. 0. 0. 4.55580885e-003 0.
      4.55580885e-003 0. 6.83371350e-003 0. 0. 0. 0. 0. 0. 0.
      2.27790442e-003 2.27790442e-003 0. 4.55580885e-003 1.36674270e-002
      0. 0. 2.27790442e-003 0. 0. 0. 0. 0. 2.27790442e-003 0.
      2.27790442e-003 0. 6.83371350e-003 0. 0. 0. 0. 0. 9.11161769e-003
      0. 0. 2.27790442e-003 0. 0. 2.27790442e-003 0. 2.27790442e-003 0.
      0. 0. 0. 0. 2.27790442e-003 0. 0. 2.27790442e-003 0. 0.
      6.83371350e-003 2.96127573e-002 2.27790442e-003 0. 0. 0.
      4.55580885e-003 0. 0. 0. 0. 0. 0. 4.55580885e-003 6.83371350e-003
      6.83371350e-003 2.27790442e-003 0. 2.27790442e-003 0.
      2.27790442e-003 0. 0. 2.27790442e-003 4.55580885e-003
      4.55580885e-003 2.27790442e-003 0. 4.55580885e-003 2.27790442e-003
      2.27790442e-003 0. 4.55580885e-003 0. 0. 0. 0. 0. 0.
      2.27790442e-003 2.27790442e-003 2.27790442e-003 0. 0. 0. 0.
      2.27790442e-003 2.27790442e-003 0. 0. 2.27790442e-003 0. 0. 0. 0.
      0. 2.27790442e-003 0. 0. 2.27790442e-003 0. 2.27790442e-003
      4.55580885e-003 0. 0. 0. 6.83371350e-003 0. 0. 0. 0.
      2.27790442e-003 2.27790442e-003 0. 0. 0. 0. 4.55580885e-003 0.
      2.27790442e-003 2.27790442e-003 0. 2.27790442e-003 0. 0.
      4.55580885e-003 0. 0. 2.27790442e-003 0. 0. 0. 0. 4.55580885e-003
      2.27790442e-003 2.27790442e-003 0. 2.27790442e-003 0. 0.
      2.27790442e-003 0. 0. 0. 0. 0. 2.27790442e-003 0. 0. 0. 0. 0.
      4.55580885e-003 0. 0. 0. 2.27790442e-003 0. 0. 2.27790442e-003 0.
      0. 2.27790442e-003 2.27790442e-003 4.55580885e-003 0. 0.
      2.27790442e-003 0. 4.55580885e-003 0. 0. 2.27790442e-003
      2.27790442e-003 0. 0. 2.27790442e-003 0. 2.27790442e-003
      2.27790442e-003 1.13895219e-002 0. 0. 2.27790442e-003 0. 0.
      2.27790442e-003 0. 4.55580885e-003 2.27790442e-003 2.27790442e-003
      2.27790442e-003 2.27790442e-003 0. 0. 0. 0. 0. 0. 0.
      2.27790442e-003 2.27790442e-003 2.27790442e-003 0. 2.27790442e-003
      4.55580885e-003 0. 2.27790442e-003 0. 0. 0. 2.27790442e-003 0.
      4.55580885e-003 2.27790442e-003 0. 0. 0. 0. 0. 4.55580885e-003 0.
      0. 0. 0. 0. 0. 6.83371350e-003 0. 0. 2.27790442e-003 0. 0.
      4.55580885e-003 2.27790442e-003 0. 0. 0. 0. 2.27790442e-003 0. 0.
      0. 0. 0. 2.27790442e-003 2.27790442e-003 0. 6.83371350e-003
      2.27790442e-003 0. 0. 6.83371350e-003 0. 0. 0. 2.27790442e-003 0.
      0. 0. 0. 0. 0. 0. 0. 0. 0. 0. 4.55580885e-003 4.55580885e-003 0.
      2.27790442e-003 0. 0. 2.27790442e-003 0. 2.27790442e-003 0. 0. 0.
      0. 0. 0. 2.27790442e-003 0. 0. 0. 0. 6.83371350e-003 0. 0. 0. 0.
      0. 0. 0. 2.27790442e-003 0. 6.83371350e-003 0. 4.55580885e-003 0.
      0. 0. 6.83371350e-003 0. 0. 2.27790442e-003 0. 4.55580885e-003 0.
      6.83371350e-003 0. 0. 0. 2.27790442e-003 4.55580885e-003 0.
      4.55580885e-003 0. 0. 0. 0. 0. 0. 1.59453303e-002 2.27790442e-003
      2.27790442e-003 0. 0. 0. 0. 0. 0. 0. 2.27790442e-003 0.
      2.27790442e-003 0. 0. 0. 0. 0. 0. 0. 2.27790442e-003 0.
      2.27790442e-003 0. 0. 2.27790442e-003 0. 2.27790442e-003
      2.27790442e-003 0. 0. 0. 0. 0. 0. 4.55580885e-003 0. 0.
      4.55580885e-003 0. 0. 0. 0. 0. 0. 0. 0. 0. 0. 4.55580885e-003 0.
      0. 0. 0. 0. 0. 4.55580885e-003 4.55580885e-003 4.55580885e-003 0.
      0. 0. 0. 0. 0. 0. 2.27790442e-003 0. 4.55580885e-003 0.
      2.27790442e-003 2.27790442e-003 0. 0. 0. 0. 4.55580885e-003 0. 0.
      0. 2.27790442e-003 4.55580885e-003 9.11161769e-003 0. 0.
      2.27790442e-003 0. 0. 0. 0. 0. 0. 0. 0. 2.27790442e-003 0. 0. 0.
      0. 0. 2.27790442e-003 2.27790442e-003 0. 0. 0. 0. 0. 0. 0. 0. 0.
      0. 0. 0. 0. 0. 0. 2.27790442e-003 0. 0. 0. 4.55580885e-003
      2.27790442e-003 0. 0. 0. 0. 2.27790442e-003 0. 2.27790442e-003 0.
      0. 0. 0. 0. 0. 0. 2.27790442e-003 0. 0. 0. 0. 2.27790442e-003
      4.55580885e-003 2.27790442e-003 2.27790442e-003 0. 0.
      2.27790442e-003 0. 0. 0. 0. 0. 0. 0. 2.27790442e-003 0. 0. 0. 0.
      0. 0. 0. 0. 0. 0. 0. 0. 0. 0. 0. 0. 2.27790442e-003 0. 0. 0. 0. 0.
      0. 0. 0. 2.27790442e-003 0. 2.27790442e-003 4.55580885e-003 0.
      2.27790442e-003 0. 2.27790442e-003 2.27790442e-003 0.
      2.27790442e-003 0. 0. 0. 2.27790442e-003 0. 2.27790442e-003 0. 0.
      0. 0. 2.27790442e-003 0. 0. 2.27790442e-003 2.27790442e-003 0. 0.
      4.55580885e-003 0. 0. 2.27790442e-003 0. 0. 0. 0. 2.27790442e-003
      0. 0. 0. 0. 0. 0. 0. 2.27790442e-003 0. 0. 4.55580885e-003
      2.27790442e-003 0. 0. 0. 0. 0. 0. 0. 0. 0. 0. 0. 0. 0. 0. 0. 0.
      4.55580885e-003 0. 0. 0. 0. 4.55580885e-003 0. 0. 0.
      4.55580885e-003 0. 0. 0. 2.27790442e-003 0. 0. 0. 0.
      2.27790442e-003 0. 0. 0. 0. 2.05011405e-002 0. 0. 0. 0. 0. 0. 0.
      2.27790442e-003 0. 2.27790442e-003 0. 0. 0. 0. 0. 0.
      2.27790442e-003 0. 0. 6.83371350e-003 2.27790442e-003
      4.55580885e-003 0. 0. 0. 0. 0. 0. 0. 0. 0. 2.27790442e-003
      2.27790442e-003 1.13895219e-002 2.27790442e-003 2.27790442e-003
      4.55580885e-003 2.27790442e-003 0. 0. 0. 0. 2.27790442e-003 0. 0.
      0. 0. 0. 2.27790442e-003 0. 2.27790442e-003 4.55580885e-003 0.
      9.11161769e-003 0. 0. 0. 0. 0. 0. 2.27790442e-003 2.27790442e-003
      2.27790442e-003 2.27790442e-003 0. 0. 2.27790442e-003 0. 0. 0. 0.
      0. 0. 0. 2.27790442e-003 0. 0. 0. 0. 0. 2.27790442e-003 0. 0. 0.
      0. 0. 0. 0. 0. 0. 2.27790442e-003 0. 0. 0. 2.27790442e-003 0. 0.
      0. 0. 0. 0. 0. 0. 0. 0. 2.27790442e-003 0. 2.27790442e-003 0.
      2.27790442e-003 0. 0. 0. 0. 0. 0. 2.27790442e-003 2.27790442e-003
      0. 0. 2.27790442e-003 0. 0. 2.27790442e-003 4.55580885e-003 0.
      4.55580885e-003 0. 2.27790442e-003 0. 6.83371350e-003 0. 0. 0. 0.
      0. 0. 0. 0. 0. 0. 2.27790442e-003 0. 0. 0. 0. 0. 0. 0. 0. 0. 0. 0.
      0. 2.27790442e-003 0. 0. 0. 0. 2.27790442e-003 0. 0. 0.
      2.27790442e-003 0. 0. 0. 0. 0. 2.27790442e-003 0. 0. 0. 0. 0. 0.
      2.27790442e-003 0. 0. 0. 0. 0. 2.27790442e-003 0. 0. 0.
      6.83371350e-003 2.27790442e-003 0. 0. 0. 2.27790442e-003 0. 0. 0.
      0. 0. 0. 2.27790442e-003 2.27790442e-003 0. 2.27790442e-003 0. 0.
      0. 0. 0. 0. 2.27790442e-003 4.55580885e-003 0. 0. 0. 0. 0. 0. 0.
      0. 0. 0. 2.27790442e-003 0. 0. 2.27790442e-003 0. 0. 0.
      2.27790442e-003 0. 0. 0. 0. 0. 1.13895219e-002 0. 0.
      2.27790442e-003 0. 2.27790442e-003 0. 4.55580885e-003 0. 0. 0. 0.
      0. 0. 0. 0. 0. 0. 0. 0. 0. 0. 0. 0. 0. 0. 2.27790442e-003 0.
      2.27790442e-003 0. 0. 0. 0. 2.27790442e-003 0. 0. 0. 0. 0. 0.
      4.55580885e-003 0. 0. 0. 0. 0. 2.27790442e-003 0. 0. 0.
      6.83371350e-003 0. 0. 0. 2.27790442e-003 0. 0. 6.83371350e-003 0.
      2.50569489e-002 0. 0. 0. 0. 0. 0. 2.27790442e-003 0. 0.
      2.27790442e-003 0. 0. 0. 0. 0. 0. 2.27790442e-003 0.
      4.55580885e-003 0. 0. 0. 0. 0. 4.55580885e-003 0. 2.27790442e-003
      0. 0. 0. 0. 0. 0. 0. 0. 0. 0. 0. 0. 0. 0. 0. 0.</_>
    <_>
      0. 0. 0. 0. 7.53768813e-003 0. 0. 0. 0. 0. 0. 0. 0. 0. 0. 0. 0.
      5.02512557e-003 7.53768813e-003 2.51256279e-003 2.51256279e-003 0.
      2.51256279e-003 2.51256279e-003 0. 0. 5.02512557e-003 0. 0.
      2.51256279e-003 7.53768813e-003 2.51256279e-003 7.53768813e-003
      7.53768813e-003 0. 2.51256279e-003 0. 0. 0. 0. 0. 2.51256279e-003
      2.51256279e-003 0. 5.02512557e-003 5.02512557e-003 0. 0. 0. 0. 0.
      2.51256279e-003 0. 2.51256279e-003 2.51256279e-003 2.51256279e-003
      0. 1.00502511e-002 5.02512557e-003 2.51256279e-003 0. 0.
      2.51256279e-003 0. 0. 0. 0. 2.51256279e-003 2.51256279e-003
      2.51256279e-003 5.02512557e-003 0. 0. 0. 2.51256279e-003 0. 0. 0.
      0. 0. 0. 5.02512557e-003 7.53768813e-003 0. 0. 0. 0. 0. 0. 0. 0.
      5.02512557e-003 0. 0. 0. 0. 0. 0. 0. 0. 2.51256279e-003
      5.02512557e-003 5.02512557e-003 2.51256279e-003 0. 2.51256279e-003
      0. 0. 2.51256279e-003 0. 2.51256279e-003 0. 2.51256279e-003 0.
      2.51256279e-003 0. 2.51256279e-003 0. 0. 0. 0. 2.51256279e-003 0.
      0. 0. 0. 5.02512557e-003 0. 0. 0. 0. 2.51256279e-003
      2.51256279e-003 0. 0. 0. 2.51256279e-003 5.02512557e-003 0. 0.
      2.51256279e-003 2.51256279e-003 0. 2.51256279e-003 0. 0.
      2.51256279e-003 0. 0. 2.51256279e-003 0. 0. 0. 0. 0. 0. 0. 0.
      5.02512557e-003 0. 0. 0. 0. 5.02512557e-003 0. 0. 0. 0. 0. 0.
      7.53768813e-003 0. 2.51256279e-003 0. 5.02512557e-003 0. 0.
      5.02512557e-003 0. 2.51256279e-003 0. 5.02512557e-003 0. 0.
      7.53768813e-003 2.51256279e-003 2.51256279e-003 2.51256279e-003
      2.51256279e-003 2.51256279e-003 7.53768813e-003 0. 0. 0. 0. 0. 0.
      2.51256279e-003 0. 0. 0. 5.02512557e-003 0. 2.51256279e-003
      2.51256279e-003 5.02512557e-003 0. 0. 0. 0. 2.51256279e-003 0. 0.
      2.51256279e-003 0. 0. 2.51256279e-003 0. 0. 5.02512557e-003 0.
      2.51256279e-003 0. 2.51256279e-003 0. 0. 0. 5.02512557e-003 0. 0.
      0. 0. 0. 2.51256279e-003 5.02512557e-003 0. 0. 0. 0. 0.
      7.53768813e-003 0. 0. 2.51256279e-003 0. 0. 1.00502511e-002 0. 0.
      0. 2.51256279e-003 5.02512557e-003 0. 0. 5.02512557e-003 0.
      5.02512557e-003 0. 2.51256279e-003 0. 0. 0. 2.51256279e-003 0. 0.
      0. 5.02512557e-003 2.51256279e-003 0. 0. 2.51256279e-003
      2.51256279e-003 0. 0. 0. 2.51256279e-003 0. 0. 0. 2.51256279e-003
      0. 0. 0. 0. 0. 0. 2.51256279e-003 0. 2.51256279e-003 0. 0. 0.
      2.51256279e-003 0. 5.02512557e-003 5.02512557e-003 0. 0. 0.
      2.51256279e-003 2.51256279e-003 2.51256279e-003 2.51256279e-003 0.
      0. 0. 0. 5.02512557e-003 0. 0. 7.53768813e-003 2.51256279e-003 0.
      0. 0. 0. 2.51256279e-003 0. 0. 0. 2.51256279e-003 0. 0.
      2.51256279e-003 0. 0. 0. 0. 0. 0. 0. 0. 0. 0. 0. 0.
      2.51256279e-003 2.51256279e-003 2.51256279e-003 2.51256279e-003 0.
      0. 0. 0. 5.02512557e-003 0. 0. 2.51256279e-003 2.51256279e-003 0.
      0. 0. 2.51256279e-003 0. 0. 2.51256279e-003 5.02512557e-003 0. 0.
      0. 0. 2.51256279e-003 0. 2.51256279e-003 0. 0. 5.02512557e-003 0.
      2.51256279e-003 0. 0. 0. 0. 0. 0. 7.53768813e-003 0. 0. 0.
      7.53768813e-003 2.51256279e-003 2.51256279e-003 0. 2.51256279e-003
      2.51256279e-003 0. 2.51256279e-003 2.51256279e-003 0. 0.
      2.51256279e-003 0. 0. 2.26130653e-002 7.53768813e-003
      2.51256279e-003 5.02512557e-003 0. 0. 0. 0. 2.51256279e-003 0. 0.
      2.51256279e-003 1.00502511e-002 0. 0. 5.02512557e-003 0. 0. 0. 0.
      0. 0. 0. 2.51256279e-003 0. 0. 0. 0. 0. 0. 0. 0. 5.02512557e-003
      2.51256279e-003 0. 0. 0. 0. 2.51256279e-003 0. 0. 0. 0. 0. 0. 0.
      0. 0. 0. 0. 0. 0. 0. 0. 0. 0. 2.51256279e-003 7.53768813e-003
      2.51256279e-003 0. 0. 0. 0. 0. 0. 0. 0. 0. 2.51256279e-003 0.
      5.02512557e-003 5.02512557e-003 0. 0. 0. 2.51256279e-003
      2.51256279e-003 0. 2.51256279e-003 0. 0. 2.51256279e-003
      1.00502511e-002 0. 0. 2.51256279e-003 0. 0. 0. 0. 0. 0. 0. 0. 0.
      5.02512557e-003 0. 0. 0. 0. 0. 0. 0. 2.51256279e-003 0. 0. 0. 0.
      0. 0. 0. 0. 2.51256279e-003 0. 0. 7.53768813e-003 0. 0. 0.
      2.51256279e-003 2.51256279e-003 7.53768813e-003 0. 0.
      2.51256279e-003 0. 0. 0. 2.51256279e-003 0. 0. 0. 0. 0. 0. 0. 0.
      0. 0. 0. 0. 2.51256279e-003 2.51256279e-003 1.00502511e-002
      2.51256279e-003 5.02512557e-003 0. 0. 0. 2.51256279e-003 0.
      2.51256279e-003 0. 0. 2.51256279e-003 0. 0. 0. 0. 2.51256279e-003
      0. 0. 0. 0. 0. 2.51256279e-003 0. 0. 0. 0. 0. 0. 0. 0.
      5.02512557e-003 2.51256279e-003 0. 0. 2.51256279e-003 0. 0. 0. 0.
      0. 0. 5.02512557e-003 0. 0. 2.51256279e-003 0. 2.51256279e-003 0.
      0. 0. 0. 0. 2.51256279e-003 0. 0. 2.51256279e-003 0. 0.
      5.02512557e-003 0. 0. 2.51256279e-003 0. 0. 0. 0. 0. 0. 0. 0. 0.
      0. 0. 0. 2.51256279e-003 0. 0. 0. 0. 0. 7.53768813e-003 0. 0. 0.
      0. 0. 2.51256279e-003 0. 2.51256279e-003 0. 0. 0. 0.
      2.51256279e-003 0. 2.51256279e-003 0. 0. 2.51256279e-003 0. 0. 0.
      0. 0. 0. 0. 0. 0. 2.51256279e-003 0. 0. 0. 5.02512557e-003 0. 0.
      0. 0. 0. 0. 0. 0. 0. 0. 0. 0. 2.51256279e-003 2.51256279e-003 0.
      0. 0. 0. 0. 0. 0. 5.02512557e-003 0. 2.51256279e-003 0.
      2.51256279e-003 0. 2.51256279e-003 0. 0. 5.02512557e-003 0.
      5.02512557e-003 7.53768813e-003 2.51256279e-003 0. 5.02512557e-003
      0. 0. 0. 2.51256279e-003 0. 0. 0. 0. 0. 0. 2.51256279e-003
      2.51256279e-003 0. 0. 2.51256279e-003 0. 0. 0. 0. 0. 0.
      2.51256279e-003 0. 0. 0. 0. 0. 0. 2.51256279e-003 2.51256279e-003
      7.53768813e-003 0. 0. 2.51256279e-003 0. 0. 0. 0. 2.51256279e-003
      0. 0. 0. 0. 2.51256279e-003 0. 0. 0. 0. 0. 0. 5.02512557e-003 0.
      0. 0. 0. 0. 0. 0. 2.51256279e-003 0. 0. 0. 0. 2.51256279e-003 0.
      0. 0. 1.00502511e-002 2.51256279e-003 0. 0. 0. 0. 0.
      2.51256279e-003 5.02512557e-003 0. 0. 0. 0. 0. 0. 0. 0.
      5.02512557e-003 0. 5.02512557e-003 0. 2.51256279e-003 0. 0. 0. 0.
      5.02512557e-003 2.51256279e-003 0. 0. 0. 0. 0. 0. 0. 0. 0. 0. 0.
      0. 0. 0. 0. 0. 5.02512557e-003 0. 0. 0. 0. 0. 0. 0. 0. 0.
      5.02512557e-003 0. 0. 0. 0. 2.51256279e-003 0. 0. 0. 0. 0. 0. 0.
      0. 0. 0. 0. 0. 0. 0. 0. 2.51256279e-003 0. 2.51256279e-003 0.
      2.51256279e-003 0. 0. 0. 0. 0. 0. 2.51256279e-003 0. 0. 0. 0.
      2.51256279e-003 0. 2.51256279e-003 2.51256279e-003 0.
      5.02512557e-003 2.51256279e-003 0. 0. 0. 0. 0. 0. 2.51256279e-003
      0. 0. 0. 0. 0. 2.51256279e-003 2.51256279e-003 0. 0. 0. 0. 0. 0.
      0. 0. 0. 2.51256279e-003 5.02512557e-003 2.51256279e-003 0. 0. 0.
      0. 0. 0. 0. 0. 0. 2.51256279e-003 0. 2.51256279e-003 0. 0.
      2.51256279e-003 2.51256279e-003 0. 0. 2.51256279e-003
      5.02512557e-003 0. 0. 0. 0. 0. 0. 0. 0. 2.51256279e-003 0. 0. 0.
      0. 0. 0. 0. 0. 0. 0. 0. 0. 2.51256279e-003 0. 0. 0. 0. 0. 0.
      2.51256279e-003 0. 0. 0. 0. 0. 0. 0. 0. 0. 0. 0. 0. 0.
      2.51256279e-003 0. 5.02512557e-003 0. 0. 0. 0. 0. 0. 0. 0. 0. 0.
      0. 2.51256279e-003 0. 0. 0. 0. 5.02512557e-003 0. 0. 0. 0. 0. 0.
      7.53768813e-003 0. 0. 0. 0. 0. 0. 0. 0. 2.51256279e-003 0. 0. 0.
      0. 0. 2.51256279e-003 0. 5.02512557e-003 0. 0. 0. 0.
      2.51256279e-003 0. 0. 0. 0. 0. 0. 0. 0. 0. 2.51256279e-003 0.</_>
    <_>
      0. 0. 5.30503970e-003 0. 7.95755908e-003 0. 0. 0. 2.65251985e-003
      2.65251985e-003 0. 2.65251985e-003 5.30503970e-003 0.
      2.65251985e-003 0. 0. 1.06100794e-002 1.32625997e-002
      2.65251985e-003 0. 0. 0. 5.30503970e-003 5.30503970e-003 0. 0. 0.
      0. 0. 0. 5.30503970e-003 1.06100794e-002 0. 5.30503970e-003 0.
      2.65251985e-003 0. 0. 0. 0. 5.30503970e-003 0. 0. 0.
      5.30503970e-003 0. 0. 2.65251985e-003 0. 0. 2.65251985e-003 0. 0.
      0. 2.65251985e-003 0. 0. 2.65251985e-003 0. 0. 0. 0. 0. 0. 0. 0.
      2.65251985e-003 2.65251985e-003 1.06100794e-002 2.65251985e-003 0.
      0. 5.30503970e-003 2.65251985e-003 0. 2.65251985e-003 0.
      7.95755908e-003 2.65251985e-003 0. 0. 0. 0. 0. 2.65251985e-003 0.
      0. 1.32625997e-002 0. 0. 0. 0. 0. 0. 0. 0. 0. 0. 0. 0.
      2.65251985e-003 0. 2.65251985e-003 2.65251985e-003 0.
      5.30503970e-003 0. 0. 0. 2.65251985e-003 0. 0. 0. 2.65251985e-003
      0. 5.30503970e-003 0. 0. 0. 0. 2.65251985e-003 0. 0.
      2.65251985e-003 0. 0. 2.65251985e-003 0. 0. 0. 0. 2.65251985e-003
      0. 0. 0. 0. 0. 0. 0. 0. 0. 0. 0. 0. 0. 0. 0. 2.65251985e-003 0. 0.
      0. 0. 2.65251985e-003 2.65251985e-003 2.65251985e-003 0. 0. 0. 0.
      0. 2.65251985e-003 0. 0. 2.65251985e-003 0. 0. 5.30503970e-003 0.
      0. 0. 0. 7.95755908e-003 0. 2.65251985e-003 5.30503970e-003 0. 0.
      2.65251985e-003 0. 5.30503970e-003 0. 2.65251985e-003 0.
      2.65251985e-003 0. 0. 0. 0. 2.65251985e-003 0. 0. 0. 0. 0. 0.
      2.65251985e-003 0. 0. 0. 2.65251985e-003 0. 2.65251985e-003 0. 0.
      0. 0. 0. 0. 0. 7.95755908e-003 0. 0. 2.65251985e-003 0. 0. 0. 0.
      0. 0. 0. 0. 0. 0. 2.65251985e-003 2.65251985e-003 0.
      2.65251985e-003 0. 0. 0. 5.30503970e-003 0. 0. 5.30503970e-003 0.
      0. 0. 0. 0. 0. 0. 0. 2.65251985e-003 0. 0. 0. 2.65251985e-003 0.
      0. 2.65251985e-003 0. 0. 0. 7.95755908e-003 0. 0. 2.65251985e-003
      0. 0. 2.65251985e-003 0. 0. 0. 0. 2.65251985e-003 0. 0. 0. 0. 0.
      0. 2.65251985e-003 0. 2.65251985e-003 0. 0. 0. 0. 2.65251985e-003
      0. 0. 0. 2.65251985e-003 0. 5.30503970e-003 0. 0. 0. 0. 0. 0. 0.
      2.65251985e-003 0. 2.65251985e-003 0. 0. 0. 5.30503970e-003
      7.95755908e-003 0. 0. 0. 2.65251985e-003 7.95755908e-003 0. 0. 0.
      0. 2.65251985e-003 0. 0. 0. 0. 0. 0. 2.65251985e-003 0. 0.
      2.65251985e-003 2.65251985e-003 0. 0. 5.30503970e-003
      5.30503970e-003 0. 0. 0. 0. 2.65251985e-003 0. 0. 0. 0. 0.
      7.95755908e-003 5.30503970e-003 5.30503970e-003 0. 0. 0. 0. 0.
      2.65251985e-003 0. 0. 0. 1.06100794e-002 0. 0. 0. 0. 0.
      2.65251985e-003 0. 1.32625997e-002 0. 0. 0. 0. 0. 0. 0. 0. 0. 0.
      0. 5.30503970e-003 7.95755908e-003 0. 0. 0. 2.65251985e-003 0. 0.
      0. 0. 0. 1.06100794e-002 0. 0. 2.65251985e-003 0. 0. 0. 0.
      2.65251985e-003 7.95755908e-003 0. 0. 0. 0. 7.95755908e-003 0.
      2.65251985e-003 0. 0. 2.65251985e-003 0. 2.65251985e-003 0. 0. 0.
      0. 0. 2.65251985e-003 0. 5.30503970e-003 0. 0. 0. 2.65251985e-003
      0. 0. 2.65251985e-003 0. 0. 0. 0. 5.30503970e-003 2.65251985e-003
      0. 0. 0. 0. 2.65251985e-003 2.65251985e-003 0. 0. 0.
      2.65251985e-003 0. 0. 7.95755908e-003 0. 0. 0. 0. 0. 0. 0.
      2.65251985e-003 0. 0. 0. 0. 0. 0. 0. 0. 2.65251985e-003 0. 0.
      5.30503970e-003 0. 0. 0. 0. 0. 2.65251985e-003 0. 0. 0. 0. 0. 0.
      0. 0. 0. 2.65251985e-003 0. 0. 0. 2.65251985e-003 2.65251985e-003
      2.65251985e-003 2.65251985e-003 0. 2.65251985e-003 0.
      2.65251985e-003 0. 0. 0. 0. 0. 2.65251985e-003 0. 2.65251985e-003
      0. 2.65251985e-003 2.65251985e-003 0. 2.65251985e-003 0. 0. 0. 0.
      0. 0. 0. 0. 0. 2.65251985e-003 0. 0. 0. 0. 0. 2.65251985e-003 0.
      0. 0. 0. 5.30503970e-003 2.65251985e-003 0. 2.65251985e-003
      5.30503970e-003 0. 0. 0. 0. 0. 2.65251985e-003 0. 0. 0. 0. 0. 0.
      0. 0. 0. 2.65251985e-003 0. 2.65251985e-003 0. 0. 0. 0. 0. 0. 0.
      0. 0. 0. 0. 0. 0. 0. 0. 0. 0. 0. 0. 2.65251985e-003 0.
      5.30503970e-003 0. 0. 0. 0. 0. 0. 0. 0. 0. 2.65251985e-003 0.
      2.65251985e-003 0. 0. 0. 0. 0. 0. 0. 0. 0. 0. 0. 0. 0. 0. 0. 0. 0.
      7.95755908e-003 2.65251985e-003 2.65251985e-003 0. 0. 0. 0. 0. 0.
      0. 0. 0. 0. 0. 0. 0. 0. 0. 0. 5.30503970e-003 0. 2.65251985e-003
      0. 0. 0. 0. 2.65251985e-003 0. 0. 0. 0. 0. 0. 0. 0. 0. 0.
      2.65251985e-003 0. 0. 0. 0. 0. 0. 0. 2.65251985e-003 0.
      2.65251985e-003 0. 0. 0. 0. 2.65251985e-003 0. 0. 0. 0.
      2.65251985e-003 0. 2.65251985e-003 0. 2.65251985e-003 0.
      5.30503970e-003 0. 0. 0. 0. 0. 5.30503970e-003 2.65251985e-003
      2.65251985e-003 0. 0. 2.91777179e-002 0. 2.65251985e-003 0. 0. 0.
      0. 0. 0. 0. 0. 0. 0. 0. 0. 2.65251985e-003 0. 0. 0. 0. 0.
      1.06100794e-002 2.65251985e-003 0. 0. 0. 0. 2.65251985e-003
      7.95755908e-003 2.65251985e-003 0. 0. 0. 0. 0. 0. 7.95755908e-003
      5.30503970e-003 0. 0. 0. 0. 0. 0. 0. 0. 0. 0. 0. 5.30503970e-003
      0. 0. 2.65251985e-003 0. 7.95755908e-003 0. 0. 0. 0.
      2.65251985e-003 2.65251985e-003 2.65251985e-003 2.65251985e-003
      5.30503970e-003 0. 7.95755908e-003 0. 2.65251985e-003 0. 0. 0. 0.
      0. 0. 5.30503970e-003 0. 0. 2.65251985e-003 0. 7.95755908e-003 0.
      0. 0. 0. 0. 2.65251985e-003 0. 0. 0. 0. 0. 0. 0. 0.
      2.65251985e-003 2.65251985e-003 0. 7.95755908e-003 0.
      2.65251985e-003 0. 0. 0. 0. 0. 2.65251985e-003 0. 0. 0. 0. 0.
      5.30503970e-003 2.65251985e-003 0. 0. 0. 0. 2.65251985e-003
      2.65251985e-003 0. 0. 0. 0. 0. 0. 7.95755908e-003 0.
      2.65251985e-003 0. 2.65251985e-003 0. 0. 0. 0. 0. 5.30503970e-003
      0. 0. 0. 0. 5.30503970e-003 0. 0. 2.65251985e-003 0. 0. 0. 0. 0.
      0. 0. 0. 0. 0. 0. 0. 0. 0. 2.65251985e-003 0. 2.65251985e-003 0.
      2.65251985e-003 0. 0. 2.65251985e-003 0. 0. 2.65251985e-003
      5.30503970e-003 0. 0. 0. 0. 0. 0. 0. 0. 0. 0. 0. 0. 0. 0. 0. 0. 0.
      0. 2.65251985e-003 0. 0. 0. 0. 0. 0. 0. 0. 0. 0. 0.
      5.30503970e-003 0. 0. 0. 0. 0. 0. 0. 0. 0. 1.32625997e-002
      5.30503970e-003 0. 0. 0. 0. 0. 0. 0. 2.65251985e-003
      2.65251985e-003 0. 0. 0. 0. 0. 0. 0. 2.65251985e-003 0.
      5.30503970e-003 0. 0. 0. 2.65251985e-003 2.65251985e-003
      2.65251985e-003 0. 0. 7.95755908e-003 0. 2.65251985e-003 0. 0. 0.
      2.65251985e-003 0. 0. 5.30503970e-003 0. 0. 0. 0. 0. 0. 0. 0. 0.
      0. 5.30503970e-003 2.65251985e-003 0. 0. 2.65251985e-003 0. 0. 0.
      2.65251985e-003 0. 0. 0. 0. 0. 0. 0. 0. 0. 0. 0. 0. 0. 0.
      2.65251985e-003 0. 2.65251985e-003 0. 0. 2.65251985e-003 0. 0. 0.
      0. 0. 0. 0. 0. 0. 0. 0. 2.65251985e-003 5.30503970e-003
      2.65251985e-003 0. 2.65251985e-003 0. 0. 0. 0. 0. 0. 0. 0.
      2.65251985e-003 0. 0. 0. 0. 2.65251985e-003 0. 0. 0. 0.
      7.95755908e-003 0. 0. 0. 2.65251985e-003 0. 0. 0. 0. 0. 0. 0. 0.
      0. 0.</_>
    <_>
      0. 0. 0. 0. 0. 6.68896316e-003 0. 0. 0. 6.68896316e-003 0. 0.
      3.34448158e-003 0. 0. 0. 3.34448158e-003 0. 1.00334445e-002 0. 0.
      0. 0. 0. 0. 0. 0. 0. 0. 0. 0. 0. 3.34448158e-003 3.34448158e-003
      3.34448158e-003 0. 0. 0. 0. 0. 0. 0. 0. 0. 0. 0. 0. 0.
      3.34448158e-003 0. 0. 0. 0. 3.34448158e-003 0. 3.34448158e-003 0.
      3.34448158e-003 3.34448158e-003 0. 0. 0. 0. 0. 0. 0. 0. 0. 0.
      3.34448158e-003 3.34448158e-003 0. 3.34448158e-003 0. 0.
      3.34448158e-003 0. 0. 3.34448158e-003 0. 6.68896316e-003
      1.00334445e-002 0. 0. 0. 6.68896316e-003 0. 0. 2.67558526e-002 0.
      0. 0. 0. 3.34448158e-003 0. 3.34448158e-003 0. 3.34448158e-003 0.
      0. 3.34448158e-003 0. 0. 0. 0. 0. 0. 6.68896316e-003 0. 0. 0. 0.
      0. 0. 0. 0. 3.34448158e-003 1.00334445e-002 0. 3.34448158e-003 0.
      0. 0. 0. 3.34448158e-003 0. 0. 0. 0. 0. 0. 0. 3.34448158e-003 0.
      0. 0. 3.34448158e-003 0. 0. 3.34448158e-003 3.34448158e-003 0. 0.
      0. 0. 0. 3.34448158e-003 0. 3.34448158e-003 0. 0. 0. 0. 0.
      1.00334445e-002 1.33779263e-002 0. 0. 0. 0. 0. 0. 3.34448158e-003
      0. 0. 0. 0. 3.34448158e-003 0. 0. 0. 0. 1.00334445e-002 0. 0. 0.
      0. 0. 0. 3.34448158e-003 0. 0. 3.34448158e-003 0. 3.34448158e-003
      0. 0. 0. 6.68896316e-003 0. 0. 0. 3.34448158e-003 0. 0. 0. 0. 0.
      0. 0. 0. 0. 0. 0. 0. 3.34448158e-003 0. 0. 0. 0. 1.00334445e-002
      0. 1.33779263e-002 0. 0. 0. 3.34448158e-003 0. 0. 0. 0. 0.
      3.34448158e-003 0. 3.34448158e-003 3.34448158e-003 0. 0. 0.
      3.34448158e-003 0. 3.34448158e-003 3.34448158e-003 0. 0. 0. 0. 0.
      0. 0. 0. 0. 0. 0. 0. 0. 0. 0. 0. 0. 3.34448158e-003 0.
      3.34448158e-003 3.34448158e-003 3.34448158e-003 0. 0. 0. 0. 0. 0.
      3.34448158e-003 0. 0. 0. 3.34448158e-003 0. 0. 3.34448158e-003 0.
      0. 6.68896316e-003 0. 0. 3.34448158e-003 0. 0. 0. 0. 0. 0.
      3.34448158e-003 0. 0. 3.34448158e-003 3.34448158e-003 0. 0. 0. 0.
      0. 0. 0. 0. 0. 3.34448158e-003 0. 0. 0. 0. 3.34448158e-003
      3.34448158e-003 0. 0. 0. 0. 0. 0. 1.67224072e-002 3.34448158e-003
      3.34448158e-003 0. 0. 0. 0. 3.34448158e-003 0. 0. 0. 0. 0. 0. 0.
      3.34448158e-003 1.00334445e-002 3.34448158e-003 0. 0. 0. 0. 0. 0.
      0. 0. 3.34448158e-003 0. 3.34448158e-003 3.34448158e-003 0. 0. 0.
      0. 0. 0. 0. 0. 0. 0. 6.68896316e-003 0. 6.68896316e-003 0. 0.
      3.34448158e-003 0. 0. 3.34448158e-003 0. 0. 0. 0. 0. 0.
      3.34448158e-003 0. 0. 0. 3.34448158e-003 0. 3.34448158e-003 0. 0.
      0. 0. 0. 0. 0. 0. 0. 0. 0. 0. 0. 0. 0. 3.34448158e-003 0. 0.
      3.34448158e-003 0. 0. 0. 0. 0. 0. 0. 0. 0. 0. 0. 0.
      3.34448158e-003 0. 0. 3.34448158e-003 0. 0. 0. 0. 0. 0. 0. 0. 0.
      0. 3.34448158e-003 0. 0. 0. 0. 3.34448158e-003 3.34448158e-003
      6.68896316e-003 0. 0. 0. 3.34448158e-003 0. 0. 0. 0. 0. 0. 0. 0.
      0. 0. 0. 0. 3.34448158e-003 0. 0. 6.68896316e-003 0. 0. 0. 0. 0.
      0. 3.34448158e-003 0. 0. 0. 0. 0. 6.68896316e-003 0. 0. 0.
      3.34448158e-003 3.34448158e-003 6.68896316e-003 0. 0. 0. 0. 0.
      3.34448158e-003 0. 3.34448158e-003 0. 6.68896316e-003 0. 0. 0.
      3.34448158e-003 0. 3.34448158e-003 0. 0. 0. 0. 0. 0. 0.
      3.34448158e-003 0. 0. 3.34448158e-003 0. 0. 0. 0. 3.34448158e-003
      0. 0. 0. 0. 0. 0. 0. 0. 0. 0. 0. 0. 0. 0. 3.34448158e-003
      3.34448158e-003 0. 6.68896316e-003 0. 0. 3.34448158e-003
      1.00334445e-002 1.67224072e-002 0. 1.33779263e-002 0. 0. 0. 0. 0.
      0. 0. 0. 0. 0. 0. 6.68896316e-003 0. 0. 0. 3.34448158e-003 0.
      3.34448158e-003 0. 0. 3.34448158e-003 0. 0. 0. 0. 0. 0. 0. 0.
      3.34448158e-003 0. 0. 0. 0. 3.34448158e-003 0. 0. 0. 0. 0. 0. 0.
      0. 0. 0. 0. 0. 0. 0. 0. 0. 0. 0. 0. 0. 0. 0. 3.34448158e-003 0. 0.
      0. 0. 0. 0. 0. 0. 0. 0. 0. 0. 1.00334445e-002 0. 0.
      3.34448158e-003 0. 3.34448158e-003 3.34448158e-003 0. 0. 0. 0. 0.
      0. 3.34448158e-003 0. 0. 0. 0. 0. 3.34448158e-003 0.
      6.68896316e-003 0. 0. 0. 0. 0. 0. 3.34448158e-003 0. 0. 0. 0. 0.
      0. 0. 3.34448158e-003 0. 0. 0. 0. 0. 6.68896316e-003 0.
      3.34448158e-003 0. 0. 3.34448158e-003 0. 0. 0. 3.34448158e-003
      6.68896316e-003 0. 0. 0. 0. 0. 0. 0. 0. 0. 0. 3.34448158e-003 0.
      3.34448158e-003 0. 0. 0. 3.34448158e-003 3.34448158e-003 0. 0.
      3.34448158e-003 2.00668890e-002 0. 0. 0. 0. 0. 0. 0.
      3.34448158e-003 0. 0. 0. 3.34448158e-003 0. 0. 0. 0. 0.
      3.34448158e-003 0. 0. 3.34448158e-003 1.00334445e-002 0. 0.
      3.34448158e-003 0. 0. 1.67224072e-002 0. 0. 0. 0. 0. 0. 0. 0. 0.
      0. 0. 0. 0. 6.68896316e-003 0. 0. 0. 0. 0. 0. 3.34448158e-003 0.
      0. 3.34448158e-003 1.00334445e-002 0. 0. 3.34448158e-003 0. 0. 0.
      0. 0. 0. 3.34448158e-003 0. 0. 0. 0. 0. 3.34448158e-003 0. 0. 0.
      0. 0. 0. 0. 0. 1.00334445e-002 0. 0. 0. 0. 0. 3.34448158e-003 0.
      0. 0. 0. 0. 0. 0. 3.34448158e-003 0. 0. 0. 0. 1.00334445e-002 0.
      0. 0. 0. 0. 0. 0. 3.34448158e-003 0. 3.34448158e-003
      3.34448158e-003 0. 0. 0. 0. 0. 3.34448158e-003 0. 0. 0.
      3.34448158e-003 3.34448158e-003 0. 3.34448158e-003 0. 0.
      3.34448158e-003 3.34448158e-003 0. 0. 0. 6.68896316e-003 0.
      3.34448158e-003 0. 0. 0. 0. 0. 0. 0. 1.00334445e-002 0. 0.
      3.34448158e-003 6.68896316e-003 3.34448158e-003 3.34448158e-003 0.
      0. 0. 0. 0. 0. 0. 6.68896316e-003 0. 0. 0. 0. 0. 0.
      3.34448158e-003 0. 0. 0. 0. 3.34448158e-003 0. 0. 0. 0. 0. 0. 0.
      0. 0. 0. 0. 0. 0. 3.34448158e-003 0. 0. 0. 0. 0. 0. 0. 0.
      6.68896316e-003 0. 0. 0. 3.34448158e-003 3.34448158e-003 0. 0. 0.
      0. 0. 0. 3.34448158e-003 0. 0. 3.34448158e-003 0. 0. 0. 0. 0. 0.
      0. 0. 0. 0. 0. 0. 0. 0. 0. 3.34448158e-003 0. 0. 0. 0. 0. 0. 0. 0.
      0. 3.34448158e-003 3.34448158e-003 0. 0. 0. 0. 3.34448158e-003
      3.34448158e-003 0. 0. 6.68896316e-003 0. 3.34448158e-003 0. 0. 0.
      0. 0. 0. 0. 0. 0. 0. 0. 0. 0. 0. 0. 0. 0. 6.68896316e-003 0. 0. 0.
      3.34448158e-003 0. 0. 0. 0. 0. 3.34448158e-003 0. 0.
      3.34448158e-003 0. 0. 0. 0. 3.34448158e-003 0. 0. 0. 0. 0. 0. 0.
      0. 0. 3.34448158e-003 0. 0. 0. 0. 0. 0. 0. 3.34448158e-003 0. 0.
      0. 0. 0. 0. 0. 3.34448158e-003 0. 0. 0. 0. 3.34448158e-003
      3.34448158e-003 0. 0. 0. 0. 0. 0. 0. 0. 3.34448158e-003 0.
      3.34448158e-003 0. 6.68896316e-003 0. 0. 0. 0. 0. 0. 0. 0.
      3.34448158e-003 0. 0. 0. 0. 0.</_>
    <_>
      0. 0. 0. 0. 0. 0. 0. 0. 0. 4.09836043e-003 0. 0. 0. 0. 0. 0. 0.
      8.19672085e-003 8.19672085e-003 0. 0. 0. 0. 4.09836043e-003 0. 0.
      0. 0. 0. 0. 4.09836043e-003 0. 8.19672085e-003 0. 4.09836043e-003
      0. 0. 0. 0. 0. 0. 4.09836043e-003 0. 0. 0. 4.09836043e-003 0. 0.
      0. 0. 0. 8.19672085e-003 0. 0. 0. 0. 0. 1.22950813e-002
      4.09836043e-003 0. 0. 0. 0. 0. 0. 4.09836043e-003 0. 0. 0.
      8.19672085e-003 0. 0. 8.19672085e-003 0. 0. 0. 0. 0.
      4.09836043e-003 0. 4.09836043e-003 0. 0. 0. 0. 8.19672085e-003 0.
      0. 3.68852429e-002 0. 0. 0. 0. 0. 0. 0. 0. 0. 0. 0. 0. 0. 0. 0. 0.
      0. 0. 0. 0. 0. 0. 0. 0. 0. 0. 0. 8.19672085e-003 8.19672085e-003
      0. 4.09836043e-003 0. 0. 0. 4.09836043e-003 0. 0. 4.09836043e-003
      0. 0. 0. 0. 0. 4.09836043e-003 0. 0. 0. 0. 0. 0. 8.19672085e-003
      0. 0. 0. 0. 0. 4.09836043e-003 0. 0. 8.19672085e-003 0. 0. 0. 0.
      0. 0. 4.09836043e-003 0. 0. 0. 0. 0. 0. 8.19672085e-003 0. 0. 0.
      0. 8.19672085e-003 0. 0. 0. 0. 1.22950813e-002 0. 0. 0. 0. 0. 0.
      0. 0. 0. 0. 0. 4.09836043e-003 0. 0. 0. 4.09836043e-003 0. 0. 0.
      4.09836043e-003 0. 0. 0. 0. 0. 0. 0. 0. 0. 0. 0. 0. 0. 0. 0.
      4.09836043e-003 0. 2.04918012e-002 0. 0. 0. 0. 0. 0. 0. 0. 0. 0.
      0. 0. 0. 4.09836043e-003 4.09836043e-003 0. 0. 0. 0. 0. 0. 0. 0.
      4.09836043e-003 0. 0. 0. 0. 0. 0. 0. 0. 4.09836043e-003
      4.09836043e-003 0. 0. 8.19672085e-003 0. 0. 4.09836043e-003 0. 0.
      4.09836043e-003 4.09836043e-003 4.09836043e-003 0. 4.09836043e-003
      0. 0. 0. 0. 0. 0. 0. 0. 0. 0. 4.09836043e-003 0. 0.
      4.09836043e-003 0. 0. 0. 0. 0. 0. 0. 4.09836043e-003 0. 0. 0. 0.
      0. 4.09836043e-003 0. 0. 0. 0. 0. 0. 0. 0. 0. 8.19672085e-003 0.
      0. 0. 0. 0. 0. 0. 0. 0. 8.19672085e-003 0. 0. 4.09836043e-003 0.
      8.19672085e-003 0. 0. 0. 0. 0. 0. 4.09836043e-003 0. 0. 0. 0. 0.
      0. 0. 8.19672085e-003 0. 0. 0. 0. 0. 0. 0. 0. 0. 0. 0. 0. 0. 0. 0.
      0. 0. 0. 4.09836043e-003 4.09836043e-003 0. 4.09836043e-003
      4.09836043e-003 0. 0. 0. 0. 4.09836043e-003 4.09836043e-003 0.
      4.09836043e-003 0. 0. 0. 0. 0. 0. 4.09836043e-003 0.
      4.09836043e-003 4.09836043e-003 4.09836043e-003 0. 4.09836043e-003
      4.09836043e-003 0. 0. 0. 0. 0. 0. 0. 0. 0. 4.09836043e-003 0.
      4.09836043e-003 0. 0. 0. 0. 0. 4.09836043e-003 0. 0. 0. 0. 0. 0.
      4.09836043e-003 0. 0. 8.19672085e-003 0. 4.09836043e-003
      4.09836043e-003 0. 0. 0. 0. 0. 0. 4.09836043e-003 0.
      4.09836043e-003 0. 0. 0. 0. 0. 0. 0. 4.09836043e-003 0.
      4.09836043e-003 0. 0. 0. 0. 0. 0. 0. 0. 0. 0. 0. 0. 0. 0. 0. 0. 0.
      0. 0. 0. 0. 4.09836043e-003 0. 0. 0. 0. 0. 0. 0. 0. 0. 0. 0. 0.
      4.09836043e-003 0. 0. 0. 4.09836043e-003 4.09836043e-003
      4.09836043e-003 0. 0. 0. 0. 0. 0. 0. 0. 0. 4.09836043e-003 0. 0.
      0. 8.19672085e-003 4.09836043e-003 0. 0. 0. 0. 1.22950813e-002 0.
      0. 0. 0. 0. 4.09836043e-003 4.09836043e-003 0. 0. 0. 0.
      4.09836043e-003 0. 0. 0. 0. 4.09836043e-003 0. 4.09836043e-003 0.
      0. 0. 0. 0. 0. 0. 4.09836043e-003 0. 0. 0. 4.09836043e-003 0.
      4.09836043e-003 1.22950813e-002 4.09836043e-003 0. 4.09836043e-003
      8.19672085e-003 0. 4.09836043e-003 0. 0. 0. 0. 0. 0. 0. 0.
      4.09836043e-003 0. 0. 0. 0. 0. 0. 4.09836043e-003 0. 0. 0. 0. 0.
      0. 4.09836043e-003 0. 0. 0. 4.09836043e-003 0. 0. 0. 0. 0. 0. 0.
      0. 0. 4.09836043e-003 0. 0. 0. 4.09836043e-003 0. 0. 0. 0.
      4.09836043e-003 0. 0. 0. 0. 0. 0. 0. 0. 0. 0. 0. 0. 0. 0. 0.
      4.09836043e-003 0. 0. 0. 0. 0. 8.19672085e-003 0. 0. 0. 0. 0. 0.
      0. 0. 0. 0. 0. 0. 0. 0. 0. 0. 0. 0. 4.09836043e-003
      4.09836043e-003 0. 0. 0. 0. 0. 4.09836043e-003 0. 0. 0. 0. 0. 0.
      0. 0. 8.19672085e-003 4.09836043e-003 0. 0. 0. 0. 0.
      4.09836043e-003 0. 0. 0. 0. 4.09836043e-003 0. 0. 0. 0. 0. 0. 0.
      0. 4.09836043e-003 0. 0. 0. 0. 0. 0. 4.09836043e-003 0.
      4.09836043e-003 0. 0. 0. 4.09836043e-003 0. 0. 0. 4.09836043e-003
      2.45901626e-002 0. 0. 0. 0. 0. 0. 0. 4.09836043e-003 0.
      4.09836043e-003 0. 0. 0. 0. 0. 0. 0. 0. 0. 0. 0. 0. 0.
      8.19672085e-003 0. 0. 0. 1.63934417e-002 0. 0. 0. 0.
      4.09836043e-003 0. 0. 4.09836043e-003 0. 0. 0. 0. 0. 0. 0. 0. 0.
      0. 0. 0. 0. 0. 4.09836043e-003 0. 8.19672085e-003 4.09836043e-003
      0. 4.09836043e-003 0. 0. 0. 0. 0. 0. 0. 0. 0. 0. 0. 0. 0.
      4.09836043e-003 0. 0. 0. 0. 0. 0. 0. 0. 4.09836043e-003 0.
      4.09836043e-003 8.19672085e-003 0. 0. 0. 0. 0. 0. 0. 0. 0. 0. 0.
      0. 0. 0. 4.09836043e-003 0. 0. 0. 4.09836043e-003 0. 0. 0. 0. 0.
      4.09836043e-003 0. 0. 0. 0. 0. 0. 4.09836043e-003 0. 0. 0. 0. 0.
      0. 0. 0. 0. 4.09836043e-003 0. 0. 0. 0. 2.04918012e-002
      4.09836043e-003 0. 0. 0. 0. 0. 0. 0. 4.09836043e-003
      8.19672085e-003 4.09836043e-003 0. 4.09836043e-003 4.09836043e-003
      0. 0. 0. 0. 0. 0. 0. 0. 0. 4.09836043e-003 0. 0. 0. 0. 0. 0. 0.
      4.09836043e-003 0. 0. 4.09836043e-003 0. 0. 0. 0. 0. 0. 0. 0. 0.
      0. 0. 0. 0. 0. 0. 0. 0. 0. 0. 0. 0. 0. 0. 1.22950813e-002 0. 0. 0.
      0. 4.09836043e-003 0. 0. 0. 4.09836043e-003 0. 0. 4.09836043e-003
      0. 0. 4.09836043e-003 0. 0. 0. 0. 0. 0. 4.09836043e-003 0. 0.
      4.09836043e-003 0. 0. 0. 0. 0. 4.09836043e-003 0. 0. 0. 0. 0. 0.
      0. 0. 0. 4.09836043e-003 4.09836043e-003 0. 0. 0. 0.
      4.09836043e-003 0. 0. 0. 8.19672085e-003 0. 0. 0. 0. 0. 0. 0. 0.
      4.09836043e-003 0. 0. 0. 0. 0. 0. 0. 0. 0. 0. 0. 0. 0. 0.
      4.09836043e-003 4.09836043e-003 0. 0. 0. 0. 0. 0. 0. 0. 0. 0. 0.
      0. 0. 0. 0. 0. 0. 4.09836043e-003 0. 4.09836043e-003 0. 0.
      4.09836043e-003 0. 0. 0. 0. 0. 0. 0. 4.09836043e-003 0. 0. 0.
      4.09836043e-003 4.09836043e-003 0. 0. 0. 0. 0. 0. 0. 0.
      4.09836043e-003 0. 0. 0. 0. 0. 0. 0. 4.09836043e-003 0. 0. 0. 0.
      8.19672085e-003 0. 0. 0. 0. 0. 4.09836043e-003 0. 0. 0. 0.
      4.09836043e-003 0. 0. 0.</_>
    <_>
      0. 1.03806229e-002 0. 0. 0. 1.03806229e-002 0. 0. 0. 0. 0. 0.
      3.46020772e-003 0. 3.46020772e-003 0. 0. 3.46020772e-003
      1.73010379e-002 0. 0. 0. 0. 0. 0. 0. 0. 0. 0. 0. 0. 0.
      3.46020772e-003 0. 3.46020772e-003 0. 0. 0. 0. 0. 0. 0.
      3.46020772e-003 0. 0. 0. 0. 0. 0. 0. 0. 3.46020772e-003 0. 0. 0.
      0. 0. 3.46020772e-003 3.46020772e-003 0. 0. 0. 0. 0. 0. 0. 0. 0.
      3.46020772e-003 3.46020772e-003 0. 0. 3.46020772e-003
      6.92041544e-003 0. 0. 0. 0. 3.46020772e-003 0. 6.92041544e-003
      1.03806229e-002 3.46020772e-003 0. 0. 1.73010379e-002 0.
      3.46020772e-003 2.42214538e-002 0. 0. 0. 0. 0. 0. 0. 0. 0. 0. 0.
      0. 0. 0. 0. 0. 0. 0. 3.46020772e-003 0. 0. 3.46020772e-003 0. 0.
      0. 0. 0. 3.46020772e-003 3.46020772e-003 0. 3.46020772e-003 0. 0.
      0. 0. 0. 0. 0. 0. 0. 0. 0. 0. 0. 0. 3.46020772e-003 0. 0. 0. 0. 0.
      0. 0. 0. 0. 0. 3.46020772e-003 6.92041544e-003 0. 6.92041544e-003
      0. 3.46020772e-003 0. 0. 3.46020772e-003 3.46020772e-003
      6.92041544e-003 0. 0. 0. 0. 3.46020772e-003 0. 3.46020772e-003 0.
      0. 0. 0. 3.46020772e-003 0. 0. 0. 0. 1.03806229e-002 0. 0. 0. 0.
      0. 0. 3.46020772e-003 0. 0. 3.46020772e-003 0. 3.46020772e-003
      3.46020772e-003 0. 0. 3.46020772e-003 0. 0. 0. 3.46020772e-003
      3.46020772e-003 0. 0. 0. 6.92041544e-003 0. 3.46020772e-003 0.
      3.46020772e-003 0. 3.46020772e-003 0. 3.46020772e-003 0. 0. 0. 0.
      1.03806229e-002 0. 3.46020772e-003 0. 3.46020772e-003 0. 0. 0. 0.
      0. 3.46020772e-003 0. 0. 3.46020772e-003 0. 3.46020772e-003 0. 0.
      0. 1.03806229e-002 3.46020772e-003 0. 0. 0. 0. 0. 0. 0.
      6.92041544e-003 0. 0. 0. 0. 0. 0. 0. 0. 6.92041544e-003 0. 0. 0.
      0. 0. 3.46020772e-003 3.46020772e-003 0. 0. 0. 0. 3.46020772e-003
      0. 3.46020772e-003 0. 0. 0. 6.92041544e-003 6.92041544e-003 0.
      3.46020772e-003 3.46020772e-003 0. 3.46020772e-003 0. 0. 0. 0. 0.
      0. 0. 0. 0. 0. 0. 0. 0. 3.46020772e-003 0. 0. 0. 0. 0. 0.
      3.46020772e-003 0. 0. 3.46020772e-003 0. 0. 0. 0. 3.46020772e-003
      0. 0. 0. 0. 0. 0. 0. 0. 0. 3.46020772e-003 0. 0. 3.46020772e-003
      0. 0. 0. 0. 0. 0. 0. 0. 0. 0. 3.46020772e-003 3.46020772e-003 0.
      0. 0. 0. 0. 0. 0. 0. 0. 0. 3.46020772e-003 0. 0. 0. 0.
      3.46020772e-003 0. 0. 0. 0. 0. 6.92041544e-003 3.46020772e-003 0.
      3.46020772e-003 0. 0. 0. 3.46020772e-003 0. 6.92041544e-003 0. 0.
      0. 0. 0. 0. 0. 0. 6.92041544e-003 0. 3.46020772e-003 0.
      3.46020772e-003 3.46020772e-003 0. 0. 0. 0. 3.46020772e-003 0. 0.
      0. 0. 0. 0. 0. 0. 0. 0. 3.46020772e-003 3.46020772e-003 0. 0. 0.
      0. 6.92041544e-003 3.46020772e-003 0. 3.46020772e-003 0. 0. 0. 0.
      0. 0. 0. 0. 3.46020772e-003 0. 0. 0. 6.92041544e-003 0. 0. 0. 0.
      0. 3.46020772e-003 0. 3.46020772e-003 0. 0. 0. 6.92041544e-003
      3.46020772e-003 0. 0. 0. 0. 0. 0. 0. 0. 0. 0. 0. 0. 0. 0. 0. 0. 0.
      0. 0. 0. 0. 0. 0. 0. 0. 0. 0. 0. 0. 0. 0. 0. 3.46020772e-003
      1.03806229e-002 0. 0. 0. 0. 0. 0. 0. 0. 3.46020772e-003 0. 0.
      3.46020772e-003 0. 3.46020772e-003 0. 3.46020772e-003 0.
      6.92041544e-003 0. 3.46020772e-003 0. 0. 0. 0. 0. 0. 0. 0.
      3.46020772e-003 0. 0. 0. 0. 0. 0. 0. 0. 3.46020772e-003
      3.46020772e-003 0. 0. 0. 0. 0. 0. 0. 0. 0. 0. 0. 0. 0.
      3.46020772e-003 0. 0. 0. 3.46020772e-003 0. 3.46020772e-003
      1.38408309e-002 1.38408309e-002 0. 1.38408309e-002 0. 0. 0. 0. 0.
      0. 0. 0. 0. 0. 0. 3.46020772e-003 0. 0. 0. 0. 0. 0. 0. 0. 0. 0. 0.
      0. 0. 0. 0. 0. 0. 3.46020772e-003 0. 0. 0. 0. 0. 0. 0. 0. 0.
      3.46020772e-003 3.46020772e-003 0. 0. 0. 0. 0. 0. 0.
      3.46020772e-003 0. 0. 0. 0. 0. 0. 0. 0. 0. 0. 0. 0. 0. 0. 0. 0. 0.
      0. 0. 3.46020772e-003 3.46020772e-003 6.92041544e-003 0. 0.
      3.46020772e-003 0. 0. 3.46020772e-003 0. 0. 0. 0. 0. 0. 0. 0. 0.
      0. 0. 0. 3.46020772e-003 0. 0. 3.46020772e-003 0. 0. 0. 0. 0.
      6.92041544e-003 0. 0. 0. 0. 0. 0. 0. 3.46020772e-003 0. 0. 0.
      3.46020772e-003 0. 6.92041544e-003 0. 0. 0. 0. 3.46020772e-003 0.
      0. 0. 0. 6.92041544e-003 0. 0. 0. 0. 0. 0. 0. 0. 0.
      3.46020772e-003 0. 0. 6.92041544e-003 3.46020772e-003 0. 0. 0.
      6.92041544e-003 0. 0. 3.46020772e-003 1.38408309e-002 0. 0. 0. 0.
      0. 0. 0. 3.46020772e-003 0. 0. 0. 3.46020772e-003 0.
      3.46020772e-003 0. 0. 0. 0. 0. 0. 0. 1.03806229e-002 0. 0.
      3.46020772e-003 0. 0. 1.38408309e-002 0. 0. 0. 0. 0. 0. 0. 0. 0.
      3.46020772e-003 0. 0. 0. 0. 0. 0. 0. 0. 0. 0. 0. 0. 0. 0.
      3.46020772e-003 6.92041544e-003 0. 6.92041544e-003 0. 0.
      3.46020772e-003 0. 0. 0. 3.46020772e-003 0. 3.46020772e-003 0. 0.
      0. 0. 0. 0. 0. 0. 0. 0. 0. 0. 3.46020772e-003 1.38408309e-002 0.
      0. 3.46020772e-003 6.92041544e-003 0. 0. 0. 0. 0. 0. 0. 0. 0. 0.
      0. 0. 0. 0. 0. 0. 0. 3.46020772e-003 0. 0. 0. 0. 0. 0.
      6.92041544e-003 0. 0. 0. 0. 0. 0. 0. 0. 0. 6.92041544e-003 0. 0.
      0. 0. 0. 0. 0. 0. 0. 0. 3.46020772e-003 3.46020772e-003 0. 0. 0.
      0. 0. 0. 0. 0. 1.73010379e-002 0. 0. 3.46020772e-003
      3.46020772e-003 3.46020772e-003 3.46020772e-003 0. 0. 0. 0. 0. 0.
      0. 3.46020772e-003 0. 0. 0. 0. 0. 0. 6.92041544e-003 0. 0. 0. 0.
      0. 0. 6.92041544e-003 0. 3.46020772e-003 0. 0. 0. 0. 0. 0. 0. 0.
      0. 0. 0. 0. 0. 3.46020772e-003 0. 0. 0. 0. 3.46020772e-003 0. 0.
      0. 6.92041544e-003 0. 0. 3.46020772e-003 0. 0. 0. 0.
      6.92041544e-003 0. 0. 0. 0. 0. 0. 0. 0. 0. 0. 0. 0. 0. 0. 0. 0. 0.
      3.46020772e-003 3.46020772e-003 3.46020772e-003 0. 0. 0. 0. 0. 0.
      0. 0. 6.92041544e-003 3.46020772e-003 0. 0. 0. 0. 1.03806229e-002
      3.46020772e-003 0. 0. 3.46020772e-003 0. 0. 0. 0. 0. 0. 0. 0. 0.
      3.46020772e-003 0. 0. 0. 0. 0. 0. 0. 0. 0. 0. 0. 0. 0.
      3.46020772e-003 0. 3.46020772e-003 0. 0. 0. 0. 0. 0. 0. 0. 0. 0.
      3.46020772e-003 3.46020772e-003 0. 0. 0. 0. 0. 0. 0. 0. 0.
      3.46020772e-003 1.03806229e-002 0. 0. 0. 0. 0. 0. 0. 0. 0. 0.
      3.46020772e-003 0. 0. 0. 0. 0. 0. 0. 0. 0. 6.92041544e-003 0.
      3.46020772e-003 0. 0. 0. 0. 0. 0. 0. 0. 3.46020772e-003 0. 0. 0.
      3.46020772e-003 0. 0. 0. 0. 0. 0. 0. 0. 0. 0. 0. 0.</_>
    <_>
      0. 0. 3.87596898e-003 0. 1.35658914e-002 0. 0. 0. 0. 0. 0. 0. 0.
      0. 0. 1.93798449e-003 0. 5.81395347e-003 0. 1.93798449e-003 0. 0.
      0. 0. 0. 0. 0. 1.93798449e-003 3.87596898e-003 0. 2.71317828e-002
      0. 5.81395347e-003 0. 0. 0. 1.93798449e-003 0. 0. 0. 0. 0. 0.
      7.75193796e-003 0. 3.48837227e-002 0. 0. 0. 3.87596898e-003 0.
      7.75193796e-003 1.93798449e-003 1.93798449e-003 0. 0.
      3.87596898e-003 3.87596898e-003 0. 1.93798449e-003 0.
      3.87596898e-003 0. 0. 0. 1.93798449e-003 0. 0. 0. 0.
      7.75193796e-003 1.93798449e-003 0. 0. 0. 0. 0. 1.93798449e-003 0.
      0. 0. 0. 0. 0. 1.93798449e-003 0. 0. 0. 0. 0. 0. 0. 0. 0.
      7.75193796e-003 0. 0. 1.93798449e-003 0. 0. 0. 1.93798449e-003 0.
      0. 0. 0. 0. 0. 1.93798449e-003 1.93798449e-003 5.81395347e-003 0.
      0. 0. 5.81395347e-003 1.93798449e-003 0. 1.93798449e-003 0. 0. 0.
      0. 0. 1.93798449e-003 0. 0. 1.93798449e-003 0. 7.75193796e-003 0.
      0. 1.93798449e-003 3.87596898e-003 0. 0. 0. 1.93798449e-003
      3.87596898e-003 0. 0. 1.93798449e-003 0. 1.93798449e-003 0.
      1.93798449e-003 0. 0. 0. 0. 0. 0. 0. 1.93798449e-003 0. 0. 0.
      1.93798449e-003 0. 0. 1.93798449e-003 1.93798449e-003
      1.93798449e-003 0. 0. 0. 0. 0. 0. 1.93798449e-003 0.
      1.93798449e-003 3.87596898e-003 0. 0. 0. 1.93798449e-003
      1.93798449e-003 0. 0. 0. 2.71317828e-002 0. 0. 0. 1.93798449e-003
      0. 0. 3.87596898e-003 3.87596898e-003 0. 0. 0. 0. 0. 0. 0.
      7.75193796e-003 0. 0. 0. 1.93798449e-003 0. 1.93798449e-003 0. 0.
      0. 0. 0. 0. 0. 0. 0. 0. 0. 0. 0. 0. 0. 0. 0. 1.93798449e-003 0. 0.
      0. 0. 0. 0. 0. 0. 0. 3.87596898e-003 0. 0. 1.93798449e-003
      3.87596898e-003 0. 0. 0. 0. 1.93798449e-003 1.93798449e-003 0. 0.
      0. 0. 1.93798449e-003 0. 0. 1.16279069e-002 0. 0. 5.81395347e-003
      0. 1.93798449e-003 5.81395347e-003 0. 0. 1.93798449e-003
      3.87596898e-003 0. 0. 1.93798449e-003 0. 0. 0. 0. 0. 0.
      1.93798449e-003 0. 0. 1.93798449e-003 0. 5.81395347e-003 0. 0. 0.
      0. 0. 0. 0. 3.87596898e-003 0. 0. 3.87596898e-003 0. 0. 0. 0.
      7.75193796e-003 0. 0. 0. 0. 1.93798449e-003 9.68992244e-003 0. 0.
      1.93798449e-003 0. 0. 0. 0. 0. 0. 0. 1.93798449e-003
      1.93798449e-003 0. 0. 0. 0. 0. 1.93798449e-003 0. 1.93798449e-003
      0. 0. 0. 0. 0. 0. 0. 0. 0. 0. 0. 0. 0. 0. 1.93798449e-003 0.
      1.93798449e-003 0. 0. 1.35658914e-002 5.81395347e-003 0.
      5.81395347e-003 0. 0. 0. 0. 0. 1.93798449e-003 1.93798449e-003 0.
      0. 1.93798449e-003 0. 0. 0. 0. 0. 0. 0. 0. 0. 0. 0.
      3.87596898e-003 0. 1.93798449e-002 3.87596898e-003 0. 0. 0. 0.
      1.93798449e-003 0. 0. 0. 0. 0. 0. 0. 0. 0. 3.87596898e-003
      1.93798449e-003 0. 0. 1.93798449e-003 0. 5.81395347e-003
      1.93798449e-003 1.93798449e-003 0. 3.87596898e-003 0. 0. 0. 0.
      2.90697664e-002 3.87596898e-003 0. 0. 1.93798449e-003
      1.93798449e-003 3.87596898e-003 1.93798449e-003 0. 0. 0. 0. 0. 0.
      0. 3.87596898e-003 0. 0. 3.87596898e-003 0. 0. 0. 0.
      1.93798449e-003 0. 1.93798449e-003 0. 0. 0. 0. 0. 0. 0.
      1.93798449e-003 0. 0. 0. 0. 9.68992244e-003 0. 0. 0. 0.
      1.93798449e-003 0. 0. 0. 0. 0. 0. 0. 3.87596898e-003 0. 0. 0. 0.
      1.93798449e-003 0. 0. 5.81395347e-003 0. 0. 3.87596898e-003
      3.87596898e-003 5.81395347e-003 0. 0. 0. 0. 0. 1.93798449e-003 0.
      0. 0. 0. 0. 1.93798449e-003 1.93798449e-003 1.93798449e-003
      1.93798449e-003 0. 1.55038759e-002 1.93798449e-003 0. 0. 0. 0. 0.
      1.93798449e-003 0. 0. 0. 0. 0. 1.93798449e-003 9.68992244e-003 0.
      0. 0. 3.87596898e-003 0. 0. 1.93798449e-003 0. 0. 1.93798449e-003
      1.93798449e-003 3.87596898e-003 0. 0. 0. 0. 0. 0. 0.
      3.87596898e-003 0. 5.81395347e-003 0. 3.87596898e-003 0.
      1.93798449e-003 1.93798449e-003 0. 1.93798449e-003 0. 0. 0. 0.
      1.93798449e-003 0. 0. 0. 0. 0. 5.81395347e-003 0. 1.93798449e-003
      0. 1.93798449e-003 0. 0. 0. 0. 0. 0. 0. 0. 1.93798449e-003 0.
      1.93798449e-003 1.93798449e-003 0. 0. 0. 0. 0. 0. 0. 0.
      1.93798449e-003 3.87596898e-003 3.87596898e-003 0. 1.93798449e-003
      0. 1.93798449e-003 3.87596898e-003 0. 3.87596898e-003 0.
      1.93798449e-003 0. 0. 3.87596898e-003 0. 0. 0. 1.93798449e-003
      1.93798449e-003 0. 0. 0. 0. 1.93798449e-003 0. 0. 0. 0. 0. 0. 0.
      5.81395347e-003 0. 0. 0. 0. 3.87596898e-003 0. 1.93798449e-003 0.
      0. 0. 0. 1.93798449e-003 1.93798449e-003 0. 0. 0. 1.93798449e-003
      0. 0. 0. 0. 0. 0. 1.93798449e-003 0. 0. 0. 0. 0. 0. 0. 0. 0.
      3.87596898e-003 0. 1.93798449e-003 0. 0. 0. 0. 0. 0. 0.
      1.93798449e-003 0. 0. 0. 0. 0. 0. 0. 3.87596898e-003 0. 0.
      1.93798449e-003 0. 0. 0. 0. 1.93798449e-003 0. 9.68992244e-003 0.
      1.93798449e-003 1.93798449e-003 0. 0. 0. 3.87596898e-003 0. 0. 0.
      5.81395347e-003 0. 0. 3.87596898e-003 7.75193796e-003
      5.81395347e-003 0. 0. 0. 0. 0. 1.16279069e-002 0. 0. 0.
      1.93798449e-003 0. 0. 0. 0. 0. 0. 0. 1.93798449e-003
      3.87596898e-003 0. 0. 1.93798449e-003 0. 7.75193796e-003 0. 0. 0.
      0. 1.93798449e-003 0. 0. 0. 0. 1.93798449e-003 0. 0.
      3.87596898e-003 0. 0. 0. 0. 0. 0. 0. 0. 0. 0. 0. 0. 0.
      1.93798449e-003 0. 0. 5.81395347e-003 0. 0. 0. 0. 0. 0. 0. 0. 0.
      0. 1.93798449e-003 0. 0. 0. 0. 1.93798449e-003 0. 0. 0. 0. 0.
      7.75193796e-003 3.87596898e-003 0. 0. 0. 0. 0. 0. 1.93798449e-003
      0. 3.87596898e-003 3.87596898e-003 0. 0. 0. 0. 0. 0. 0. 0. 0.
      1.93798449e-003 1.93798449e-003 3.87596898e-003 0. 0. 0. 0. 0. 0.
      1.93798449e-003 0. 9.68992244e-003 0. 0. 0. 0. 0. 0.
      1.93798449e-003 0. 0. 5.81395347e-003 0. 0. 0. 0. 0. 0. 0. 0.
      1.16279069e-002 0. 5.81395347e-003 0. 0. 0. 0. 0. 0. 0. 0. 0. 0.
      0. 0. 1.93798449e-003 0. 0. 0. 0. 0. 0. 1.93798449e-003 0. 0. 0.
      0. 0. 0. 0. 0. 0. 0. 0. 0. 0. 0. 0. 1.93798449e-003 0. 0. 0. 0. 0.
      0. 0. 0. 1.93798449e-003 0. 0. 1.93798449e-003 0. 0. 0. 0. 0. 0.
      0. 0. 0. 0. 0. 1.93798449e-003 0. 0. 0. 0. 0. 0. 1.93798449e-003
      0. 0. 0. 0. 0. 0. 0. 0. 0. 1.93798449e-003 0. 0. 0.
      7.75193796e-003 5.81395347e-003 0. 0. 0. 0. 0. 0. 0.
      1.93798449e-003 0. 0. 0. 0. 1.93798449e-003 1.93798449e-003 0. 0.
      1.93798449e-003 0. 1.93798449e-003 0. 1.93798449e-003 0.
      1.93798449e-003 0. 0. 0. 0. 5.81395347e-003 0. 0. 0. 0. 0. 0. 0.
      1.93798449e-003 0. 0. 1.93798449e-003 0. 0. 0. 1.93798449e-003 0.
      3.87596898e-003 0. 3.87596898e-003 0. 0. 0. 1.93798449e-003 0. 0.
      3.87596898e-003 0. 1.93798449e-003 0. 1.93798449e-003 0. 0.
      1.93798449e-003 0. 5.81395347e-003 0. 0. 0. 0. 7.75193796e-003
      5.81395347e-003 0. 0. 0. 1.93798449e-003 0. 0. 0. 0. 0. 0. 0. 0.
      5.81395347e-003 0. 0. 0. 0. 0. 1.93798449e-003 1.93798449e-003
      1.93798449e-003 0. 0. 0. 0. 0. 0. 0. 0. 0. 0. 0. 0.
      3.87596898e-003 0. 0. 1.93798449e-003 1.93798449e-003 0. 0. 0.
      3.87596898e-003 0. 5.81395347e-003 0. 0. 0. 0. 0. 0. 0. 0. 0.
      1.93798449e-003 0. 0.</_>
    <_>
